svm_type c_svc
kernel_type linear
nr_class 15
total_sv 702
rho 181.791758298003 14.54881081526718 5.592024343703306 4.506151550674757 3.78964252749158 2.8818389337018973 1.5235050767250804 1.6076031292315063 5.400873193027716 3.147679039403101 2.1255111947866365 2.234864725290485 8.022936928432754 3.0243802625069534 5.34125932433915 6.068960273493621 4.699238912654475 1.6856565596847681 1.1593601338046333 0.682418937293465 0.2680809050785173 5.351541126384429 2.447519278699618 -0.22665624411062663 -0.5234688097470832 11.420369230220835 2.2944882870799512 -6.213132287962421 4.553576845949116 1.1789617224435829 0.03379409229449256 -0.06693485660319227 0.8984050139976195 9.222553581763245 2.290346727251339 0.8808104675877505 0.348714400834929 85.96270366968552 0.014525224386414718 -0.25005278470755166 0.4713358154905402 -5.25523063330677 -2.113999590237634 -0.32671545731335244 12.925721218638193 3.044930402107096 -0.6824572264392296 -0.07995373359514231 219.61510367821012 0.9626474738563395 -87.35631066768926 0.8952472695622489 -0.17889020765544672 0.4036604501011313 16.440721274732844 4.647867533889519 0.19169347226262348 0.04891936154181168 48.40555683966344 12.738259491979722 10.811915915238703 2.2794181607624564 0.8829529864436827 12.63617874863725 5.337719439852123 1.1950792289541252 0.417965060188927 17.345640543583265 15.057849956448297 -7.029092616676749 1.1394139392683957 21.680594828285127 8.612444531522762 0.9602873764990149 0.9664960948544324 5.492866238385836 25.238337719940137 -0.8484476066816967 6.881536779227666 16.553716410318895 4.372626535438153 1.1841992443887381 1.1547209264651863 4.834511758308545 2.830682663982996 18.210609029064155 55.835420041999534 4.151223488935406 0.20803725454854266 2.7028991394020814 -19.811561202341284 -0.34718427095216975 -0.8868131249028628 -134.15967044616724 -39.31353983395154 10.75392640894011 -1.5565106438695215 -5.032977222235727 -5.9982958403801865 9.225583372570759 0.5709132150016988 1.891647479061052 0.4476613984036153 1.059883971135881 6.260106566845058
label 1 10 2 3 4 5 6 7 8 9 13 14 15 11 12
nr_sv 12 40 44 94 100 53 30 30 49 58 47 50 20 48 27
SV
0.0 0.0 0.0 0.0 2.4869001413123055E-5 0.0 0.0 0.0 0.0 0.0 0.0 0.0 0.0 0.0 1:-61.0 2:-72.0 3:-71.0 4:-68.0 5:-83.0 6:-95.0 7:-95.0 8:-95.0 9:-95.0 10:-95.0 11:-95.0 12:-87.0 13:-95.0 14:-95.0 15:-95.0 16:-95.0 17:-95.0 18:-80.0 
0.0 0.0 0.0 0.0 0.0 2.7255622195020904E-5 0.0 0.0 0.0 0.0 0.0 0.0 0.0 0.0 1:-59.0 2:-79.0 3:-75.0 4:-79.0 5:-84.0 6:-88.0 7:-95.0 8:-95.0 9:-77.0 10:-78.0 11:-95.0 12:-95.0 13:-95.0 14:-77.0 15:-87.0 16:-86.0 17:-95.0 18:-95.0 
0.0 0.0 0.0 0.0 0.0 1.6228995156771173E-4 3.7617163130516164E-4 3.4810834411840876E-4 0.0 1.8770266115012668E-4 3.273438176714575E-4 3.2125382512510677E-4 0.0 0.0 1:-59.0 2:-83.0 3:-71.0 4:-77.0 5:-87.0 6:-88.0 7:-95.0 8:-95.0 9:-81.0 10:-78.0 11:-90.0 12:-95.0 13:-88.0 14:-77.0 15:-87.0 16:-89.0 17:-95.0 18:-81.0 
0.0 8.341317594755357E-4 8.246624472223394E-4 4.3782218571198717E-4 0.0 0.0 0.0 0.0 0.0 0.0 0.0 0.0 0.0 6.147656304557161E-5 1:-61.0 2:-68.0 3:-67.0 4:-73.0 5:-84.0 6:-95.0 7:-95.0 8:-95.0 9:-81.0 10:-78.0 11:-95.0 12:-95.0 13:-95.0 14:-88.0 15:-88.0 16:-85.0 17:-95.0 18:-87.0 
0.0 0.0 0.0 0.0 0.0 0.0 0.0 0.0 0.0 0.0 0.0 1.8982007463068116E-5 0.0 0.0 1:-59.0 2:-77.0 3:-75.0 4:-75.0 5:-86.0 6:-95.0 7:-95.0 8:-95.0 9:-73.0 10:-80.0 11:-95.0 12:-95.0 13:-87.0 14:-85.0 15:-87.0 16:-82.0 17:-95.0 18:-84.0 
0.09772253910675827 0.0 0.0 0.0 0.0 0.0 0.0 0.0 0.0 0.0 0.0 0.0 1.9284410104181494E-5 0.0 1:-34.0 2:-67.0 3:-67.0 4:-71.0 5:-82.0 6:-95.0 7:-91.0 8:-95.0 9:-68.0 10:-72.0 11:-95.0 12:-95.0 13:-95.0 14:-85.0 15:-83.0 16:-82.0 17:-95.0 18:-77.0 
0.0 1.291441567921608E-4 3.107080650694586E-4 2.9141006644774095E-4 2.798554520230107E-4 2.024605697242799E-4 0.0 0.0 3.3568366650015875E-4 1.0552100684607096E-4 0.0 0.0 8.366028463033378E-4 2.3075542089140655E-4 1:-56.0 2:-71.0 3:-79.0 4:-75.0 5:-82.0 6:-95.0 7:-91.0 8:-95.0 9:-66.0 10:-72.0 11:-95.0 12:-95.0 13:-95.0 14:-85.0 15:-95.0 16:-95.0 17:-95.0 18:-76.0 
0.0 0.0 0.0 0.0 0.0 0.0 0.0 0.0 0.0 0.0 0.0 2.8761916886168506E-5 0.0 0.0 1:-59.0 2:-68.0 3:-75.0 4:-74.0 5:-83.0 6:-95.0 7:-95.0 8:-95.0 9:-77.0 10:-75.0 11:-95.0 12:-95.0 13:-85.0 14:-83.0 15:-95.0 16:-79.0 17:-87.0 18:-86.0 
0.0 0.0 0.0 0.0 0.0 0.0 0.0 0.0 1.1508159343256608E-5 0.0 0.0 0.0 0.0 0.0 1:-57.0 2:-74.0 3:-73.0 4:-69.0 5:-82.0 6:-95.0 7:-95.0 8:-95.0 9:-77.0 10:-75.0 11:-95.0 12:-95.0 13:-85.0 14:-83.0 15:-95.0 16:-83.0 17:-95.0 18:-86.0 
0.07215131782119545 0.0051369327588128 5.262412205790532E-4 1.4786364532834624E-4 1.3752561287355054E-4 0.0 0.0 0.0 0.0 0.0 0.0 0.0 0.0 0.0 1:-50.0 2:-67.0 3:-74.0 4:-66.0 5:-82.0 6:-95.0 7:-95.0 8:-95.0 9:-77.0 10:-75.0 11:-95.0 12:-95.0 13:-95.0 14:-95.0 15:-95.0 16:-85.0 17:-95.0 18:-95.0 
0.18562744843565387 7.701198569959876E-5 0.0 0.0 0.0 0.0 0.0 0.0 0.0 0.0 0.0 0.0 2.249232690384972E-4 0.0 1:-55.0 2:-70.0 3:-69.0 4:-70.0 5:-82.0 6:-95.0 7:-95.0 8:-95.0 9:-77.0 10:-73.0 11:-95.0 12:-95.0 13:-95.0 14:-79.0 15:-95.0 16:-79.0 17:-95.0 18:-81.0 
0.0 0.0 0.0 0.0 4.0095936832949456E-4 1.4075510243237574E-4 0.0 0.0 1.8087236757821866E-5 0.0 0.0 0.0 0.0 7.378432945975171E-5 1:-60.0 2:-79.0 3:-74.0 4:-70.0 5:-82.0 6:-95.0 7:-95.0 8:-95.0 9:-77.0 10:-73.0 11:-95.0 12:-95.0 13:-95.0 14:-85.0 15:-95.0 16:-79.0 17:-95.0 18:-81.0 
-0.06936024079089902 0.0 0.0 0.0 0.0 0.0 0.0 0.0 0.0 0.0 0.0 0.0 0.0 0.0 1:-51.0 2:-65.0 3:-67.0 4:-74.0 5:-82.0 6:-95.0 7:-95.0 8:-95.0 9:-70.0 10:-73.0 11:-95.0 12:-95.0 13:-95.0 14:-81.0 15:-95.0 16:-78.0 17:-95.0 18:-81.0 
-0.0 9.967658154500221E-4 0.0 0.0 0.0 0.0 0.0 0.0 0.0 0.0 0.0 0.0 0.0 0.0 1:-57.0 2:-58.0 3:-61.0 4:-64.0 5:-81.0 6:-95.0 7:-95.0 8:-95.0 9:-69.0 10:-68.0 11:-84.0 12:-95.0 13:-83.0 14:-78.0 15:-95.0 16:-73.0 17:-81.0 18:-75.0 
-0.0 0.0 0.0 0.0 0.0 0.0 0.0 0.0 0.0 5.255924248430947E-5 2.092116046599692E-5 0.0 0.0 0.0 1:-59.0 2:-61.0 3:-74.0 4:-60.0 5:-81.0 6:-95.0 7:-95.0 8:-95.0 9:-67.0 10:-67.0 11:-84.0 12:-95.0 13:-83.0 14:-78.0 15:-95.0 16:-95.0 17:-95.0 18:-67.0 
-0.0 0.06136955803046651 0.0 0.0 0.0 0.0 0.0 0.0 0.0 0.0 0.0 0.0 0.0 0.0 1:-50.0 2:-58.0 3:-69.0 4:-60.0 5:-78.0 6:-95.0 7:-95.0 8:-95.0 9:-67.0 10:-68.0 11:-84.0 12:-95.0 13:-83.0 14:-95.0 15:-95.0 16:-95.0 17:-95.0 18:-78.0 
-0.0 0.05924018151650542 0.001892252225410817 0.0 0.0 0.0 0.0 0.0 4.1701066959430984E-4 0.0 0.0 0.0 0.001984992018263002 0.0 1:-57.0 2:-58.0 3:-64.0 4:-62.0 5:-71.0 6:-95.0 7:-95.0 8:-95.0 9:-67.0 10:-68.0 11:-84.0 12:-95.0 13:-83.0 14:-82.0 15:-95.0 16:-95.0 17:-95.0 18:-78.0 
-0.04688809319680347 0.0 0.0 0.0 0.0 0.0 0.0 0.0 0.0 0.0 0.0 0.0 0.0 0.0 1:-54.0 2:-68.0 3:-70.0 4:-69.0 5:-79.0 6:-95.0 7:-95.0 8:-95.0 9:-77.0 10:-75.0 11:-95.0 12:-95.0 13:-95.0 14:-82.0 15:-95.0 16:-76.0 17:-95.0 18:-76.0 
-0.021388949494581554 0.0 0.0 0.0 0.0 0.0 0.0 0.0 0.0 0.0 0.0 0.0 0.0 0.0 1:-41.0 2:-68.0 3:-71.0 4:-66.0 5:-79.0 6:-95.0 7:-88.0 8:-95.0 9:-77.0 10:-71.0 11:-95.0 12:-95.0 13:-95.0 14:-88.0 15:-95.0 16:-76.0 17:-95.0 18:-77.0 
-0.04350587134814555 0.0 0.0 0.0 0.0 0.0 0.0 0.0 0.0 0.0 0.0 0.0 0.0 0.0 1:-46.0 2:-67.0 3:-76.0 4:-68.0 5:-79.0 6:-95.0 7:-88.0 8:-95.0 9:-77.0 10:-71.0 11:-95.0 12:-95.0 13:-95.0 14:-80.0 15:-95.0 16:-74.0 17:-95.0 18:-77.0 
-0.023665929299513378 0.0 0.0 0.0 0.0 0.0 0.0 0.0 0.0 0.0 0.0 0.0 0.0 0.0 1:-45.0 2:-65.0 3:-71.0 4:-68.0 5:-79.0 6:-95.0 7:-95.0 8:-95.0 9:-70.0 10:-77.0 11:-95.0 12:-95.0 13:-95.0 14:-80.0 15:-95.0 16:-74.0 17:-95.0 18:-79.0 
-0.0 0.0 2.5807271217818603E-4 0.0 0.0 0.0 0.0 0.0 0.0 0.0 0.0 0.0 0.0 0.0 1:-69.0 2:-61.0 3:-68.0 4:-63.0 5:-79.0 6:-95.0 7:-95.0 8:-95.0 9:-76.0 10:-71.0 11:-95.0 12:-85.0 13:-95.0 14:-95.0 15:-95.0 16:-76.0 17:-95.0 18:-70.0 
-0.0 0.0 0.0 0.0 1.5682662063845094E-4 5.438450367617909E-4 2.8354349725533053E-4 0.0 0.0 0.0 0.0 0.0 0.0 6.340272696959216E-5 1:-63.0 2:-64.0 3:-62.0 4:-65.0 5:-76.0 6:-80.0 7:-84.0 8:-95.0 9:-71.0 10:-71.0 11:-95.0 12:-85.0 13:-95.0 14:-78.0 15:-95.0 16:-95.0 17:-95.0 18:-77.0 
-0.0 0.0 0.0 0.0 0.0 0.0 0.0 0.0 0.0 0.0 0.0 0.0 0.0 1.0070246847520253E-4 1:-61.0 2:-59.0 3:-63.0 4:-67.0 5:-76.0 6:-80.0 7:-84.0 8:-95.0 9:-68.0 10:-67.0 11:-95.0 12:-95.0 13:-95.0 14:-78.0 15:-95.0 16:-95.0 17:-95.0 18:-72.0 
-0.0 0.08098859323361268 0.0 0.0 0.0 0.0 0.0 0.0 0.0 0.0 0.0 0.0 0.0 0.0 1:-53.0 2:-61.0 3:-64.0 4:-58.0 5:-71.0 6:-84.0 7:-91.0 8:-95.0 9:-72.0 10:-63.0 11:-95.0 12:-95.0 13:-95.0 14:-95.0 15:-95.0 16:-95.0 17:-95.0 18:-79.0 
-0.0 1.0 0.0 0.0 4.074309187834799E-4 0.0 0.0 0.0 0.0 0.0 0.0 0.0 0.0 0.0 1:-56.0 2:-61.0 3:-66.0 4:-58.0 5:-71.0 6:-84.0 7:-91.0 8:-95.0 9:-72.0 10:-63.0 11:-95.0 12:-95.0 13:-95.0 14:-95.0 15:-95.0 16:-95.0 17:-95.0 18:-79.0 
-0.0 1.0 0.008617909579971888 0.0024665294859258077 0.0010646194182064438 0.0 0.0 0.0 0.0 0.0 0.0 0.0 0.001306915122269996 3.183330004673324E-4 1:-58.0 2:-57.0 3:-58.0 4:-63.0 5:-71.0 6:-84.0 7:-91.0 8:-95.0 9:-70.0 10:-68.0 11:-95.0 12:-95.0 13:-95.0 14:-95.0 15:-95.0 16:-95.0 17:-95.0 18:-86.0 
-0.0 1.0 0.0 0.0 0.0 0.0 0.0 0.0 0.0 0.0 0.0 0.0 0.0 0.0 1:-55.0 2:-58.0 3:-68.0 4:-63.0 5:-79.0 6:-84.0 7:-91.0 8:-95.0 9:-68.0 10:-68.0 11:-95.0 12:-95.0 13:-95.0 14:-95.0 15:-95.0 16:-95.0 17:-95.0 18:-86.0 
-0.0 0.5419655754047327 0.0 0.0 0.0 0.0 0.0 0.0 0.0 0.0 0.0 0.0 0.0 0.0 1:-59.0 2:-57.0 3:-67.0 4:-63.0 5:-78.0 6:-95.0 7:-95.0 8:-95.0 9:-75.0 10:-75.0 11:-84.0 12:-95.0 13:-95.0 14:-95.0 15:-95.0 16:-95.0 17:-95.0 18:-95.0 
-0.025152115879298217 0.0 0.0 0.0 0.0 0.0 0.0 0.0 0.0 0.0 0.0 0.0 0.0 0.0 1:-46.0 2:-66.0 3:-69.0 4:-70.0 5:-84.0 6:-95.0 7:-95.0 8:-95.0 9:-76.0 10:-71.0 11:-84.0 12:-95.0 13:-95.0 14:-82.0 15:-89.0 16:-95.0 17:-95.0 18:-95.0 
-0.03894891755777653 0.0 0.0 0.0 0.0 0.0 0.0 0.0 0.0 0.0 0.0 0.0 0.0 0.0 1:-53.0 2:-67.0 3:-67.0 4:-67.0 5:-84.0 6:-95.0 7:-95.0 8:-95.0 9:-76.0 10:-69.0 11:-95.0 12:-95.0 13:-95.0 14:-82.0 15:-77.0 16:-75.0 17:-95.0 18:-95.0 
-0.0 0.0041136460479714925 2.408744496438139E-6 0.0 0.0 0.0 0.0 0.0 0.0 0.0 0.0 0.0 0.0 0.0 1:-59.0 2:-65.0 3:-63.0 4:-61.0 5:-77.0 6:-95.0 7:-95.0 8:-95.0 9:-69.0 10:-65.0 11:-95.0 12:-95.0 13:-79.0 14:-95.0 15:-77.0 16:-80.0 17:-95.0 18:-95.0 
-0.0 0.0 1.1257884595011807E-4 0.0 0.0 0.0 0.0 0.0 0.0 0.0 0.0 0.0 0.0 0.0 1:-67.0 2:-60.0 3:-65.0 4:-59.0 5:-77.0 6:-95.0 7:-95.0 8:-95.0 9:-74.0 10:-71.0 11:-95.0 12:-95.0 13:-88.0 14:-79.0 15:-87.0 16:-85.0 17:-82.0 18:-76.0 
-0.003153963570729131 0.0 0.0 0.0 0.0 0.0 0.0 0.0 0.0 0.0 0.0 0.0 0.0 0.0 1:-49.0 2:-62.0 3:-66.0 4:-64.0 5:-95.0 6:-95.0 7:-95.0 8:-95.0 9:-74.0 10:-73.0 11:-95.0 12:-95.0 13:-88.0 14:-79.0 15:-87.0 16:-85.0 17:-82.0 18:-78.0 
-0.0 0.05579309194796974 0.0 0.0 0.0 0.0 2.1504263935150546E-6 0.0 0.0 0.0 0.0 0.0 0.0 0.0 1:-68.0 2:-60.0 3:-73.0 4:-62.0 5:-82.0 6:-95.0 7:-95.0 8:-95.0 9:-75.0 10:-68.0 11:-95.0 12:-87.0 13:-95.0 14:-95.0 15:-95.0 16:-84.0 17:-95.0 18:-95.0 
-0.004530726921093665 0.0 0.0 0.0 0.0 0.0 0.0 0.0 0.0 0.0 0.0 0.0 0.0 0.0 1:-50.0 2:-63.0 3:-67.0 4:-77.0 5:-82.0 6:-95.0 7:-95.0 8:-95.0 9:-75.0 10:-68.0 11:-95.0 12:-87.0 13:-95.0 14:-76.0 15:-95.0 16:-84.0 17:-95.0 18:-95.0 
-0.0 0.0 0.0 0.0 0.0 0.0 0.0 0.0 0.0 0.0 0.0 0.0 1.525192654468426E-4 0.0 1:-62.0 2:-60.0 3:-64.0 4:-66.0 5:-85.0 6:-92.0 7:-95.0 8:-95.0 9:-69.0 10:-71.0 11:-85.0 12:-95.0 13:-95.0 14:-79.0 15:-80.0 16:-95.0 17:-95.0 18:-72.0 
-0.037247808667474805 0.0 0.0 0.0 0.0 0.0 0.0 0.0 0.0 0.0 0.0 0.0 0.0 0.0 1:-44.0 2:-68.0 3:-65.0 4:-67.0 5:-81.0 6:-89.0 7:-95.0 8:-95.0 9:-73.0 10:-75.0 11:-95.0 12:-95.0 13:-95.0 14:-95.0 15:-88.0 16:-95.0 17:-95.0 18:-85.0 
-0.0 0.00832458993655738 0.0 0.0 0.0 0.0 0.0 0.0 0.0 0.0 0.0 0.0 0.0 0.0 1:-56.0 2:-64.0 3:-65.0 4:-58.0 5:-81.0 6:-89.0 7:-95.0 8:-95.0 9:-73.0 10:-63.0 11:-95.0 12:-95.0 13:-95.0 14:-95.0 15:-88.0 16:-95.0 17:-95.0 18:-68.0 
-0.0 0.29479307142420386 0.0 0.0 0.0 0.0 0.0 0.0 0.0 0.0 0.0 0.0 0.0 0.0 1:-52.0 2:-62.0 3:-60.0 4:-57.0 5:-81.0 6:-89.0 7:-95.0 8:-95.0 9:-69.0 10:-70.0 11:-95.0 12:-95.0 13:-95.0 14:-95.0 15:-95.0 16:-95.0 17:-95.0 18:-68.0 
-0.0 0.0 0.0 0.0 0.0 0.0 1.0300566769050984E-4 0.0 0.0 0.0 0.0 0.0 0.0 0.0 1:-59.0 2:-77.0 3:-62.0 4:-67.0 5:-81.0 6:-86.0 7:-84.0 8:-95.0 9:-78.0 10:-70.0 11:-95.0 12:-95.0 13:-85.0 14:-86.0 15:-95.0 16:-82.0 17:-95.0 18:-71.0 
-0.0 0.0 1.9513290116816284E-4 0.0 0.0 0.0 0.0 0.0 0.0 1.723698179213456E-4 0.0 0.0 0.0 0.0 1:-63.0 2:-68.0 3:-63.0 4:-63.0 5:-81.0 6:-95.0 7:-85.0 8:-95.0 9:-67.0 10:-68.0 11:-95.0 12:-86.0 13:-95.0 14:-95.0 15:-83.0 16:-95.0 17:-95.0 18:-68.0 
-0.0 0.0 0.0 5.303955349822678E-4 4.660880823224405E-4 2.920295936850642E-4 0.0 0.0 1.3355109799336313E-4 4.4053906717854966E-5 0.0 0.0 0.0 1.7510529476156314E-4 1:-61.0 2:-62.0 3:-63.0 4:-68.0 5:-69.0 6:-78.0 7:-95.0 8:-92.0 9:-77.0 10:-63.0 11:-95.0 12:-82.0 13:-95.0 14:-95.0 15:-95.0 16:-77.0 17:-95.0 18:-68.0 
-0.0 0.0 0.0 0.0 0.0 0.0 0.0 0.0 6.523702729704077E-5 0.0 0.0 0.0 7.963757805285014E-4 0.0 1:-60.0 2:-56.0 3:-67.0 4:-63.0 5:-72.0 6:-82.0 7:-95.0 8:-92.0 9:-69.0 10:-66.0 11:-95.0 12:-82.0 13:-95.0 14:-95.0 15:-95.0 16:-77.0 17:-95.0 18:-68.0 
-0.014030147235112452 0.0 0.0 0.0 0.0 0.0 0.0 0.0 0.0 0.0 0.0 0.0 0.0 0.0 1:-38.0 2:-70.0 3:-75.0 4:-65.0 5:-79.0 6:-95.0 7:-95.0 8:-95.0 9:-76.0 10:-67.0 11:-95.0 12:-89.0 13:-95.0 14:-95.0 15:-95.0 16:-78.0 17:-95.0 18:-79.0 
-0.0 0.7461652522515653 0.0 0.0 0.0 0.0 0.0 0.0 0.0 0.0 0.0 0.0 0.0 0.0 1:-60.0 2:-62.0 3:-69.0 4:-55.0 5:-79.0 6:-95.0 7:-95.0 8:-95.0 9:-74.0 10:-64.0 11:-95.0 12:-95.0 13:-95.0 14:-87.0 15:-95.0 16:-76.0 17:-95.0 18:-74.0 
-0.022742119566999442 0.0 0.0 0.0 0.0 0.0 0.0 0.0 0.0 0.0 0.0 0.0 0.0 0.0 1:-58.0 2:-74.0 3:-66.0 4:-63.0 5:-83.0 6:-95.0 7:-95.0 8:-95.0 9:-71.0 10:-71.0 11:-95.0 12:-95.0 13:-95.0 14:-87.0 15:-95.0 16:-95.0 17:-95.0 18:-80.0 
-0.0 0.05595459379203642 0.0 0.0 0.0 0.0 0.0 0.0 0.0 0.0 0.0 0.0 0.0 0.0 1:-57.0 2:-61.0 3:-66.0 4:-59.0 5:-84.0 6:-95.0 7:-95.0 8:-95.0 9:-69.0 10:-66.0 11:-95.0 12:-95.0 13:-95.0 14:-80.0 15:-95.0 16:-95.0 17:-95.0 18:-80.0 
-0.002144918759658691 0.0 0.0 0.0 0.0 0.0 0.0 0.0 0.0 0.0 0.0 0.0 0.0 0.0 1:-49.0 2:-68.0 3:-67.0 4:-68.0 5:-83.0 6:-95.0 7:-95.0 8:-95.0 9:-75.0 10:-70.0 11:-95.0 12:-95.0 13:-95.0 14:-95.0 15:-89.0 16:-95.0 17:-95.0 18:-81.0 
-0.002741503075521857 0.0 0.0 0.0 0.0 0.0 0.0 0.0 0.0 0.0 0.0 0.0 0.0 0.0 1:-44.0 2:-67.0 3:-66.0 4:-66.0 5:-76.0 6:-95.0 7:-95.0 8:-95.0 9:-83.0 10:-72.0 11:-95.0 12:-95.0 13:-95.0 14:-95.0 15:-82.0 16:-95.0 17:-95.0 18:-89.0 
-0.0 0.0 0.0 0.0 0.0 0.0 0.0 1.4892964319287416E-4 0.0 1.1125178280807702E-4 3.442291982551412E-4 8.776995872093975E-5 0.0 0.0 1:-59.0 2:-67.0 3:-63.0 4:-58.0 5:-95.0 6:-95.0 7:-89.0 8:-90.0 9:-72.0 10:-67.0 11:-95.0 12:-82.0 13:-80.0 14:-76.0 15:-82.0 16:-75.0 17:-87.0 18:-68.0 
-0.0 0.0 0.0 0.0 0.0 0.0 0.0 2.210764407748123E-4 0.0 0.0 0.0 3.108738258499099E-4 0.0 0.0 1:-65.0 2:-64.0 3:-59.0 4:-62.0 5:-95.0 6:-95.0 7:-89.0 8:-90.0 9:-75.0 10:-71.0 11:-95.0 12:-82.0 13:-80.0 14:-76.0 15:-82.0 16:-75.0 17:-87.0 18:-74.0 
-0.0034690909329475467 -0.0 0.0 0.0 0.0 0.0 0.0 0.0 0.0 0.0 0.0 0.0 0.0 0.0 1:-59.0 2:-59.0 3:-65.0 4:-59.0 5:-75.0 6:-95.0 7:-95.0 8:-95.0 9:-72.0 10:-67.0 11:-95.0 12:-95.0 13:-95.0 14:-95.0 15:-95.0 16:-83.0 17:-95.0 18:-95.0 
-8.497517802361842E-4 -0.0 0.0 0.0 0.0 0.0 0.0 0.0 0.0 0.0 0.0 0.0 0.0 0.0 1:-54.0 2:-66.0 3:-61.0 4:-56.0 5:-95.0 6:-95.0 7:-95.0 8:-95.0 9:-69.0 10:-65.0 11:-95.0 12:-95.0 13:-95.0 14:-95.0 15:-95.0 16:-95.0 17:-95.0 18:-95.0 
-0.0 -0.7123752890304017 0.0 0.0 0.0 0.0 0.0 0.0 0.0 0.0 0.0 0.0 0.0 0.0 1:-54.0 2:-61.0 3:-57.0 4:-66.0 5:-76.0 6:-78.0 7:-95.0 8:-95.0 9:-66.0 10:-68.0 11:-95.0 12:-95.0 13:-95.0 14:-95.0 15:-95.0 16:-95.0 17:-95.0 18:-86.0 
-3.8699602145316565E-4 -0.5673046282355754 0.0 0.0 0.0 0.0 0.0 0.0 0.0 0.0 0.0 0.0 0.0 0.0 1:-63.0 2:-62.0 3:-62.0 4:-65.0 5:-84.0 6:-81.0 7:-95.0 8:-95.0 9:-76.0 10:-73.0 11:-95.0 12:-95.0 13:-95.0 14:-95.0 15:-95.0 16:-95.0 17:-95.0 18:-86.0 
-0.0 -0.0 0.0 0.0 0.0 0.0 0.0 1.6926379082744538E-5 0.0 0.0 0.0 0.0 0.0 0.0 1:-64.0 2:-65.0 3:-63.0 4:-59.0 5:-84.0 6:-81.0 7:-95.0 8:-95.0 9:-75.0 10:-74.0 11:-95.0 12:-95.0 13:-95.0 14:-95.0 15:-95.0 16:-95.0 17:-95.0 18:-85.0 
-0.0014713819261431974 -0.5926621235562824 0.0 0.0 0.0 0.0 0.0 0.0 0.0 0.0 0.0 0.0 0.0 0.0 1:-54.0 2:-56.0 3:-71.0 4:-58.0 5:-84.0 6:-82.0 7:-95.0 8:-95.0 9:-77.0 10:-72.0 11:-88.0 12:-95.0 13:-95.0 14:-95.0 15:-95.0 16:-95.0 17:-95.0 18:-85.0 
-0.0 -0.0 0.0 0.0 7.073992069680145E-4 0.0 0.0 0.0 0.0 0.0 0.0 0.0 0.0 0.0 1:-62.0 2:-56.0 3:-73.0 4:-57.0 5:-65.0 6:-82.0 7:-95.0 8:-95.0 9:-65.0 10:-65.0 11:-95.0 12:-95.0 13:-95.0 14:-95.0 15:-95.0 16:-95.0 17:-95.0 18:-95.0 
-0.0 -0.0 0.0 0.0 0.0 0.0 1.035914873601633E-5 0.0 0.0 0.0 0.0 0.0 0.0 0.0 1:-69.0 2:-52.0 3:-65.0 4:-59.0 5:-84.0 6:-82.0 7:-95.0 8:-91.0 9:-71.0 10:-65.0 11:-95.0 12:-95.0 13:-95.0 14:-95.0 15:-95.0 16:-95.0 17:-95.0 18:-95.0 
-0.0 -1.0 0.0 0.0 0.0 0.0 0.0 0.0 0.0 0.0 0.0 0.0 0.0 0.0 1:-56.0 2:-58.0 3:-68.0 4:-59.0 5:-72.0 6:-95.0 7:-91.0 8:-95.0 9:-68.0 10:-64.0 11:-95.0 12:-95.0 13:-95.0 14:-95.0 15:-95.0 16:-95.0 17:-95.0 18:-82.0 
-0.0 -0.334587829012777 0.0 0.0 0.0 0.0 0.0 0.0 0.0 0.0 0.0 0.0 0.0 0.0 1:-56.0 2:-59.0 3:-68.0 4:-59.0 5:-78.0 6:-95.0 7:-91.0 8:-95.0 9:-68.0 10:-64.0 11:-95.0 12:-95.0 13:-95.0 14:-95.0 15:-95.0 16:-95.0 17:-95.0 18:-82.0 
-0.0 -0.0 0.0 0.0 0.0 0.0 0.0 0.0 0.0 0.0 0.0 0.0 0.009279088665332749 0.0 1:-62.0 2:-50.0 3:-62.0 4:-57.0 5:-83.0 6:-95.0 7:-91.0 8:-95.0 9:-59.0 10:-64.0 11:-82.0 12:-95.0 13:-95.0 14:-95.0 15:-95.0 16:-95.0 17:-95.0 18:-70.0 
-0.0 -0.0 0.0 0.0 0.0 0.0 0.0 3.50898684916934E-5 0.0 0.0 7.5592278935525E-5 0.0 0.0 0.0 1:-66.0 2:-51.0 3:-60.0 4:-57.0 5:-83.0 6:-95.0 7:-91.0 8:-95.0 9:-81.0 10:-65.0 11:-82.0 12:-95.0 13:-95.0 14:-95.0 15:-95.0 16:-95.0 17:-95.0 18:-70.0 
-0.0 -0.0 0.0 0.0 0.0 0.0 0.0 0.0 0.0 0.0 0.0 0.0 0.004067664500961626 0.0 1:-70.0 2:-52.0 3:-64.0 4:-61.0 5:-83.0 6:-95.0 7:-91.0 8:-95.0 9:-81.0 10:-65.0 11:-82.0 12:-95.0 13:-95.0 14:-95.0 15:-95.0 16:-95.0 17:-95.0 18:-90.0 
-0.0 -0.0 0.0 0.0 0.0 0.0 0.0 1.7232625405937113E-4 0.0 0.0 0.0 0.0 0.0 0.0 1:-70.0 2:-52.0 3:-64.0 4:-61.0 5:-83.0 6:-95.0 7:-91.0 8:-95.0 9:-81.0 10:-67.0 11:-82.0 12:-95.0 13:-95.0 14:-95.0 15:-95.0 16:-95.0 17:-95.0 18:-84.0 
-0.0 -0.0 1.0 0.0 0.0 0.0 0.0 0.0 0.0 0.0 0.0 0.0 0.0 0.0 1:-64.0 2:-59.0 3:-54.0 4:-55.0 5:-71.0 6:-95.0 7:-95.0 8:-95.0 9:-64.0 10:-59.0 11:-95.0 12:-95.0 13:-95.0 14:-95.0 15:-95.0 16:-95.0 17:-95.0 18:-84.0 
-0.0 -0.0 0.5996821416382314 0.0 0.0 0.0 0.0 0.0 0.0 0.0 0.0 0.0 0.0 0.0 1:-65.0 2:-54.0 3:-39.0 4:-52.0 5:-69.0 6:-95.0 7:-95.0 8:-86.0 9:-65.0 10:-64.0 11:-88.0 12:-95.0 13:-95.0 14:-88.0 15:-95.0 16:-95.0 17:-95.0 18:-77.0 
-0.0 -0.0 0.0 2.827571530359309E-4 0.0 0.0 0.0 0.0 0.0 0.0 0.0 0.0 0.0 0.0 1:-60.0 2:-58.0 3:-52.0 4:-52.0 5:-63.0 6:-77.0 7:-95.0 8:-86.0 9:-66.0 10:-51.0 11:-95.0 12:-95.0 13:-90.0 14:-95.0 15:-95.0 16:-95.0 17:-95.0 18:-77.0 
-0.0 -0.2346929644031857 0.0 0.0 0.0 0.0 0.0 0.0 0.0 0.0 0.0 1.3820776485493492E-4 0.0 0.0 1:-57.0 2:-55.0 3:-62.0 4:-62.0 5:-73.0 6:-95.0 7:-90.0 8:-95.0 9:-82.0 10:-64.0 11:-95.0 12:-95.0 13:-88.0 14:-95.0 15:-95.0 16:-83.0 17:-95.0 18:-76.0 
-0.0 -1.0 0.0 0.0 0.0 0.0 0.0 0.0 0.0 0.0 0.0 0.0 0.0 0.0 1:-59.0 2:-61.0 3:-67.0 4:-55.0 5:-71.0 6:-95.0 7:-95.0 8:-95.0 9:-72.0 10:-66.0 11:-95.0 12:-95.0 13:-95.0 14:-92.0 15:-95.0 16:-83.0 17:-95.0 18:-80.0 
-0.0 -0.0 0.7917171550121624 0.001875065423850781 0.002560085763236433 0.0 0.0 0.0 0.0 0.0 0.0 0.0 0.0 0.0 1:-67.0 2:-58.0 3:-51.0 4:-54.0 5:-65.0 6:-79.0 7:-95.0 8:-95.0 9:-66.0 10:-63.0 11:-85.0 12:-95.0 13:-95.0 14:-95.0 15:-95.0 16:-86.0 17:-95.0 18:-76.0 
-0.0 -0.0 1.0 0.0 0.0 0.0 0.0 0.0 0.0 0.0 0.0 0.0 0.0 0.0 1:-70.0 2:-58.0 3:-58.0 4:-57.0 5:-76.0 6:-95.0 7:-95.0 8:-95.0 9:-66.0 10:-65.0 11:-95.0 12:-95.0 13:-95.0 14:-95.0 15:-95.0 16:-95.0 17:-95.0 18:-80.0 
-0.0 -0.0 0.0 0.0 0.0 0.0 0.0 0.0 0.0 0.0 0.0 0.0 0.021423905165913807 0.0 1:-62.0 2:-54.0 3:-61.0 4:-54.0 5:-70.0 6:-77.0 7:-76.0 8:-95.0 9:-68.0 10:-62.0 11:-84.0 12:-95.0 13:-95.0 14:-86.0 15:-95.0 16:-95.0 17:-95.0 18:-80.0 
-0.0 -0.29248770255791073 0.0 0.0 2.0237388418771927E-4 7.627093471575104E-4 3.3588509168661784E-4 0.0 0.0 0.0 0.0 0.0 0.0 0.0 1:-59.0 2:-61.0 3:-60.0 4:-57.0 5:-70.0 6:-77.0 7:-76.0 8:-95.0 9:-67.0 10:-62.0 11:-84.0 12:-95.0 13:-95.0 14:-86.0 15:-95.0 16:-95.0 17:-95.0 18:-80.0 
-0.0 -0.0 1.0 0.0 0.0 0.0 0.0 0.0 0.0 0.0 0.0 0.0 0.0 0.0 1:-56.0 2:-58.0 3:-54.0 4:-53.0 5:-66.0 6:-77.0 7:-76.0 8:-95.0 9:-62.0 10:-68.0 11:-95.0 12:-95.0 13:-92.0 14:-95.0 15:-95.0 16:-95.0 17:-95.0 18:-79.0 
-0.0 -0.0 0.05486225767753214 0.0 0.0 0.0 0.0 0.0 0.0 0.0 0.0 0.0 0.0 0.0 1:-58.0 2:-47.0 3:-54.0 4:-65.0 5:-66.0 6:-77.0 7:-76.0 8:-95.0 9:-59.0 10:-63.0 11:-95.0 12:-95.0 13:-92.0 14:-95.0 15:-95.0 16:-95.0 17:-95.0 18:-79.0 
-0.0 -0.0 1.0 5.587439577959115E-5 0.0020109811024327513 0.0 0.0 0.0 0.0013762263611468042 0.0 0.0 0.0 0.0 8.69041159155817E-4 1:-67.0 2:-53.0 3:-50.0 4:-56.0 5:-64.0 6:-81.0 7:-95.0 8:-95.0 9:-62.0 10:-51.0 11:-75.0 12:-95.0 13:-92.0 14:-95.0 15:-95.0 16:-95.0 17:-95.0 18:-74.0 
-0.0 -0.0 1.0 0.0 0.0 0.0 0.0 0.0 0.0 0.0 0.0 0.0 0.0798861354887089 0.0 1:-67.0 2:-48.0 3:-52.0 4:-57.0 5:-64.0 6:-81.0 7:-95.0 8:-95.0 9:-62.0 10:-51.0 11:-75.0 12:-95.0 13:-92.0 14:-95.0 15:-95.0 16:-95.0 17:-95.0 18:-74.0 
-0.0 -0.0 1.0 0.0048456418201048524 0.0 0.0 0.0 0.0 1.4296070799723744E-4 2.7292933856742555E-4 0.0 0.0 0.0 0.0 1:-67.0 2:-53.0 3:-50.0 4:-52.0 5:-64.0 6:-81.0 7:-95.0 8:-95.0 9:-62.0 10:-54.0 11:-75.0 12:-95.0 13:-89.0 14:-95.0 15:-95.0 16:-95.0 17:-95.0 18:-74.0 
-0.0 -0.0 1.0 0.0 0.0 0.0 0.0 0.0 0.0 0.0 0.0 0.0 0.0 0.0 1:-65.0 2:-51.0 3:-46.0 4:-55.0 5:-64.0 6:-81.0 7:-95.0 8:-95.0 9:-62.0 10:-54.0 11:-75.0 12:-95.0 13:-89.0 14:-95.0 15:-95.0 16:-95.0 17:-95.0 18:-74.0 
-0.0 -0.0 1.0 0.0 0.0 0.0 0.0 0.0 0.0 0.0 0.0 0.0 0.0 0.0 1:-65.0 2:-51.0 3:-50.0 4:-52.0 5:-64.0 6:-81.0 7:-95.0 8:-95.0 9:-62.0 10:-58.0 11:-75.0 12:-95.0 13:-89.0 14:-95.0 15:-95.0 16:-95.0 17:-95.0 18:-74.0 
-0.0 -0.0 1.0 0.0 0.0 0.0 0.0 0.0 0.0 0.0 0.0 0.0 0.0 0.0 1:-65.0 2:-51.0 3:-49.0 4:-52.0 5:-64.0 6:-81.0 7:-95.0 8:-95.0 9:-65.0 10:-58.0 11:-75.0 12:-95.0 13:-89.0 14:-95.0 15:-95.0 16:-95.0 17:-95.0 18:-74.0 
-0.0 -0.0 0.0 0.0 0.0 3.373968894210579E-4 7.426646459243382E-5 2.6732975053945988E-5 0.0 1.359757524075459E-4 1.7262916289514075E-4 8.042862323239279E-5 0.0 0.0 1:-65.0 2:-60.0 3:-55.0 4:-64.0 5:-74.0 6:-79.0 7:-95.0 8:-95.0 9:-68.0 10:-63.0 11:-73.0 12:-95.0 13:-90.0 14:-85.0 15:-95.0 16:-81.0 17:-95.0 18:-84.0 
-0.0 -0.0 0.0 0.0 0.0 0.0 0.0 0.0 0.0 0.0 0.0 0.0 0.014947983744067894 0.0 1:-66.0 2:-42.0 3:-49.0 4:-52.0 5:-69.0 6:-95.0 7:-95.0 8:-95.0 9:-65.0 10:-63.0 11:-73.0 12:-95.0 13:-90.0 14:-85.0 15:-95.0 16:-81.0 17:-95.0 18:-84.0 
-0.0 -0.0 0.0 0.0 0.0 0.0 0.0 0.0 0.0 0.0 0.0 0.0 0.010631800388090784 0.0 1:-63.0 2:-59.0 3:-58.0 4:-60.0 5:-72.0 6:-95.0 7:-95.0 8:-95.0 9:-67.0 10:-57.0 11:-73.0 12:-95.0 13:-95.0 14:-85.0 15:-95.0 16:-81.0 17:-95.0 18:-84.0 
-0.0 -0.0 0.0 0.0 0.0 0.0 0.0 0.0 0.0 0.0 0.0 0.0 0.01616846144555845 0.0 1:-63.0 2:-43.0 3:-57.0 4:-53.0 5:-72.0 6:-95.0 7:-95.0 8:-95.0 9:-67.0 10:-56.0 11:-73.0 12:-95.0 13:-95.0 14:-85.0 15:-95.0 16:-81.0 17:-95.0 18:-84.0 
-0.0 -0.0 0.0 0.0 0.0 0.0 0.0 0.0 0.0 0.0 0.0 0.0 0.05106065631151138 0.0 1:-63.0 2:-37.0 3:-55.0 4:-53.0 5:-68.0 6:-95.0 7:-95.0 8:-95.0 9:-65.0 10:-56.0 11:-73.0 12:-95.0 13:-95.0 14:-85.0 15:-95.0 16:-95.0 17:-95.0 18:-95.0 
-0.0 -0.0 0.029600652062403532 0.0 0.0 0.0 0.0 0.0 0.0 0.0 0.0 0.0 0.0 0.0 1:-61.0 2:-52.0 3:-52.0 4:-45.0 5:-61.0 6:-95.0 7:-95.0 8:-95.0 9:-65.0 10:-66.0 11:-73.0 12:-95.0 13:-95.0 14:-85.0 15:-95.0 16:-95.0 17:-95.0 18:-76.0 
-0.0 -0.0 0.24466737551787965 0.0 0.0 0.0 0.0 0.0 0.0 0.0 0.0 0.0 0.0 0.0 1:-63.0 2:-40.0 3:-56.0 4:-49.0 5:-65.0 6:-95.0 7:-95.0 8:-95.0 9:-65.0 10:-68.0 11:-95.0 12:-95.0 13:-95.0 14:-95.0 15:-95.0 16:-95.0 17:-95.0 18:-83.0 
-0.0 -0.0 1.0 0.0 0.0 0.0 0.0 0.0 0.0 0.0 0.0 0.0 0.026014219404704116 0.0 1:-66.0 2:-46.0 3:-57.0 4:-51.0 5:-71.0 6:-95.0 7:-95.0 8:-95.0 9:-55.0 10:-62.0 11:-95.0 12:-95.0 13:-90.0 14:-95.0 15:-95.0 16:-95.0 17:-95.0 18:-83.0 
-0.0 -0.0 0.0 0.0 0.0 0.0 0.0 0.0 0.0 0.0 0.0 0.0 6.323886671023772E-5 0.0 1:-65.0 2:-50.0 3:-61.0 4:-57.0 5:-74.0 6:-76.0 7:-95.0 8:-95.0 9:-60.0 10:-61.0 11:-82.0 12:-95.0 13:-95.0 14:-85.0 15:-95.0 16:-95.0 17:-95.0 18:-76.0 
-0.0 -0.1755943826049389 0.0 0.0 0.0 0.0 0.0 0.0 0.0 0.0 0.0 0.0 0.0 0.0 1:-54.0 2:-51.0 3:-64.0 4:-68.0 5:-75.0 6:-79.0 7:-95.0 8:-95.0 9:-66.0 10:-69.0 11:-95.0 12:-95.0 13:-95.0 14:-85.0 15:-95.0 16:-95.0 17:-95.0 18:-76.0 
-0.0 -0.0 1.0 0.0 0.0 0.0 0.0 0.0 0.0 0.0 0.0 0.0 0.0 0.0 1:-63.0 2:-53.0 3:-47.0 4:-58.0 5:-70.0 6:-73.0 7:-95.0 8:-95.0 9:-66.0 10:-61.0 11:-95.0 12:-90.0 13:-91.0 14:-95.0 15:-91.0 16:-95.0 17:-95.0 18:-80.0 
-0.0 -0.0 0.6751629740917324 0.0 0.0 0.0 0.0 0.0 0.0 0.0 0.0 0.0 0.0 0.0 1:-64.0 2:-47.0 3:-60.0 4:-55.0 5:-67.0 6:-73.0 7:-95.0 8:-95.0 9:-60.0 10:-53.0 11:-95.0 12:-90.0 13:-91.0 14:-95.0 15:-95.0 16:-95.0 17:-95.0 18:-80.0 
-0.0 -0.0 1.0 0.005870794863247758 8.080763052517049E-5 0.0 0.0 0.0 0.0 0.0 0.0 0.0 0.0 5.124925213591767E-4 1:-62.0 2:-58.0 3:-56.0 4:-50.0 5:-67.0 6:-73.0 7:-95.0 8:-95.0 9:-60.0 10:-55.0 11:-95.0 12:-90.0 13:-95.0 14:-95.0 15:-95.0 16:-95.0 17:-95.0 18:-80.0 
-0.0 -0.0 -0.9241491077852234 0.0 0.0 0.0 0.0 0.0 0.0 0.0 0.0 0.0 0.0 0.0 1:-61.0 2:-45.0 3:-46.0 4:-57.0 5:-60.0 6:-79.0 7:-95.0 8:-95.0 9:-62.0 10:-51.0 11:-88.0 12:-95.0 13:-95.0 14:-95.0 15:-95.0 16:-95.0 17:-95.0 18:-95.0 
-0.0 -0.0 -1.0 0.0 0.0 0.0 0.0 0.0 0.0 0.0 0.0 0.0 0.0 0.0 1:-61.0 2:-53.0 3:-45.0 4:-57.0 5:-65.0 6:-79.0 7:-95.0 8:-95.0 9:-60.0 10:-51.0 11:-88.0 12:-95.0 13:-95.0 14:-95.0 15:-95.0 16:-95.0 17:-95.0 18:-95.0 
-0.0 -0.0 -0.06971444331603859 0.0 0.0 0.0 0.0 0.0 0.0 0.0 0.0 0.0 0.0 0.0 1:-61.0 2:-54.0 3:-44.0 4:-57.0 5:-65.0 6:-79.0 7:-95.0 8:-95.0 9:-60.0 10:-51.0 11:-88.0 12:-95.0 13:-95.0 14:-95.0 15:-95.0 16:-95.0 17:-95.0 18:-95.0 
-0.0 -0.0030647698385295715 -1.0 0.0 0.0 0.0 0.0 0.0 0.0 0.0 0.0 0.0 0.0 0.0 1:-61.0 2:-55.0 3:-58.0 4:-53.0 5:-62.0 6:-79.0 7:-95.0 8:-95.0 9:-62.0 10:-65.0 11:-88.0 12:-95.0 13:-95.0 14:-95.0 15:-95.0 16:-95.0 17:-95.0 18:-95.0 
-0.0 -0.0 -0.04549182470464273 0.0 0.0 0.0 0.0 0.0 0.0 0.0 0.0 0.0 0.0 0.0 1:-68.0 2:-57.0 3:-39.0 4:-52.0 5:-67.0 6:-68.0 7:-81.0 8:-78.0 9:-67.0 10:-56.0 11:-76.0 12:-95.0 13:-83.0 14:-95.0 15:-95.0 16:-95.0 17:-95.0 18:-69.0 
-0.0 -0.0 -0.0 0.0 0.0 0.0 1.5198898076164056E-4 0.0 0.0 0.0 0.0 0.0 0.0 0.0 1:-68.0 2:-62.0 3:-57.0 4:-47.0 5:-67.0 6:-68.0 7:-81.0 8:-78.0 9:-58.0 10:-59.0 11:-76.0 12:-95.0 13:-83.0 14:-95.0 15:-95.0 16:-95.0 17:-95.0 18:-69.0 
-0.0 -0.0 -0.2610687961434599 0.0 0.0 0.0 0.0 0.0 0.0 0.0 0.0 0.0 0.0 0.0 1:-67.0 2:-55.0 3:-60.0 4:-52.0 5:-66.0 6:-68.0 7:-81.0 8:-78.0 9:-56.0 10:-56.0 11:-74.0 12:-95.0 13:-95.0 14:-95.0 15:-95.0 16:-95.0 17:-95.0 18:-76.0 
-0.0 -0.0 -0.0 0.5544796035468142 0.0 0.0 6.620680364637109E-5 0.0 0.0 0.0 0.0 0.0 0.0 0.0 1:-67.0 2:-59.0 3:-61.0 4:-51.0 5:-58.0 6:-68.0 7:-81.0 8:-78.0 9:-66.0 10:-56.0 11:-74.0 12:-95.0 13:-95.0 14:-95.0 15:-95.0 16:-95.0 17:-95.0 18:-76.0 
-0.0 -0.0 -0.0 1.0 0.0 0.0 0.0 0.0 0.0 0.0 0.0 0.0 0.0 0.0 1:-69.0 2:-59.0 3:-40.0 4:-49.0 5:-55.0 6:-68.0 7:-95.0 8:-95.0 9:-59.0 10:-58.0 11:-74.0 12:-95.0 13:-95.0 14:-95.0 15:-95.0 16:-95.0 17:-95.0 18:-76.0 
-0.0 -0.0 -0.0 0.20097176359418453 0.0 0.0 0.0 0.0 0.0 0.0 0.0 0.0 0.0 0.0 1:-74.0 2:-56.0 3:-48.0 4:-36.0 5:-59.0 6:-95.0 7:-88.0 8:-95.0 9:-55.0 10:-51.0 11:-68.0 12:-75.0 13:-95.0 14:-95.0 15:-95.0 16:-95.0 17:-92.0 18:-76.0 
-0.0 -0.0 -0.0 0.29274800197807305 0.0 0.0 0.0 0.0 0.0 0.0 0.0 0.0 0.5508083350320143 0.0 1:-66.0 2:-52.0 3:-59.0 4:-56.0 5:-55.0 6:-95.0 7:-88.0 8:-95.0 9:-66.0 10:-59.0 11:-68.0 12:-75.0 13:-95.0 14:-95.0 15:-95.0 16:-95.0 17:-92.0 18:-76.0 
-0.0 -0.0 -0.0 0.0 0.0 0.0 0.0 0.0 0.0 0.0 0.0 0.0 1.0 0.0 1:-66.0 2:-49.0 3:-59.0 4:-48.0 5:-61.0 6:-95.0 7:-88.0 8:-95.0 9:-66.0 10:-48.0 11:-68.0 12:-75.0 13:-95.0 14:-95.0 15:-95.0 16:-95.0 17:-92.0 18:-76.0 
-0.0 -0.0 -0.0 0.0 0.0 0.0 0.0 0.0 0.0 0.0 0.0 0.0 1.0 0.0 1:-66.0 2:-49.0 3:-51.0 4:-48.0 5:-58.0 6:-95.0 7:-88.0 8:-95.0 9:-58.0 10:-50.0 11:-76.0 12:-75.0 13:-95.0 14:-86.0 15:-95.0 16:-95.0 17:-92.0 18:-76.0 
-0.0 -0.0 -0.0 0.0 0.0 0.0 0.0 0.0 0.0 0.0 0.0 0.0 1.0 0.0 1:-66.0 2:-49.0 3:-52.0 4:-48.0 5:-55.0 6:-69.0 7:-88.0 8:-95.0 9:-62.0 10:-50.0 11:-76.0 12:-75.0 13:-95.0 14:-86.0 15:-95.0 16:-95.0 17:-92.0 18:-76.0 
-0.0 -0.0 -0.0 0.0 0.0 0.0 0.0 0.0 0.0 0.0 0.0 0.0 1.0 0.0 1:-66.0 2:-50.0 3:-58.0 4:-52.0 5:-62.0 6:-66.0 7:-88.0 8:-95.0 9:-51.0 10:-51.0 11:-71.0 12:-75.0 13:-95.0 14:-86.0 15:-95.0 16:-95.0 17:-92.0 18:-76.0 
-0.0 -0.0 -0.0 0.0 0.0 0.0 0.0 0.0 0.0 0.0 0.0 0.0 1.0 0.0 1:-66.0 2:-54.0 3:-56.0 4:-52.0 5:-64.0 6:-66.0 7:-88.0 8:-95.0 9:-51.0 10:-51.0 11:-71.0 12:-75.0 13:-95.0 14:-86.0 15:-95.0 16:-95.0 17:-92.0 18:-76.0 
-0.0 -0.0 -0.0 0.0 0.0 0.0 0.0 0.0 0.0 0.0 0.0 0.0 1.0 0.0 1:-66.0 2:-48.0 3:-56.0 4:-51.0 5:-64.0 6:-66.0 7:-88.0 8:-95.0 9:-51.0 10:-54.0 11:-71.0 12:-76.0 13:-95.0 14:-87.0 15:-95.0 16:-95.0 17:-92.0 18:-76.0 
-0.0 -0.0 -0.0 0.0 0.0 0.0 0.0 0.0 0.0 0.0 0.0 0.0 0.0011640206583987932 0.0 1:-66.0 2:-49.0 3:-54.0 4:-47.0 5:-67.0 6:-73.0 7:-88.0 8:-95.0 9:-49.0 10:-51.0 11:-69.0 12:-76.0 13:-95.0 14:-87.0 15:-95.0 16:-95.0 17:-92.0 18:-76.0 
-0.0 -0.0 -0.0 0.0 0.0 0.0 0.0 0.0 0.0 0.0 0.0 0.0 1.0 0.0 1:-69.0 2:-47.0 3:-46.0 4:-58.0 5:-73.0 6:-81.0 7:-88.0 8:-95.0 9:-54.0 10:-52.0 11:-75.0 12:-78.0 13:-95.0 14:-87.0 15:-95.0 16:-95.0 17:-92.0 18:-76.0 
-0.0 -0.0 -0.0 0.9950135023237952 0.0 0.0 0.0 0.0 0.0 0.0 0.0 0.0 0.0 0.0 1:-65.0 2:-60.0 3:-61.0 4:-52.0 5:-58.0 6:-81.0 7:-95.0 8:-95.0 9:-60.0 10:-63.0 11:-69.0 12:-78.0 13:-95.0 14:-87.0 15:-95.0 16:-95.0 17:-95.0 18:-74.0 
-0.0 -0.0 -0.1261471705569563 0.0 0.0 0.0 0.0 0.0 0.0 0.0 0.0 0.0 0.0 0.0 1:-65.0 2:-52.0 3:-45.0 4:-47.0 5:-66.0 6:-69.0 7:-95.0 8:-95.0 9:-63.0 10:-58.0 11:-81.0 12:-95.0 13:-95.0 14:-88.0 15:-95.0 16:-95.0 17:-95.0 18:-81.0 
-6.937089371395844E-4 -0.0020882718110747807 -0.0 0.0 0.0 0.0 0.0 0.0 0.0 0.0 0.0 9.991628202239006E-5 0.0 0.0 1:-71.0 2:-60.0 3:-59.0 4:-61.0 5:-70.0 6:-85.0 7:-95.0 8:-95.0 9:-61.0 10:-67.0 11:-95.0 12:-88.0 13:-88.0 14:-95.0 15:-95.0 16:-95.0 17:-95.0 18:-95.0 
-0.0 -0.0 -0.0 0.0 0.0 0.0 0.0 0.0 0.0041891779125633076 0.0 0.0 0.0 0.0 0.0 1:-66.0 2:-55.0 3:-51.0 4:-45.0 5:-57.0 6:-67.0 7:-68.0 8:-95.0 9:-53.0 10:-50.0 11:-66.0 12:-95.0 13:-81.0 14:-95.0 15:-95.0 16:-95.0 17:-95.0 18:-63.0 
-0.0 -7.585429328589317E-4 -0.11818273932019872 0.0 0.0 0.0 2.3830807658691178E-5 1.4015656856053332E-4 0.0 0.0 6.64809785764695E-5 6.925917886897024E-5 0.0 0.0 1:-67.0 2:-60.0 3:-58.0 4:-60.0 5:-71.0 6:-81.0 7:-68.0 8:-95.0 9:-59.0 10:-54.0 11:-66.0 12:-95.0 13:-81.0 14:-91.0 15:-95.0 16:-95.0 17:-95.0 18:-63.0 
-0.0 -0.0 -0.0 0.3878553774384914 0.0 0.0 0.0 0.0 0.0 0.0 0.0 0.0 0.0 0.0 1:-76.0 2:-66.0 3:-40.0 4:-52.0 5:-61.0 6:-71.0 7:-77.0 8:-95.0 9:-58.0 10:-48.0 11:-79.0 12:-95.0 13:-95.0 14:-91.0 15:-95.0 16:-95.0 17:-95.0 18:-79.0 
-0.0 -0.0 -0.0 1.0 0.0070263411618706525 1.6802024926345998E-4 0.0 0.0 0.0 0.0 0.0 0.0 0.0 0.0 1:-74.0 2:-61.0 3:-51.0 4:-60.0 5:-61.0 6:-71.0 7:-77.0 8:-95.0 9:-54.0 10:-49.0 11:-76.0 12:-95.0 13:-95.0 14:-91.0 15:-95.0 16:-86.0 17:-95.0 18:-79.0 
-0.0 -0.0 -0.6597029244265865 0.0 0.0 0.0 0.0 0.0 0.0 0.0 0.0 0.0 0.0 0.0 1:-64.0 2:-56.0 3:-58.0 4:-46.0 5:-65.0 6:-71.0 7:-78.0 8:-95.0 9:-57.0 10:-49.0 11:-76.0 12:-95.0 13:-95.0 14:-91.0 15:-95.0 16:-86.0 17:-95.0 18:-79.0 
-0.0 -0.0 -0.0 0.0 0.0 0.0 0.0 0.0 0.0 0.0 0.0 0.0 1.0 0.0 1:-64.0 2:-54.0 3:-50.0 4:-53.0 5:-61.0 6:-71.0 7:-78.0 8:-95.0 9:-57.0 10:-53.0 11:-76.0 12:-95.0 13:-95.0 14:-91.0 15:-91.0 16:-86.0 17:-95.0 18:-79.0 
-0.0 -0.0 -0.09082463621504817 0.0 0.0 0.0 0.0 0.0 0.0 0.0 0.0 0.0 0.0 0.0 1:-64.0 2:-60.0 3:-42.0 4:-52.0 5:-71.0 6:-71.0 7:-78.0 8:-95.0 9:-60.0 10:-49.0 11:-76.0 12:-95.0 13:-95.0 14:-91.0 15:-91.0 16:-86.0 17:-95.0 18:-79.0 
-0.0 -0.0 -0.0 0.0 0.0 0.0 0.0 0.0 0.0 0.0 0.0 0.0 1.0 0.0 1:-64.0 2:-52.0 3:-50.0 4:-52.0 5:-63.0 6:-71.0 7:-78.0 8:-95.0 9:-56.0 10:-49.0 11:-76.0 12:-95.0 13:-95.0 14:-91.0 15:-91.0 16:-86.0 17:-95.0 18:-79.0 
-0.0 -0.0 -0.0 0.031310718338110256 0.0 0.0 0.0 0.0 0.0 0.0 0.0 0.0 0.5404017936078056 0.0 1:-64.0 2:-56.0 3:-54.0 4:-48.0 5:-63.0 6:-71.0 7:-78.0 8:-95.0 9:-59.0 10:-52.0 11:-82.0 12:-95.0 13:-95.0 14:-95.0 15:-91.0 16:-86.0 17:-95.0 18:-66.0 
-0.0 -0.0 -1.0 0.0 0.0 0.0 0.0 0.0 0.0 0.0 0.0 0.0 0.0 0.0 1:-64.0 2:-51.0 3:-57.0 4:-54.0 5:-65.0 6:-81.0 7:-95.0 8:-95.0 9:-62.0 10:-62.0 11:-82.0 12:-95.0 13:-95.0 14:-95.0 15:-91.0 16:-95.0 17:-95.0 18:-64.0 
-0.0 -0.0 -1.0 0.0 0.0 0.0 0.0 0.0 0.0 0.0 0.0 0.0 0.0 0.0 1:-64.0 2:-50.0 3:-48.0 4:-56.0 5:-65.0 6:-81.0 7:-95.0 8:-95.0 9:-62.0 10:-58.0 11:-82.0 12:-95.0 13:-95.0 14:-95.0 15:-95.0 16:-95.0 17:-95.0 18:-64.0 
-0.0 -0.0 -1.0 0.0 0.0 0.0 0.0 0.0 0.0 0.0 0.0 0.0 0.0 0.0 1:-64.0 2:-46.0 3:-45.0 4:-56.0 5:-65.0 6:-81.0 7:-95.0 8:-95.0 9:-62.0 10:-52.0 11:-82.0 12:-95.0 13:-82.0 14:-95.0 15:-95.0 16:-95.0 17:-95.0 18:-64.0 
-0.0 -0.0 -1.0 0.0 0.0 0.0 0.0 0.0 0.0 0.0 0.0 0.0 0.0 0.0 1:-64.0 2:-50.0 3:-47.0 4:-52.0 5:-65.0 6:-81.0 7:-95.0 8:-95.0 9:-62.0 10:-52.0 11:-82.0 12:-95.0 13:-82.0 14:-95.0 15:-95.0 16:-95.0 17:-95.0 18:-64.0 
-0.0 -0.0 -0.0 0.0 0.0 0.0 0.0 0.0 0.0 0.0 0.0 0.0 0.15374762006700754 0.0 1:-74.0 2:-54.0 3:-43.0 4:-49.0 5:-63.0 6:-70.0 7:-95.0 8:-82.0 9:-63.0 10:-63.0 11:-95.0 12:-84.0 13:-82.0 14:-95.0 15:-95.0 16:-95.0 17:-95.0 18:-81.0 
-0.0 -0.0 -0.0 0.0 0.0 0.0 0.0 0.0 0.0 0.0 0.0 0.0 0.7732390299023407 0.0 1:-74.0 2:-58.0 3:-53.0 4:-43.0 5:-67.0 6:-70.0 7:-95.0 8:-82.0 9:-55.0 10:-59.0 11:-95.0 12:-84.0 13:-82.0 14:-95.0 15:-95.0 16:-95.0 17:-95.0 18:-81.0 
-0.0 -0.0 -0.0 0.0 0.0 0.0 0.0 0.0 0.0 0.0 0.0 0.0 1.0 0.0 1:-74.0 2:-55.0 3:-53.0 4:-40.0 5:-65.0 6:-70.0 7:-95.0 8:-82.0 9:-55.0 10:-48.0 11:-95.0 12:-84.0 13:-82.0 14:-95.0 15:-95.0 16:-95.0 17:-95.0 18:-81.0 
-0.0 -0.0 -0.0 0.0 0.003871097216258611 0.0 0.0 0.0 0.0 0.0 0.0 3.167318731904726E-6 1.0 0.0012106290327639196 1:-74.0 2:-65.0 3:-60.0 4:-57.0 5:-61.0 6:-70.0 7:-95.0 8:-82.0 9:-54.0 10:-49.0 11:-95.0 12:-84.0 13:-82.0 14:-95.0 15:-95.0 16:-95.0 17:-95.0 18:-81.0 
-0.0 -0.0 -0.0 0.5797662887960877 0.0 0.0 0.0 0.0 0.0 0.0 0.0 0.0 0.0 0.0015385827075977113 1:-74.0 2:-65.0 3:-44.0 4:-50.0 5:-61.0 6:-70.0 7:-95.0 8:-82.0 9:-54.0 10:-46.0 11:-95.0 12:-84.0 13:-95.0 14:-95.0 15:-95.0 16:-95.0 17:-95.0 18:-81.0 
-0.0 -0.0 -0.0 0.0 0.0 0.0 0.0 0.0 0.0 0.0 0.0 0.0 0.6543017925304049 0.0 1:-74.0 2:-56.0 3:-52.0 4:-50.0 5:-67.0 6:-70.0 7:-95.0 8:-82.0 9:-57.0 10:-46.0 11:-95.0 12:-84.0 13:-95.0 14:-95.0 15:-95.0 16:-95.0 17:-95.0 18:-81.0 
-0.0 -0.0 -0.0 0.0 0.0 0.0 0.0 0.0 0.0 0.0 0.0 0.0 0.5272314780142514 0.0 1:-74.0 2:-56.0 3:-52.0 4:-50.0 5:-67.0 6:-70.0 7:-95.0 8:-82.0 9:-57.0 10:-46.0 11:-95.0 12:-84.0 13:-95.0 14:-95.0 15:-95.0 16:-95.0 17:-95.0 18:-81.0 
-0.0 -0.0 -0.0 1.0 0.0 0.0 0.0 0.0 0.0 0.0 0.0 0.0 0.0 0.0 1:-74.0 2:-61.0 3:-45.0 4:-45.0 5:-56.0 6:-70.0 7:-95.0 8:-82.0 9:-57.0 10:-52.0 11:-95.0 12:-84.0 13:-95.0 14:-95.0 15:-95.0 16:-95.0 17:-95.0 18:-81.0 
-0.0 -0.0 -0.0 1.0 0.0 0.0 0.0 0.0 0.0 0.0 0.0 0.0 0.0 0.0 1:-74.0 2:-56.0 3:-39.0 4:-40.0 5:-56.0 6:-70.0 7:-95.0 8:-95.0 9:-57.0 10:-52.0 11:-95.0 12:-84.0 13:-95.0 14:-95.0 15:-95.0 16:-95.0 17:-95.0 18:-81.0 
-0.0 -0.0 -0.0 1.0 0.0 0.0 0.0 0.0 0.0 0.0 0.0 0.0 0.0 0.0 1:-74.0 2:-56.0 3:-57.0 4:-44.0 5:-56.0 6:-70.0 7:-95.0 8:-95.0 9:-57.0 10:-52.0 11:-95.0 12:-84.0 13:-95.0 14:-95.0 15:-95.0 16:-95.0 17:-95.0 18:-81.0 
-0.0 -0.0 -0.0 1.0 0.0 0.0 0.0 0.0 0.0 0.0 0.0 0.0 0.0 0.0 1:-62.0 2:-60.0 3:-48.0 4:-52.0 5:-56.0 6:-70.0 7:-95.0 8:-95.0 9:-57.0 10:-52.0 11:-95.0 12:-84.0 13:-95.0 14:-95.0 15:-95.0 16:-95.0 17:-95.0 18:-81.0 
-0.0 -0.0 -0.0 1.0 0.0 0.0 0.0 0.0 0.0 0.0 0.0 0.0 0.0 0.0 1:-67.0 2:-62.0 3:-42.0 4:-53.0 5:-56.0 6:-70.0 7:-95.0 8:-95.0 9:-57.0 10:-52.0 11:-95.0 12:-84.0 13:-95.0 14:-95.0 15:-95.0 16:-95.0 17:-95.0 18:-81.0 
-0.0 -0.0 -0.0 1.0 0.011245774621111166 0.0 0.0 0.0 0.0 0.0 0.0 0.0 0.0 0.0 1:-67.0 2:-70.0 3:-58.0 4:-46.0 5:-56.0 6:-67.0 7:-95.0 8:-95.0 9:-57.0 10:-54.0 11:-95.0 12:-84.0 13:-95.0 14:-95.0 15:-95.0 16:-95.0 17:-95.0 18:-73.0 
-0.0 -0.0 -0.0 1.0 0.0 0.0 0.0 0.0 0.0 0.0 0.0 0.0 0.0 0.0 1:-67.0 2:-58.0 3:-48.0 4:-43.0 5:-56.0 6:-67.0 7:-95.0 8:-95.0 9:-50.0 10:-54.0 11:-95.0 12:-95.0 13:-95.0 14:-95.0 15:-95.0 16:-95.0 17:-95.0 18:-73.0 
-0.0 -0.0 -0.0 1.0 0.0 0.0 0.0 0.0 0.0 0.0 0.0 0.0 0.0 0.0 1:-67.0 2:-61.0 3:-53.0 4:-43.0 5:-59.0 6:-67.0 7:-95.0 8:-95.0 9:-62.0 10:-57.0 11:-95.0 12:-95.0 13:-95.0 14:-95.0 15:-95.0 16:-95.0 17:-95.0 18:-80.0 
-0.0 -0.0 -0.0 1.0 0.0 0.0 0.0 0.0 0.0 0.0 0.0 0.0 0.0 0.0 1:-67.0 2:-61.0 3:-54.0 4:-43.0 5:-59.0 6:-67.0 7:-95.0 8:-95.0 9:-62.0 10:-57.0 11:-83.0 12:-95.0 13:-95.0 14:-95.0 15:-95.0 16:-95.0 17:-95.0 18:-80.0 
-0.0 -0.0 -0.0 1.0 0.004203787593997394 0.0 0.0 0.0 0.0 0.0 0.0 0.0 0.0 0.0 1:-66.0 2:-60.0 3:-59.0 4:-47.0 5:-59.0 6:-67.0 7:-95.0 8:-95.0 9:-62.0 10:-54.0 11:-83.0 12:-95.0 13:-95.0 14:-95.0 15:-95.0 16:-95.0 17:-95.0 18:-80.0 
-0.0 -0.0 -0.0 1.0 0.0 0.0 0.0 0.0 0.0 0.0 0.0 0.0 0.0 0.0 1:-67.0 2:-65.0 3:-55.0 4:-48.0 5:-56.0 6:-95.0 7:-95.0 8:-95.0 9:-60.0 10:-57.0 11:-83.0 12:-95.0 13:-84.0 14:-95.0 15:-95.0 16:-95.0 17:-95.0 18:-95.0 
-0.0 -0.0 -0.0 0.0 0.0 0.0 0.0 0.0 0.0 0.0 0.0 1.964460898394177E-5 0.0 0.0 1:-67.0 2:-56.0 3:-59.0 4:-60.0 5:-55.0 6:-95.0 7:-95.0 8:-95.0 9:-58.0 10:-59.0 11:-95.0 12:-95.0 13:-84.0 14:-95.0 15:-95.0 16:-95.0 17:-95.0 18:-65.0 
-0.0 -0.0 -0.0 1.0 0.0 0.0 0.0 0.0 0.0 0.0 0.0 0.0 0.0 0.0 1:-69.0 2:-60.0 3:-52.0 4:-50.0 5:-56.0 6:-95.0 7:-84.0 8:-95.0 9:-54.0 10:-59.0 11:-95.0 12:-95.0 13:-95.0 14:-95.0 15:-95.0 16:-95.0 17:-95.0 18:-66.0 
-0.0 -0.0 -0.0 0.0 0.003575524736181773 0.0 0.0 0.0 0.0 0.0 0.0 0.0 0.0 0.0 1:-65.0 2:-59.0 3:-54.0 4:-60.0 5:-57.0 6:-76.0 7:-95.0 8:-95.0 9:-54.0 10:-61.0 11:-76.0 12:-95.0 13:-95.0 14:-95.0 15:-95.0 16:-95.0 17:-95.0 18:-72.0 
-0.0 -0.0 -0.0 1.0 0.0 0.0 0.0 0.0 0.0 0.0 0.0 0.0 0.0 0.0 1:-68.0 2:-65.0 3:-50.0 4:-51.0 5:-59.0 6:-95.0 7:-95.0 8:-95.0 9:-65.0 10:-63.0 11:-95.0 12:-95.0 13:-95.0 14:-95.0 15:-95.0 16:-95.0 17:-95.0 18:-72.0 
-0.0 -0.0027777329137714515 -1.0 0.0 0.0 0.0 0.0 0.0 0.0 0.0 0.0 0.0 0.0 0.0 1:-68.0 2:-56.0 3:-52.0 4:-56.0 5:-69.0 6:-95.0 7:-95.0 8:-95.0 9:-69.0 10:-68.0 11:-95.0 12:-95.0 13:-95.0 14:-95.0 15:-95.0 16:-95.0 17:-95.0 18:-72.0 
-9.679027957312668E-4 -0.0023890375129408735 -1.0 0.0 0.0 0.0 0.0 0.0 0.0 0.0 0.0 0.0 0.0 0.0 1:-68.0 2:-56.0 3:-51.0 4:-55.0 5:-74.0 6:-95.0 7:-95.0 8:-95.0 9:-69.0 10:-68.0 11:-95.0 12:-95.0 13:-95.0 14:-95.0 15:-95.0 16:-95.0 17:-95.0 18:-82.0 
-0.0 -0.0 -1.0 0.0 0.0 0.0 0.0 0.0 0.0 0.0 0.0 0.0 0.0 0.0 1:-68.0 2:-56.0 3:-52.0 4:-51.0 5:-74.0 6:-95.0 7:-95.0 8:-95.0 9:-69.0 10:-68.0 11:-95.0 12:-95.0 13:-95.0 14:-95.0 15:-95.0 16:-95.0 17:-95.0 18:-82.0 
-0.0 -0.0 -1.0 0.0 0.0 0.0 0.0 0.0 0.0 0.0 0.0 0.0 0.0 0.0 1:-68.0 2:-56.0 3:-57.0 4:-51.0 5:-71.0 6:-95.0 7:-95.0 8:-95.0 9:-67.0 10:-68.0 11:-95.0 12:-95.0 13:-95.0 14:-95.0 15:-95.0 16:-95.0 17:-95.0 18:-82.0 
-0.0 -0.0 -0.0 0.0 0.0 0.0 0.0 0.0 0.0 0.0 0.0 0.0 0.007873700552469711 0.0 1:-66.0 2:-50.0 3:-49.0 4:-47.0 5:-55.0 6:-95.0 7:-95.0 8:-95.0 9:-58.0 10:-55.0 11:-95.0 12:-85.0 13:-82.0 14:-95.0 15:-95.0 16:-95.0 17:-95.0 18:-67.0 
-0.0 -0.0 -0.0 0.7265469011856625 0.0 0.0 0.0 0.0 0.0 0.0 0.0 0.0 0.0 0.0 1:-68.0 2:-62.0 3:-46.0 4:-42.0 5:-55.0 6:-68.0 7:-82.0 8:-95.0 9:-53.0 10:-57.0 11:-77.0 12:-83.0 13:-78.0 14:-95.0 15:-95.0 16:-95.0 17:-95.0 18:-67.0 
-0.0 -0.0 -0.0 0.0 0.0 0.0 0.0 0.0 8.998680319252102E-4 0.0 0.0 0.0 1.0 0.0 1:-75.0 2:-61.0 3:-58.0 4:-45.0 5:-67.0 6:-68.0 7:-80.0 8:-95.0 9:-59.0 10:-48.0 11:-67.0 12:-83.0 13:-78.0 14:-95.0 15:-95.0 16:-95.0 17:-95.0 18:-71.0 
-0.0 -0.0 -0.0 1.0 0.0 0.0 0.0 0.0 0.0 0.0 0.0 0.0 0.28089705508306645 0.0 1:-75.0 2:-62.0 3:-58.0 4:-48.0 5:-59.0 6:-68.0 7:-80.0 8:-95.0 9:-60.0 10:-54.0 11:-74.0 12:-83.0 13:-78.0 14:-95.0 15:-95.0 16:-95.0 17:-95.0 18:-71.0 
-0.0 -0.0 -0.0 1.0 0.0 0.0 0.0 0.0 0.0 0.0 0.0 0.0 0.0 0.0 1:-75.0 2:-62.0 3:-58.0 4:-41.0 5:-59.0 6:-68.0 7:-80.0 8:-95.0 9:-60.0 10:-54.0 11:-74.0 12:-83.0 13:-78.0 14:-95.0 15:-95.0 16:-95.0 17:-95.0 18:-71.0 
-0.0 -0.0 -0.0 1.0 0.0 0.0 0.0 0.0 0.0 0.0 0.0 0.0 0.0 0.0 1:-75.0 2:-63.0 3:-40.0 4:-49.0 5:-55.0 6:-68.0 7:-80.0 8:-95.0 9:-60.0 10:-52.0 11:-74.0 12:-83.0 13:-78.0 14:-95.0 15:-95.0 16:-95.0 17:-95.0 18:-71.0 
-0.0 -0.0 -0.0 1.0 0.01934847829826584 8.588204839136218E-4 0.0 0.0 0.0 0.0 0.0 0.0 0.0 0.0 1:-75.0 2:-63.0 3:-57.0 4:-45.0 5:-55.0 6:-68.0 7:-80.0 8:-95.0 9:-64.0 10:-53.0 11:-74.0 12:-95.0 13:-95.0 14:-95.0 15:-95.0 16:-95.0 17:-95.0 18:-71.0 
-0.0 -0.0 -0.0 1.0 0.0 0.0 0.0 0.0 0.0 0.0 0.0 0.0 0.0 0.0 1:-75.0 2:-59.0 3:-42.0 4:-45.0 5:-56.0 6:-68.0 7:-80.0 8:-95.0 9:-58.0 10:-56.0 11:-74.0 12:-95.0 13:-95.0 14:-95.0 15:-95.0 16:-95.0 17:-95.0 18:-80.0 
-0.0 -0.0 -0.0 1.0 0.0 0.0 0.0 0.0 0.0 0.0 0.0 0.0 0.0 0.0 1:-75.0 2:-62.0 3:-43.0 4:-45.0 5:-58.0 6:-68.0 7:-80.0 8:-95.0 9:-62.0 10:-56.0 11:-74.0 12:-95.0 13:-95.0 14:-95.0 15:-95.0 16:-95.0 17:-95.0 18:-80.0 
-0.0 -0.0 -0.0 1.0 0.0 0.0 0.0 0.0 0.0 0.0 0.0 0.0 0.0 0.0 1:-75.0 2:-59.0 3:-46.0 4:-52.0 5:-58.0 6:-68.0 7:-80.0 8:-95.0 9:-62.0 10:-55.0 11:-74.0 12:-95.0 13:-95.0 14:-95.0 15:-95.0 16:-95.0 17:-95.0 18:-80.0 
-0.0 -0.0 -0.0 1.0 0.0 0.0 0.0 0.0 0.0 0.0 0.0 0.0 0.0 0.0 1:-95.0 2:-61.0 3:-40.0 4:-52.0 5:-58.0 6:-95.0 7:-95.0 8:-95.0 9:-54.0 10:-60.0 11:-68.0 12:-95.0 13:-95.0 14:-95.0 15:-95.0 16:-95.0 17:-95.0 18:-80.0 
-0.0 -0.0 -0.0 0.0 0.0 0.0 0.0 0.0 0.0 0.0 0.0 0.0 0.5542886139139517 0.0 1:-95.0 2:-55.0 3:-36.0 4:-47.0 5:-60.0 6:-95.0 7:-95.0 8:-95.0 9:-54.0 10:-51.0 11:-68.0 12:-95.0 13:-95.0 14:-95.0 15:-95.0 16:-95.0 17:-95.0 18:-80.0 
-0.0 -0.0 -0.0 0.7637804227910816 0.0 0.0 0.0 0.0 0.0 0.0 0.0 0.0 0.0 0.0 1:-95.0 2:-53.0 3:-36.0 4:-42.0 5:-56.0 6:-95.0 7:-95.0 8:-95.0 9:-54.0 10:-51.0 11:-68.0 12:-95.0 13:-95.0 14:-95.0 15:-95.0 16:-95.0 17:-95.0 18:-80.0 
-0.0 -0.0 -0.0 1.0 0.0 0.0 0.0 0.0 0.0 0.0 0.0 0.0 0.0 0.0 1:-95.0 2:-59.0 3:-47.0 4:-41.0 5:-60.0 6:-95.0 7:-95.0 8:-95.0 9:-54.0 10:-63.0 11:-77.0 12:-95.0 13:-95.0 14:-95.0 15:-95.0 16:-95.0 17:-95.0 18:-80.0 
-0.0 -0.0 -0.0 1.0 0.0 0.0 0.0 0.0 0.0 0.0 0.0 0.0 0.0 0.0 1:-95.0 2:-63.0 3:-42.0 4:-47.0 5:-60.0 6:-95.0 7:-95.0 8:-95.0 9:-55.0 10:-63.0 11:-77.0 12:-95.0 13:-95.0 14:-95.0 15:-95.0 16:-95.0 17:-95.0 18:-80.0 
-0.0 -0.0 -0.0 1.0 0.0 0.0 0.0 0.0 0.0 0.0 0.0 0.0 1.0 0.0 1:-95.0 2:-55.0 3:-50.0 4:-47.0 5:-60.0 6:-95.0 7:-95.0 8:-95.0 9:-55.0 10:-58.0 11:-72.0 12:-95.0 13:-95.0 14:-95.0 15:-95.0 16:-95.0 17:-95.0 18:-80.0 
-0.0 -0.0 -0.0 0.0 0.0 0.0 0.0 0.0 0.0 0.0 0.0 0.0 0.03995754735465877 0.0014580503180037197 1:-95.0 2:-52.0 3:-47.0 4:-43.0 5:-60.0 6:-82.0 7:-95.0 8:-95.0 9:-55.0 10:-58.0 11:-72.0 12:-95.0 13:-95.0 14:-95.0 15:-95.0 16:-95.0 17:-95.0 18:-80.0 
-0.0 -0.0 -0.0 1.0 0.0 0.0 0.0 0.0 0.0 0.0 0.0 0.0 1.0 0.0 1:-95.0 2:-58.0 3:-51.0 4:-43.0 5:-60.0 6:-82.0 7:-95.0 8:-95.0 9:-63.0 10:-58.0 11:-72.0 12:-95.0 13:-95.0 14:-95.0 15:-95.0 16:-95.0 17:-95.0 18:-80.0 
-0.0 -0.0 -0.0 1.0 0.0 0.0 0.0 0.0 0.0 0.0 0.0 0.0 0.0 0.0 1:-95.0 2:-58.0 3:-42.0 4:-46.0 5:-58.0 6:-82.0 7:-95.0 8:-95.0 9:-59.0 10:-64.0 11:-72.0 12:-95.0 13:-95.0 14:-95.0 15:-95.0 16:-95.0 17:-95.0 18:-80.0 
-0.0 -0.0 -0.0 1.0 0.007031089326422151 0.0 0.0 0.0 0.0 0.0 0.0 0.0 0.0 0.0011271440855562303 1:-95.0 2:-64.0 3:-39.0 4:-49.0 5:-58.0 6:-82.0 7:-95.0 8:-95.0 9:-59.0 10:-60.0 11:-72.0 12:-95.0 13:-95.0 14:-95.0 15:-95.0 16:-95.0 17:-95.0 18:-95.0 
-0.0 -0.0 -0.0 1.0 0.0 0.0 0.0 0.0 0.0 0.0 0.0 0.0 0.0 0.0 1:-64.0 2:-57.0 3:-59.0 4:-44.0 5:-57.0 6:-67.0 7:-95.0 8:-95.0 9:-55.0 10:-52.0 11:-82.0 12:-95.0 13:-95.0 14:-95.0 15:-95.0 16:-95.0 17:-95.0 18:-79.0 
-0.0 -0.0 -1.0 0.0 0.0 0.0 0.0 0.0 0.0 0.0 0.0 0.0 0.0 0.0 1:-64.0 2:-60.0 3:-58.0 4:-55.0 5:-65.0 6:-63.0 7:-95.0 8:-95.0 9:-58.0 10:-52.0 11:-82.0 12:-95.0 13:-83.0 14:-95.0 15:-95.0 16:-95.0 17:-95.0 18:-79.0 
-0.0 -0.0 -0.0 0.0 0.0 0.0 0.0 0.0 0.0 0.0 0.0 0.0 1.0 0.0 1:-71.0 2:-48.0 3:-53.0 4:-59.0 5:-54.0 6:-95.0 7:-95.0 8:-95.0 9:-55.0 10:-55.0 11:-76.0 12:-78.0 13:-83.0 14:-95.0 15:-95.0 16:-95.0 17:-95.0 18:-64.0 
-0.0 -0.0 -0.0 1.0 0.0 0.0 0.0 0.0 0.0 0.0 0.0 0.0 0.0 0.0 1:-71.0 2:-59.0 3:-53.0 4:-47.0 5:-54.0 6:-95.0 7:-95.0 8:-95.0 9:-55.0 10:-56.0 11:-76.0 12:-78.0 13:-95.0 14:-95.0 15:-95.0 16:-95.0 17:-95.0 18:-64.0 
-0.0 -0.0 -0.7935381255547842 0.0 0.0 0.0 0.0 0.0 0.0 0.0 0.0 0.0 0.0 0.0 1:-66.0 2:-49.0 3:-53.0 4:-54.0 5:-70.0 6:-95.0 7:-95.0 8:-95.0 9:-55.0 10:-56.0 11:-76.0 12:-78.0 13:-95.0 14:-95.0 15:-95.0 16:-95.0 17:-95.0 18:-64.0 
-0.0 -0.0 -0.0 1.0 0.0 0.0 0.0 0.0 0.0 0.0 0.0 0.0 0.0 0.0 1:-65.0 2:-63.0 3:-59.0 4:-51.0 5:-62.0 6:-95.0 7:-95.0 8:-95.0 9:-61.0 10:-55.0 11:-76.0 12:-78.0 13:-95.0 14:-95.0 15:-95.0 16:-95.0 17:-95.0 18:-64.0 
-0.0 -0.0 -0.0 1.0 0.0 0.0 0.0 0.0 0.0 0.0 0.0 0.0 0.0 0.0 1:-64.0 2:-62.0 3:-47.0 4:-42.0 5:-57.0 6:-71.0 7:-95.0 8:-79.0 9:-60.0 10:-54.0 11:-66.0 12:-80.0 13:-95.0 14:-95.0 15:-95.0 16:-95.0 17:-95.0 18:-71.0 
-0.0 -0.0 -0.0 1.0 0.006836006408301319 0.0 0.0 5.392778698398889E-5 0.0 0.0 0.0 0.0 0.0 0.0 1:-72.0 2:-64.0 3:-57.0 4:-53.0 5:-60.0 6:-71.0 7:-95.0 8:-79.0 9:-56.0 10:-59.0 11:-66.0 12:-80.0 13:-95.0 14:-95.0 15:-95.0 16:-95.0 17:-95.0 18:-71.0 
-0.0 -0.0 -0.30687278797699985 0.0 0.0 0.0 0.0 0.0 0.0 0.0 0.0 0.0 0.0 0.0 1:-70.0 2:-55.0 3:-51.0 4:-53.0 5:-72.0 6:-71.0 7:-95.0 8:-95.0 9:-58.0 10:-50.0 11:-76.0 12:-95.0 13:-80.0 14:-95.0 15:-95.0 16:-95.0 17:-95.0 18:-95.0 
-0.0 -0.0 -0.0 0.0 0.0 0.0 0.0 0.0 0.0 0.0 0.0 0.0 1.0 0.0 1:-69.0 2:-58.0 3:-55.0 4:-53.0 5:-72.0 6:-71.0 7:-82.0 8:-95.0 9:-60.0 10:-52.0 11:-68.0 12:-70.0 13:-80.0 14:-95.0 15:-95.0 16:-95.0 17:-95.0 18:-76.0 
-0.0 -0.0 -0.0 0.0 0.0 0.0 0.0 0.0 0.0 0.0 0.0 0.0 0.08685648805847604 3.400261180816953E-4 1:-76.0 2:-60.0 3:-57.0 4:-39.0 5:-72.0 6:-61.0 7:-81.0 8:-95.0 9:-58.0 10:-52.0 11:-68.0 12:-70.0 13:-80.0 14:-95.0 15:-95.0 16:-95.0 17:-95.0 18:-76.0 
-0.0 -0.0 -0.0 0.0 0.0 0.0 0.0 0.0 0.0 2.7488298612416833E-4 0.0 0.0 0.0 0.0 1:-76.0 2:-64.0 3:-54.0 4:-43.0 5:-72.0 6:-61.0 7:-81.0 8:-95.0 9:-58.0 10:-56.0 11:-68.0 12:-70.0 13:-80.0 14:-95.0 15:-95.0 16:-95.0 17:-95.0 18:-76.0 
-0.0 -0.0 -0.0 0.0 0.0 0.0014318725780375853 3.655566101375304E-4 1.0072099696643532E-4 0.0020469002906030017 8.7617484782469E-4 2.9114510125903103E-4 0.0 1.0 0.0 1:-73.0 2:-62.0 3:-58.0 4:-58.0 5:-72.0 6:-61.0 7:-81.0 8:-95.0 9:-55.0 10:-56.0 11:-68.0 12:-70.0 13:-80.0 14:-95.0 15:-95.0 16:-95.0 17:-95.0 18:-76.0 
-0.0 -0.0 -0.0012626396117471352 -1.0 0.0 0.0 0.0 0.0 0.0 0.0 0.0 0.0 0.0 0.0 1:-73.0 2:-62.0 3:-48.0 4:-46.0 5:-55.0 6:-95.0 7:-95.0 8:-95.0 9:-63.0 10:-58.0 11:-95.0 12:-95.0 13:-95.0 14:-95.0 15:-95.0 16:-95.0 17:-95.0 18:-95.0 
-8.777788756571572E-5 -5.409802746754034E-4 -0.0 -0.2947458330863209 0.0 0.0 0.0 0.0 0.0 0.0 0.0 0.0 0.0 0.0 1:-73.0 2:-62.0 3:-50.0 4:-51.0 5:-53.0 6:-95.0 7:-95.0 8:-95.0 9:-63.0 10:-58.0 11:-95.0 12:-95.0 13:-95.0 14:-95.0 15:-95.0 16:-95.0 17:-95.0 18:-95.0 
-0.0 -0.0 -0.0 -1.0 0.0 0.0 0.0 0.0 0.0 0.0 0.0 0.0 0.04774124535654576 0.0 1:-77.0 2:-64.0 3:-56.0 4:-43.0 5:-58.0 6:-95.0 7:-95.0 8:-95.0 9:-51.0 10:-50.0 11:-78.0 12:-84.0 13:-85.0 14:-95.0 15:-95.0 16:-95.0 17:-95.0 18:-95.0 
-0.0 -0.0 -0.0 -1.0 0.0 0.0 0.0 0.0 0.0 0.0 0.0 0.0 0.0 0.0 1:-70.0 2:-64.0 3:-57.0 4:-40.0 5:-54.0 6:-95.0 7:-74.0 8:-95.0 9:-54.0 10:-52.0 11:-78.0 12:-84.0 13:-85.0 14:-95.0 15:-95.0 16:-95.0 17:-95.0 18:-95.0 
-0.0 -0.0 -0.0 -1.0 0.0 0.0 0.0 0.0 0.0 0.0 0.0 0.0 0.0 0.0 1:-70.0 2:-64.0 3:-52.0 4:-43.0 5:-56.0 6:-71.0 7:-74.0 8:-95.0 9:-62.0 10:-62.0 11:-95.0 12:-84.0 13:-85.0 14:-95.0 15:-95.0 16:-95.0 17:-95.0 18:-95.0 
-0.0 -0.0 -0.0 -0.0 0.0 2.2554428457891994E-4 9.106085221816637E-5 0.0 0.0 0.0 0.0 0.0 0.0 0.0 1:-70.0 2:-70.0 3:-60.0 4:-44.0 5:-52.0 6:-71.0 7:-74.0 8:-95.0 9:-64.0 10:-64.0 11:-77.0 12:-84.0 13:-85.0 14:-95.0 15:-95.0 16:-95.0 17:-95.0 18:-95.0 
-0.0 -0.0 -0.0 -0.0 0.0 0.0 1.2100257090866356E-4 0.0 0.0 0.0 0.0 0.0 0.0 0.0 1:-70.0 2:-66.0 3:-60.0 4:-49.0 5:-53.0 6:-71.0 7:-74.0 8:-95.0 9:-64.0 10:-64.0 11:-77.0 12:-84.0 13:-85.0 14:-95.0 15:-95.0 16:-95.0 17:-95.0 18:-79.0 
-2.8543535953331247E-4 -0.0018754393326168015 -0.0012335254027079814 -0.0 0.9810419633948689 0.0 0.0 0.0 0.0 0.0 0.0 0.0 0.0 0.0 1:-73.0 2:-60.0 3:-55.0 4:-59.0 5:-53.0 6:-71.0 7:-95.0 8:-95.0 9:-71.0 10:-64.0 11:-95.0 12:-95.0 13:-95.0 14:-95.0 15:-95.0 16:-95.0 17:-95.0 18:-80.0 
-0.0 -0.0 -0.0 -0.0 1.0 0.0 0.0 0.0 0.0 0.0 0.0 0.0 0.0 0.0 1:-74.0 2:-64.0 3:-51.0 4:-59.0 5:-48.0 6:-71.0 7:-95.0 8:-95.0 9:-67.0 10:-64.0 11:-95.0 12:-95.0 13:-95.0 14:-95.0 15:-95.0 16:-95.0 17:-95.0 18:-95.0 
-0.0 -0.0 -0.0 -0.0 1.0 0.0 0.0 0.0 0.0 0.0 0.0 0.0 0.0 0.0 1:-74.0 2:-68.0 3:-58.0 4:-50.0 5:-47.0 6:-71.0 7:-95.0 8:-95.0 9:-70.0 10:-62.0 11:-95.0 12:-95.0 13:-95.0 14:-95.0 15:-95.0 16:-95.0 17:-95.0 18:-95.0 
-0.0 -0.0 -0.0 -0.0 1.0 0.0 0.0 0.0 0.0 0.0 0.0 0.0 0.0 0.0 1:-78.0 2:-69.0 3:-53.0 4:-56.0 5:-52.0 6:-71.0 7:-95.0 8:-95.0 9:-70.0 10:-58.0 11:-95.0 12:-95.0 13:-91.0 14:-95.0 15:-95.0 16:-95.0 17:-95.0 18:-95.0 
-0.0 -0.0 -0.0 -0.0 7.176509710363673E-4 0.0 0.0 0.0 0.0 0.0 0.0 0.0 0.0 0.0 1:-78.0 2:-77.0 3:-53.0 4:-50.0 5:-46.0 6:-73.0 7:-95.0 8:-95.0 9:-67.0 10:-62.0 11:-81.0 12:-95.0 13:-91.0 14:-95.0 15:-95.0 16:-95.0 17:-95.0 18:-81.0 
-0.0 -0.0 -0.0 -0.0 1.0 0.0 0.0 0.0 0.0 0.0 0.0 0.0 0.0 0.0 1:-78.0 2:-77.0 3:-55.0 4:-53.0 5:-49.0 6:-73.0 7:-95.0 8:-95.0 9:-67.0 10:-60.0 11:-81.0 12:-95.0 13:-91.0 14:-95.0 15:-95.0 16:-95.0 17:-95.0 18:-81.0 
-0.0 -0.0 -0.0 -0.0 1.0 0.0 0.0 0.0 0.0 0.0 0.0 0.0 0.0 0.0 1:-78.0 2:-70.0 3:-59.0 4:-49.0 5:-49.0 6:-73.0 7:-95.0 8:-95.0 9:-67.0 10:-61.0 11:-81.0 12:-95.0 13:-91.0 14:-95.0 15:-95.0 16:-95.0 17:-95.0 18:-81.0 
-0.0 -0.0 -0.0 -0.0 0.0 0.0 0.0 0.0 0.0 0.0 0.0 0.0 0.0 0.003020115101690011 1:-78.0 2:-60.0 3:-57.0 4:-51.0 5:-56.0 6:-63.0 7:-95.0 8:-95.0 9:-56.0 10:-51.0 11:-81.0 12:-95.0 13:-91.0 14:-95.0 15:-95.0 16:-95.0 17:-95.0 18:-81.0 
-0.0 -0.0 -0.0 -0.0 1.0 0.0030814397919391016 0.0 0.0 0.0 0.0 0.0 0.0 0.0 0.0 1:-95.0 2:-70.0 3:-58.0 4:-63.0 5:-51.0 6:-63.0 7:-95.0 8:-95.0 9:-65.0 10:-62.0 11:-81.0 12:-95.0 13:-95.0 14:-95.0 15:-95.0 16:-95.0 17:-95.0 18:-81.0 
-0.0 -0.0 -0.0 -0.0 1.0 0.0 0.0 0.0 0.0 0.0 0.0 0.0 0.0 0.0 1:-95.0 2:-64.0 3:-61.0 4:-54.0 5:-57.0 6:-63.0 7:-95.0 8:-95.0 9:-63.0 10:-62.0 11:-81.0 12:-95.0 13:-95.0 14:-95.0 15:-95.0 16:-95.0 17:-95.0 18:-77.0 
-0.0 -1.076529517631635E-4 -0.0 -1.0 0.0 0.0 0.0 0.0 0.0 0.0 0.0 0.0 0.0 0.0 1:-81.0 2:-62.0 3:-51.0 4:-60.0 5:-60.0 6:-78.0 7:-90.0 8:-95.0 9:-66.0 10:-63.0 11:-86.0 12:-79.0 13:-95.0 14:-95.0 15:-95.0 16:-95.0 17:-95.0 18:-80.0 
-0.0 -0.0 -0.0 -0.0 0.0 0.0 0.0 0.0 0.0 0.0 0.0 3.744258002974928E-5 0.0 0.0 1:-81.0 2:-68.0 3:-49.0 4:-61.0 5:-58.0 6:-78.0 7:-90.0 8:-95.0 9:-65.0 10:-68.0 11:-86.0 12:-79.0 13:-95.0 14:-95.0 15:-95.0 16:-95.0 17:-95.0 18:-80.0 
-0.0 -0.0 -0.0 -0.0 1.0 0.0 0.0 0.0 0.0 0.0 0.0 0.0 0.0 0.0 1:-95.0 2:-59.0 3:-62.0 4:-54.0 5:-51.0 6:-74.0 7:-95.0 8:-82.0 9:-63.0 10:-59.0 11:-68.0 12:-81.0 13:-95.0 14:-95.0 15:-95.0 16:-95.0 17:-95.0 18:-79.0 
-0.0 -0.0 -0.0 -0.0 0.0 0.0 3.24489875225482E-4 3.931333449596019E-5 0.0 0.0 0.0 0.0 0.0 0.0 1:-95.0 2:-64.0 3:-57.0 4:-50.0 5:-58.0 6:-72.0 7:-95.0 8:-82.0 9:-62.0 10:-59.0 11:-68.0 12:-81.0 13:-95.0 14:-95.0 15:-95.0 16:-95.0 17:-95.0 18:-79.0 
-0.0 -0.0 -0.0 -0.0 0.037235465973979705 0.0 0.0 0.0 6.238164185444294E-4 0.0 0.0 0.0 0.0 8.660046634925059E-4 1:-95.0 2:-60.0 3:-59.0 4:-59.0 5:-48.0 6:-70.0 7:-95.0 8:-82.0 9:-57.0 10:-53.0 11:-68.0 12:-81.0 13:-95.0 14:-95.0 15:-85.0 16:-88.0 17:-95.0 18:-79.0 
-0.0 -0.0 -0.0 -0.0 0.0 0.0 0.0 0.0 0.0 0.0 0.0 0.0 0.0 0.002078206200976683 1:-95.0 2:-63.0 3:-51.0 4:-42.0 5:-47.0 6:-70.0 7:-95.0 8:-82.0 9:-56.0 10:-55.0 11:-68.0 12:-81.0 13:-95.0 14:-95.0 15:-85.0 16:-88.0 17:-95.0 18:-95.0 
-0.0 -0.0 -0.0 -0.0 0.0 6.815675436080053E-4 0.0 4.106501432170919E-5 0.0 0.0 0.0 0.0 0.0 0.0 1:-95.0 2:-70.0 3:-59.0 4:-41.0 5:-51.0 6:-70.0 7:-95.0 8:-82.0 9:-57.0 10:-59.0 11:-68.0 12:-81.0 13:-95.0 14:-95.0 15:-85.0 16:-88.0 17:-95.0 18:-67.0 
-0.0 -0.0 -0.0 -0.0 0.0 0.0 0.0 0.0 0.0 0.0 0.0 0.0 0.0 7.849494941611531E-4 1:-95.0 2:-68.0 3:-47.0 4:-53.0 5:-54.0 6:-70.0 7:-95.0 8:-84.0 9:-62.0 10:-57.0 11:-69.0 12:-95.0 13:-81.0 14:-95.0 15:-95.0 16:-95.0 17:-95.0 18:-70.0 
-0.0 -0.0 -0.0 -1.0 0.0 0.0 0.0 0.0 0.0 0.0 0.0 0.0 0.0 0.0 1:-95.0 2:-60.0 3:-48.0 4:-48.0 5:-57.0 6:-95.0 7:-95.0 8:-84.0 9:-74.0 10:-60.0 11:-69.0 12:-95.0 13:-81.0 14:-95.0 15:-95.0 16:-95.0 17:-95.0 18:-70.0 
-0.0 -0.0 -0.0 -1.0 0.0 0.0 0.0 0.0 0.0 0.0 0.0 0.0 0.0 0.0 1:-95.0 2:-62.0 3:-47.0 4:-48.0 5:-60.0 6:-95.0 7:-95.0 8:-84.0 9:-70.0 10:-63.0 11:-69.0 12:-95.0 13:-81.0 14:-95.0 15:-95.0 16:-95.0 17:-95.0 18:-70.0 
-0.0 -0.0 -0.0 -1.0 0.0 0.0 0.0 0.0 0.0 0.0 0.0 0.0 0.0 0.0 1:-95.0 2:-62.0 3:-47.0 4:-47.0 5:-58.0 6:-95.0 7:-95.0 8:-84.0 9:-67.0 10:-63.0 11:-69.0 12:-95.0 13:-81.0 14:-95.0 15:-95.0 16:-95.0 17:-95.0 18:-70.0 
-0.0 -0.0 -0.0 -0.15774322042214023 0.0 0.0 0.0 0.0 0.0 0.0 0.0 0.0 0.0 0.0 1:-95.0 2:-66.0 3:-47.0 4:-47.0 5:-57.0 6:-95.0 7:-95.0 8:-84.0 9:-67.0 10:-63.0 11:-69.0 12:-95.0 13:-81.0 14:-95.0 15:-95.0 16:-95.0 17:-95.0 18:-70.0 
-0.0 -0.0 -0.0 -0.0 0.0 0.0 0.0 1.6562630919385486E-4 0.0 0.0 9.033051197553193E-5 1.2491869566376472E-4 0.0 0.0 1:-95.0 2:-66.0 3:-59.0 4:-47.0 5:-57.0 6:-95.0 7:-95.0 8:-84.0 9:-67.0 10:-62.0 11:-80.0 12:-95.0 13:-81.0 14:-95.0 15:-95.0 16:-95.0 17:-95.0 18:-70.0 
-0.0 -0.0 -0.0 -0.9586767909222166 0.0 0.0 0.0 0.0 0.0 0.0 0.0 0.0 0.0 0.0 1:-76.0 2:-68.0 3:-45.0 4:-48.0 5:-61.0 6:-81.0 7:-95.0 8:-95.0 9:-64.0 10:-63.0 11:-80.0 12:-83.0 13:-95.0 14:-95.0 15:-95.0 16:-95.0 17:-95.0 18:-67.0 
-0.0 -0.0 -0.0 -0.0 0.0 0.0 0.0 0.0 0.0 0.0 0.0 2.1607402448787327E-5 0.0 0.0 1:-76.0 2:-70.0 3:-52.0 4:-54.0 5:-55.0 6:-81.0 7:-95.0 8:-95.0 9:-64.0 10:-68.0 11:-95.0 12:-83.0 13:-95.0 14:-95.0 15:-95.0 16:-95.0 17:-95.0 18:-67.0 
-5.817311524403515E-5 -0.0 -0.0 -0.0 0.0 0.0 0.0 0.0 0.0 0.0 0.0 3.878451376962055E-6 0.0 0.0 1:-76.0 2:-67.0 3:-60.0 4:-54.0 5:-54.0 6:-81.0 7:-88.0 8:-95.0 9:-63.0 10:-68.0 11:-87.0 12:-83.0 13:-95.0 14:-95.0 15:-95.0 16:-95.0 17:-95.0 18:-67.0 
-4.4570953514501096E-4 -0.0 -0.0 -0.0 0.0 0.0 0.0 0.0 0.0 0.0 0.0 0.0 0.0 0.0 1:-76.0 2:-71.0 3:-55.0 4:-53.0 5:-54.0 6:-85.0 7:-89.0 8:-95.0 9:-64.0 10:-71.0 11:-83.0 12:-95.0 13:-95.0 14:-95.0 15:-95.0 16:-95.0 17:-95.0 18:-86.0 
-0.0 -0.0 -0.0 -1.0 0.0 0.0 0.0 0.0 0.0 0.0 0.0 0.0 0.0 0.0 1:-76.0 2:-62.0 3:-46.0 4:-42.0 5:-58.0 6:-78.0 7:-89.0 8:-95.0 9:-66.0 10:-62.0 11:-79.0 12:-79.0 13:-95.0 14:-95.0 15:-95.0 16:-95.0 17:-95.0 18:-78.0 
-0.0 -0.0 -0.0 -1.0 0.0 0.0 0.0 0.0 0.0 0.0 0.0 0.0 0.0 0.0 1:-76.0 2:-65.0 3:-48.0 4:-54.0 5:-60.0 6:-67.0 7:-89.0 8:-95.0 9:-60.0 10:-58.0 11:-74.0 12:-74.0 13:-95.0 14:-95.0 15:-95.0 16:-95.0 17:-95.0 18:-78.0 
-0.0 -0.0 -0.0 -0.0 0.0 0.0 0.0 0.0 0.0 0.0 0.0 0.0 0.19918764486156493 0.0 1:-68.0 2:-60.0 3:-50.0 4:-52.0 5:-55.0 6:-67.0 7:-79.0 8:-95.0 9:-59.0 10:-48.0 11:-79.0 12:-74.0 13:-95.0 14:-95.0 15:-95.0 16:-95.0 17:-95.0 18:-77.0 
-0.0 -0.0 -0.001117053130092581 -1.0 0.0 0.0 0.0 0.0 0.0 0.0 0.0 0.0 0.0 0.0 1:-68.0 2:-61.0 3:-44.0 4:-47.0 5:-61.0 6:-67.0 7:-79.0 8:-95.0 9:-67.0 10:-52.0 11:-79.0 12:-74.0 13:-95.0 14:-95.0 15:-95.0 16:-95.0 17:-95.0 18:-77.0 
-0.0 -0.0 -0.0 -1.0 0.0 0.0 0.0 0.0 0.0 0.0 0.0 0.0 0.0 0.0 1:-68.0 2:-57.0 3:-52.0 4:-46.0 5:-57.0 6:-67.0 7:-79.0 8:-95.0 9:-67.0 10:-51.0 11:-79.0 12:-74.0 13:-95.0 14:-95.0 15:-95.0 16:-95.0 17:-95.0 18:-77.0 
-0.0 -0.0 -0.0 -1.0 0.0 0.0 0.0 0.0 0.0 0.0 0.0 0.0 0.0 0.0 1:-68.0 2:-58.0 3:-49.0 4:-41.0 5:-57.0 6:-69.0 7:-79.0 8:-95.0 9:-61.0 10:-51.0 11:-79.0 12:-95.0 13:-95.0 14:-95.0 15:-95.0 16:-95.0 17:-95.0 18:-77.0 
-0.0 -0.0 -0.0 -1.0 0.0 0.0 0.0 0.0 0.0 0.0 0.0 0.0 0.0 0.0 1:-71.0 2:-58.0 3:-45.0 4:-46.0 5:-55.0 6:-69.0 7:-79.0 8:-95.0 9:-54.0 10:-51.0 11:-79.0 12:-95.0 13:-95.0 14:-95.0 15:-95.0 16:-95.0 17:-95.0 18:-77.0 
-0.0 -0.0 -0.0 -1.0 0.0 0.0 0.0 0.0 0.0 0.0 0.0 0.0 0.0 0.0 1:-75.0 2:-59.0 3:-51.0 4:-57.0 5:-58.0 6:-69.0 7:-79.0 8:-95.0 9:-56.0 10:-52.0 11:-79.0 12:-95.0 13:-95.0 14:-95.0 15:-95.0 16:-95.0 17:-95.0 18:-68.0 
-0.0 -0.0 -0.0 -0.0 0.0 2.0189513142134923E-4 0.0 0.0 0.0 0.0 0.0 0.0 0.0 0.0 1:-75.0 2:-63.0 3:-59.0 4:-39.0 5:-61.0 6:-67.0 7:-79.0 8:-95.0 9:-60.0 10:-49.0 11:-79.0 12:-95.0 13:-95.0 14:-95.0 15:-95.0 16:-95.0 17:-95.0 18:-68.0 
-0.0 -0.0 -0.0 -0.0 0.0 0.0 0.0 0.0 0.0 0.0 0.0 0.0 0.004507701449016553 0.0 1:-75.0 2:-61.0 3:-57.0 4:-51.0 5:-58.0 6:-67.0 7:-95.0 8:-95.0 9:-55.0 10:-52.0 11:-95.0 12:-95.0 13:-95.0 14:-95.0 15:-95.0 16:-95.0 17:-95.0 18:-68.0 
-0.0 -0.0 -0.0 -0.0 0.12307710912741653 0.0 0.0 0.0 0.0 0.0 0.0 0.0 0.0 0.0 1:-75.0 2:-60.0 3:-53.0 4:-60.0 5:-50.0 6:-67.0 7:-95.0 8:-95.0 9:-55.0 10:-55.0 11:-95.0 12:-95.0 13:-95.0 14:-95.0 15:-95.0 16:-95.0 17:-95.0 18:-75.0 
-0.0 -0.0 -0.0 -1.0 0.0 0.0 0.0 0.0 0.0 0.0 0.0 0.0 0.0 0.0 1:-75.0 2:-60.0 3:-49.0 4:-61.0 5:-57.0 6:-67.0 7:-95.0 8:-95.0 9:-55.0 10:-53.0 11:-95.0 12:-95.0 13:-95.0 14:-95.0 15:-95.0 16:-95.0 17:-95.0 18:-75.0 
-0.0 -0.0 -0.0 -0.0 1.0 0.0 0.0 0.0 0.0 0.0 0.0 0.0 0.0 0.0 1:-75.0 2:-64.0 3:-63.0 4:-52.0 5:-45.0 6:-74.0 7:-95.0 8:-95.0 9:-62.0 10:-55.0 11:-79.0 12:-95.0 13:-95.0 14:-95.0 15:-95.0 16:-95.0 17:-95.0 18:-75.0 
-0.0 -0.0 -0.0 -0.5369708794520743 0.0 0.0 0.0 0.0 0.0 0.0 0.0 0.0 0.0 0.0 1:-76.0 2:-65.0 3:-51.0 4:-47.0 5:-60.0 6:-83.0 7:-95.0 8:-95.0 9:-59.0 10:-57.0 11:-78.0 12:-95.0 13:-95.0 14:-95.0 15:-95.0 16:-95.0 17:-95.0 18:-75.0 
-0.0 -0.0 -6.365067533935074E-5 -1.0 0.0 0.0 0.0 0.0 0.0 0.0 0.0 0.0 0.0 0.0 1:-76.0 2:-65.0 3:-53.0 4:-46.0 5:-61.0 6:-83.0 7:-95.0 8:-95.0 9:-57.0 10:-56.0 11:-78.0 12:-95.0 13:-95.0 14:-95.0 15:-95.0 16:-95.0 17:-95.0 18:-75.0 
-0.0 -0.0 -0.0 -1.0 0.0 0.0 0.0 0.0 0.0 0.0 0.0 0.0 0.0 0.0 1:-76.0 2:-60.0 3:-51.0 4:-48.0 5:-58.0 6:-83.0 7:-95.0 8:-95.0 9:-48.0 10:-55.0 11:-78.0 12:-95.0 13:-95.0 14:-95.0 15:-95.0 16:-95.0 17:-95.0 18:-75.0 
-0.0 -0.0 -0.0 -1.0 0.0 0.0 0.0 0.0 0.0 0.0 0.0 0.0 0.0 0.0 1:-76.0 2:-60.0 3:-54.0 4:-48.0 5:-58.0 6:-83.0 7:-95.0 8:-95.0 9:-51.0 10:-52.0 11:-71.0 12:-95.0 13:-95.0 14:-95.0 15:-95.0 16:-95.0 17:-95.0 18:-75.0 
-0.0 -0.0 -0.0 -1.0 0.0 0.0 0.0 0.0 0.0 0.0 0.0 0.0 0.0 0.0 1:-76.0 2:-60.0 3:-54.0 4:-43.0 5:-58.0 6:-76.0 7:-95.0 8:-95.0 9:-54.0 10:-58.0 11:-71.0 12:-95.0 13:-95.0 14:-95.0 15:-95.0 16:-95.0 17:-95.0 18:-75.0 
-0.0 -0.0 -0.0 -1.0 0.0 0.0 0.0 0.0 0.0 0.0 0.0 0.0 0.0 0.0 1:-76.0 2:-58.0 3:-52.0 4:-42.0 5:-59.0 6:-71.0 7:-95.0 8:-95.0 9:-54.0 10:-53.0 11:-71.0 12:-95.0 13:-95.0 14:-95.0 15:-95.0 16:-95.0 17:-95.0 18:-75.0 
-0.0 -0.0 -0.0 -0.0 0.6838534271886555 0.0 0.0 0.0 0.0 0.0 0.0 0.0 0.0 0.0 1:-74.0 2:-59.0 3:-58.0 4:-49.0 5:-44.0 6:-71.0 7:-78.0 8:-95.0 9:-56.0 10:-61.0 11:-71.0 12:-95.0 13:-95.0 14:-95.0 15:-95.0 16:-95.0 17:-95.0 18:-95.0 
-0.0 -0.0 -0.0 -0.0 1.0 0.0 0.0 0.0 0.0 0.0 0.0 0.0 0.0 0.0 1:-74.0 2:-66.0 3:-63.0 4:-47.0 5:-46.0 6:-71.0 7:-74.0 8:-95.0 9:-54.0 10:-60.0 11:-95.0 12:-84.0 13:-95.0 14:-95.0 15:-95.0 16:-95.0 17:-84.0 18:-66.0 
-0.0 -0.0 -0.0 -0.0 0.0 0.0 0.0 0.0 0.0 0.0 0.0 0.0 0.05853568358975206 0.0 1:-72.0 2:-59.0 3:-56.0 4:-54.0 5:-50.0 6:-71.0 7:-74.0 8:-95.0 9:-52.0 10:-58.0 11:-95.0 12:-84.0 13:-95.0 14:-95.0 15:-95.0 16:-95.0 17:-84.0 18:-67.0 
-0.0 -4.155062476706308E-4 -0.0 -0.14992883613340918 0.0 0.0 0.0 0.0 0.0 0.0 0.0 0.0 0.0 0.0 1:-70.0 2:-64.0 3:-46.0 4:-47.0 5:-59.0 6:-78.0 7:-74.0 8:-95.0 9:-63.0 10:-66.0 11:-95.0 12:-84.0 13:-95.0 14:-95.0 15:-95.0 16:-93.0 17:-84.0 18:-79.0 
-0.0 -0.0 -0.0 -0.0 0.6961118506473779 0.0 0.0 0.0 0.0 0.0 0.0 0.0 0.0 0.0 1:-70.0 2:-64.0 3:-52.0 4:-57.0 5:-47.0 6:-78.0 7:-74.0 8:-95.0 9:-58.0 10:-53.0 11:-76.0 12:-84.0 13:-95.0 14:-95.0 15:-95.0 16:-93.0 17:-84.0 18:-70.0 
-0.0 -0.0 -0.0 -0.0 0.0 0.0 0.0 1.84182179110939E-5 0.0 0.0 0.0 0.0 0.0 0.0 1:-70.0 2:-70.0 3:-51.0 4:-48.0 5:-59.0 6:-78.0 7:-74.0 8:-95.0 9:-70.0 10:-55.0 11:-76.0 12:-84.0 13:-95.0 14:-95.0 15:-95.0 16:-93.0 17:-84.0 18:-70.0 
-0.0 -0.0 -0.0 -0.0 1.0 0.0 0.0 0.0 0.0 0.0 0.0 0.0 0.0 0.0 1:-70.0 2:-57.0 3:-60.0 4:-53.0 5:-45.0 6:-73.0 7:-85.0 8:-95.0 9:-59.0 10:-57.0 11:-75.0 12:-95.0 13:-95.0 14:-95.0 15:-95.0 16:-95.0 17:-95.0 18:-76.0 
-0.0 -0.0 -0.0 -1.0 0.0 0.0 0.0 0.0 0.0 0.0 0.0 0.0 0.0 0.0 1:-70.0 2:-61.0 3:-47.0 4:-57.0 5:-54.0 6:-73.0 7:-85.0 8:-95.0 9:-57.0 10:-65.0 11:-75.0 12:-95.0 13:-95.0 14:-95.0 15:-95.0 16:-95.0 17:-95.0 18:-76.0 
-0.0 -0.0 -0.0 -1.0 0.0 0.0 0.0 0.0 0.0 0.0 0.0 0.0 0.0 0.0 1:-70.0 2:-61.0 3:-44.0 4:-42.0 5:-54.0 6:-75.0 7:-85.0 8:-95.0 9:-57.0 10:-55.0 11:-75.0 12:-95.0 13:-95.0 14:-95.0 15:-95.0 16:-95.0 17:-95.0 18:-76.0 
-0.0 -0.0 -0.0 -1.0 0.0 0.0 0.0 0.0 0.0 0.0 0.0 0.0 0.0 0.0 1:-78.0 2:-60.0 3:-45.0 4:-46.0 5:-60.0 6:-75.0 7:-95.0 8:-95.0 9:-56.0 10:-51.0 11:-75.0 12:-95.0 13:-95.0 14:-95.0 15:-95.0 16:-95.0 17:-95.0 18:-76.0 
-0.0 -0.0 -0.0 -0.0 0.4400851322990069 0.0 0.0 0.0 0.0 0.0 0.0 0.0 0.0 0.0 1:-71.0 2:-61.0 3:-58.0 4:-46.0 5:-43.0 6:-63.0 7:-95.0 8:-95.0 9:-54.0 10:-56.0 11:-95.0 12:-95.0 13:-95.0 14:-95.0 15:-95.0 16:-82.0 17:-95.0 18:-67.0 
-0.0 -0.0 -0.0 -0.0 0.34965365642237917 0.0 0.0 0.0 0.0 0.0 0.0 0.0 0.0 0.0 1:-71.0 2:-61.0 3:-59.0 4:-51.0 5:-51.0 6:-68.0 7:-95.0 8:-95.0 9:-57.0 10:-52.0 11:-95.0 12:-95.0 13:-95.0 14:-95.0 15:-95.0 16:-82.0 17:-95.0 18:-67.0 
-0.0 -0.0 -0.0 -1.0 0.0 0.0 0.0 0.0 0.0 0.0 0.0 0.0 0.0 0.0 1:-71.0 2:-58.0 3:-53.0 4:-37.0 5:-59.0 6:-67.0 7:-95.0 8:-95.0 9:-58.0 10:-61.0 11:-95.0 12:-95.0 13:-95.0 14:-95.0 15:-95.0 16:-95.0 17:-95.0 18:-72.0 
-0.0 -0.0 -0.0 -1.0 0.0 0.0 0.0 0.0 0.0 0.0 0.0 0.0 0.047334050292859545 0.0 1:-71.0 2:-56.0 3:-55.0 4:-36.0 5:-59.0 6:-73.0 7:-95.0 8:-95.0 9:-48.0 10:-49.0 11:-95.0 12:-95.0 13:-95.0 14:-95.0 15:-95.0 16:-95.0 17:-95.0 18:-72.0 
-0.0 -0.0 -0.0025936817814441056 -0.42653499300884345 0.0 0.0 0.0 0.0 0.0 0.0 0.0 0.0 0.0 0.0 1:-71.0 2:-58.0 3:-57.0 4:-39.0 5:-59.0 6:-73.0 7:-95.0 8:-95.0 9:-55.0 10:-49.0 11:-95.0 12:-95.0 13:-95.0 14:-95.0 15:-95.0 16:-95.0 17:-95.0 18:-72.0 
-0.0 -0.0 -0.0 -1.0 0.0 0.0 0.0 0.0 0.0 0.0 0.0 0.0 0.0 0.0 1:-71.0 2:-58.0 3:-49.0 4:-41.0 5:-55.0 6:-73.0 7:-95.0 8:-95.0 9:-50.0 10:-54.0 11:-95.0 12:-95.0 13:-95.0 14:-95.0 15:-95.0 16:-95.0 17:-95.0 18:-72.0 
-0.0 -0.0 -0.0015951743339358206 -1.0 0.0 0.0 0.0 0.0 0.0 0.0 0.0 0.0 0.0 0.0 1:-71.0 2:-58.0 3:-50.0 4:-41.0 5:-60.0 6:-73.0 7:-95.0 8:-83.0 9:-62.0 10:-50.0 11:-95.0 12:-95.0 13:-95.0 14:-95.0 15:-95.0 16:-95.0 17:-95.0 18:-72.0 
-0.0 -0.0 -0.0 -0.511860792447306 0.0 0.0 0.0 0.0 0.0 0.0 0.0 0.0 0.026794582215458558 0.0 1:-76.0 2:-56.0 3:-49.0 4:-56.0 5:-57.0 6:-66.0 7:-95.0 8:-82.0 9:-55.0 10:-46.0 11:-95.0 12:-72.0 13:-95.0 14:-95.0 15:-95.0 16:-87.0 17:-95.0 18:-95.0 
-0.0 -0.0 -0.0 -0.0 0.08968673574741462 0.0 0.0 0.0 0.0 0.0 0.0 0.0 0.0 0.0 1:-76.0 2:-56.0 3:-54.0 4:-56.0 5:-56.0 6:-66.0 7:-95.0 8:-82.0 9:-63.0 10:-46.0 11:-95.0 12:-72.0 13:-95.0 14:-95.0 15:-95.0 16:-87.0 17:-95.0 18:-95.0 
-0.0 -0.0 -0.0 -0.6514179002336085 0.0 0.0 0.0 0.0 0.0 0.0 0.0 0.0 0.0 0.0 1:-76.0 2:-56.0 3:-54.0 4:-56.0 5:-56.0 6:-66.0 7:-95.0 8:-82.0 9:-55.0 10:-58.0 11:-95.0 12:-72.0 13:-95.0 14:-95.0 15:-95.0 16:-87.0 17:-95.0 18:-95.0 
-0.0 -0.0 -0.0 -0.0 0.0 0.0 0.0 0.0 0.0 0.0 0.0 0.0 0.07043538790823586 0.0 1:-76.0 2:-62.0 3:-62.0 4:-32.0 5:-60.0 6:-67.0 7:-80.0 8:-95.0 9:-58.0 10:-58.0 11:-95.0 12:-74.0 13:-76.0 14:-95.0 15:-95.0 16:-87.0 17:-95.0 18:-95.0 
-0.0 -0.0 -0.0 -0.0 0.0 0.0 0.0 0.0 0.0011431013258055523 0.0 0.0 0.0 0.0 0.0 1:-76.0 2:-62.0 3:-57.0 4:-37.0 5:-53.0 6:-67.0 7:-80.0 8:-95.0 9:-51.0 10:-56.0 11:-69.0 12:-74.0 13:-76.0 14:-95.0 15:-95.0 16:-87.0 17:-95.0 18:-95.0 
-0.0 -0.0 -0.0 -0.0 1.0 0.0 0.0 0.0 0.0 0.0 0.0 0.0 0.0 0.0 1:-76.0 2:-64.0 3:-61.0 4:-37.0 5:-50.0 6:-64.0 7:-80.0 8:-95.0 9:-56.0 10:-58.0 11:-69.0 12:-74.0 13:-76.0 14:-95.0 15:-95.0 16:-87.0 17:-95.0 18:-95.0 
-0.0 -0.0 -0.0 -0.0 0.0 0.0 0.0 0.0 4.089852790676202E-4 2.5394317006889188E-5 0.0 0.0 0.0 0.0 1:-76.0 2:-64.0 3:-53.0 4:-41.0 5:-46.0 6:-64.0 7:-80.0 8:-95.0 9:-56.0 10:-58.0 11:-69.0 12:-74.0 13:-76.0 14:-95.0 15:-95.0 16:-87.0 17:-95.0 18:-69.0 
-0.0 -0.0 -0.0 -0.0 0.0 0.0 0.0 0.0 0.0 0.001195234289569278 6.726192744466778E-5 0.0 0.0 0.0 1:-95.0 2:-64.0 3:-52.0 4:-49.0 5:-47.0 6:-68.0 7:-80.0 8:-95.0 9:-63.0 10:-57.0 11:-69.0 12:-74.0 13:-76.0 14:-95.0 15:-95.0 16:-87.0 17:-95.0 18:-69.0 
-0.0 -0.0 -0.0 -0.0 1.0 0.0 0.0 0.0 0.0 0.0 0.0 0.0 0.0 0.0 1:-95.0 2:-65.0 3:-60.0 4:-51.0 5:-42.0 6:-67.0 7:-80.0 8:-95.0 9:-67.0 10:-59.0 11:-78.0 12:-74.0 13:-76.0 14:-95.0 15:-95.0 16:-95.0 17:-95.0 18:-69.0 
-0.0 -0.0 -0.0 -0.0 0.004406310276971685 0.0 0.0 2.3433203657893383E-5 0.0 0.0 1.6654126165016188E-4 0.0 0.0 0.0 1:-95.0 2:-63.0 3:-53.0 4:-55.0 5:-50.0 6:-67.0 7:-80.0 8:-95.0 9:-67.0 10:-59.0 11:-78.0 12:-74.0 13:-76.0 14:-95.0 15:-95.0 16:-95.0 17:-95.0 18:-69.0 
-0.0 -0.0 -0.0 -0.0 1.0 0.0 0.0 0.0 0.0 0.0 0.0 0.0 0.0 0.0 1:-95.0 2:-67.0 3:-58.0 4:-51.0 5:-52.0 6:-67.0 7:-95.0 8:-95.0 9:-63.0 10:-58.0 11:-78.0 12:-95.0 13:-95.0 14:-95.0 15:-95.0 16:-95.0 17:-95.0 18:-69.0 
-0.0 -0.0 -0.0 -0.0 0.480226514565058 0.0 0.0 0.0 0.0 0.0 0.0 0.0 0.0 0.0 1:-95.0 2:-67.0 3:-54.0 4:-51.0 5:-44.0 6:-67.0 7:-95.0 8:-95.0 9:-63.0 10:-55.0 11:-77.0 12:-95.0 13:-95.0 14:-95.0 15:-95.0 16:-95.0 17:-95.0 18:-69.0 
-0.0 -0.0 -0.0 -0.0 0.6424233535344173 0.0 0.0 0.0 0.0 0.0 0.0 0.0 0.0 0.0 1:-95.0 2:-71.0 3:-55.0 4:-46.0 5:-45.0 6:-73.0 7:-95.0 8:-95.0 9:-55.0 10:-59.0 11:-77.0 12:-95.0 13:-95.0 14:-95.0 15:-95.0 16:-95.0 17:-95.0 18:-95.0 
-0.0 -0.0 -0.0 -0.0 1.0 0.0 0.0 0.0 0.0 0.0 0.0 0.0 0.0 0.0028387098783388453 1:-95.0 2:-71.0 3:-59.0 4:-48.0 5:-53.0 6:-73.0 7:-95.0 8:-95.0 9:-53.0 10:-59.0 11:-77.0 12:-95.0 13:-95.0 14:-95.0 15:-95.0 16:-95.0 17:-95.0 18:-95.0 
-0.0 -5.734621418207685E-5 -0.0015676401981054174 -1.0 1.0 0.0 0.0 0.0 0.0 0.0 0.0 0.0 0.0 0.0 1:-72.0 2:-61.0 3:-55.0 4:-59.0 5:-57.0 6:-73.0 7:-95.0 8:-95.0 9:-55.0 10:-58.0 11:-77.0 12:-95.0 13:-95.0 14:-95.0 15:-95.0 16:-95.0 17:-95.0 18:-95.0 
-0.0 -0.0 -0.0 -0.17120730781941879 0.0 0.0 0.0 0.0 0.0 0.0 0.0 0.0 0.0 0.0 1:-72.0 2:-61.0 3:-59.0 4:-47.0 5:-57.0 6:-73.0 7:-95.0 8:-95.0 9:-55.0 10:-56.0 11:-77.0 12:-95.0 13:-95.0 14:-95.0 15:-95.0 16:-95.0 17:-95.0 18:-95.0 
-0.0 -0.0 -0.0 -0.0 1.0 0.0 0.0 0.0 0.0 0.0 0.0 0.0 0.0 0.0 1:-72.0 2:-65.0 3:-59.0 4:-47.0 5:-45.0 6:-73.0 7:-95.0 8:-95.0 9:-55.0 10:-60.0 11:-77.0 12:-95.0 13:-95.0 14:-95.0 15:-95.0 16:-95.0 17:-95.0 18:-95.0 
-0.0 -0.0 -0.0 -0.0 0.27154747151853825 0.0 0.0 0.0 0.0 0.0 0.0 0.0 0.0 0.0 1:-72.0 2:-65.0 3:-59.0 4:-47.0 5:-49.0 6:-73.0 7:-95.0 8:-95.0 9:-63.0 10:-60.0 11:-77.0 12:-95.0 13:-95.0 14:-95.0 15:-95.0 16:-95.0 17:-95.0 18:-95.0 
-0.0 -0.0 -0.0 -0.0 0.0 0.0 0.0 0.0 0.0023885500225833576 0.0 0.0 0.0 0.08363534164309373 0.009690743700176984 1:-95.0 2:-60.0 3:-49.0 4:-57.0 5:-56.0 6:-65.0 7:-95.0 8:-95.0 9:-59.0 10:-48.0 11:-72.0 12:-79.0 13:-95.0 14:-95.0 15:-95.0 16:-95.0 17:-95.0 18:-57.0 
-0.0 -0.0 -0.0 -0.0 0.0 0.0 0.0 0.0 0.0020917620848806707 2.692084210487893E-6 0.0 0.0 0.0 0.0014939072628201166 1:-95.0 2:-64.0 3:-54.0 4:-39.0 5:-56.0 6:-65.0 7:-95.0 8:-95.0 9:-55.0 10:-48.0 11:-72.0 12:-75.0 13:-95.0 14:-95.0 15:-95.0 16:-95.0 17:-95.0 18:-57.0 
-0.0 -0.0 -0.0 -0.0 0.0 0.0 0.0 0.0 0.0 0.0 0.0 0.0 0.06876531449290255 0.0 1:-95.0 2:-60.0 3:-54.0 4:-37.0 5:-62.0 6:-65.0 7:-95.0 8:-95.0 9:-54.0 10:-60.0 11:-72.0 12:-75.0 13:-95.0 14:-95.0 15:-95.0 16:-95.0 17:-95.0 18:-57.0 
-0.0 -0.0 -0.0 -1.0 0.0 0.0 0.0 0.0 0.0 0.0 0.0 0.0 0.0 0.0 1:-74.0 2:-64.0 3:-45.0 4:-44.0 5:-62.0 6:-65.0 7:-95.0 8:-95.0 9:-58.0 10:-54.0 11:-72.0 12:-75.0 13:-95.0 14:-95.0 15:-95.0 16:-95.0 17:-95.0 18:-67.0 
-0.0 -0.0 -0.0 -1.0 0.0 0.0 0.0 0.0 0.0 0.0 0.0 0.0 0.0 0.0 1:-74.0 2:-60.0 3:-45.0 4:-41.0 5:-62.0 6:-65.0 7:-95.0 8:-95.0 9:-58.0 10:-54.0 11:-72.0 12:-75.0 13:-95.0 14:-95.0 15:-95.0 16:-95.0 17:-95.0 18:-67.0 
-0.0 -0.0 -5.24100038636571E-4 -0.0 0.0 0.0 0.0 0.0 0.0 0.0 0.0 0.0 0.0 0.0 1:-68.0 2:-60.0 3:-61.0 4:-43.0 5:-54.0 6:-74.0 7:-95.0 8:-95.0 9:-61.0 10:-56.0 11:-76.0 12:-75.0 13:-95.0 14:-95.0 15:-95.0 16:-95.0 17:-95.0 18:-67.0 
-0.0 -0.0 -0.0 -0.0 1.0 0.0 0.0 0.0 0.0 0.0 0.0 0.0 0.0 0.0 1:-73.0 2:-66.0 3:-57.0 4:-56.0 5:-47.0 6:-68.0 7:-84.0 8:-95.0 9:-58.0 10:-60.0 11:-76.0 12:-78.0 13:-95.0 14:-95.0 15:-95.0 16:-95.0 17:-95.0 18:-95.0 
-0.0 -0.0 -0.0 -0.0 0.09170055529133389 0.0 0.0 0.0 0.0 0.0 0.0 0.0 0.0 0.0 1:-71.0 2:-65.0 3:-59.0 4:-58.0 5:-41.0 6:-76.0 7:-84.0 8:-95.0 9:-54.0 10:-58.0 11:-75.0 12:-78.0 13:-95.0 14:-90.0 15:-95.0 16:-95.0 17:-95.0 18:-71.0 
-0.0 -0.0 -0.002972668484009948 -1.0 0.0 0.0 0.0 0.0 0.0 0.0 0.0 0.0 0.0 0.0 1:-71.0 2:-60.0 3:-47.0 4:-56.0 5:-56.0 6:-73.0 7:-95.0 8:-95.0 9:-58.0 10:-57.0 11:-75.0 12:-95.0 13:-95.0 14:-90.0 15:-95.0 16:-95.0 17:-95.0 18:-71.0 
-0.0 -0.0 -0.0 -1.0 0.0 0.0 0.0 0.0 0.0 0.0 0.0 0.0 0.0 0.0 1:-71.0 2:-61.0 3:-44.0 4:-59.0 5:-54.0 6:-73.0 7:-95.0 8:-95.0 9:-55.0 10:-53.0 11:-75.0 12:-95.0 13:-95.0 14:-90.0 15:-95.0 16:-95.0 17:-95.0 18:-71.0 
-0.0 -0.0 -0.0 -0.6733860264669556 0.0 0.0 0.0 0.0 0.0 0.0 0.0 0.0 0.0 0.0 1:-71.0 2:-61.0 3:-46.0 4:-42.0 5:-54.0 6:-73.0 7:-95.0 8:-95.0 9:-47.0 10:-53.0 11:-75.0 12:-95.0 13:-95.0 14:-90.0 15:-95.0 16:-95.0 17:-95.0 18:-71.0 
-0.0 -0.0 -0.0 -1.0 0.0 0.0 0.0 0.0 0.0 0.0 0.0 0.0 0.0 0.0 1:-74.0 2:-57.0 3:-48.0 4:-44.0 5:-53.0 6:-95.0 7:-95.0 8:-95.0 9:-55.0 10:-61.0 11:-69.0 12:-95.0 13:-95.0 14:-95.0 15:-95.0 16:-95.0 17:-95.0 18:-70.0 
-0.0 -0.0 -0.0 -0.0 -1.0 0.0 0.0 0.0 0.0 0.0 0.0 0.0 0.0 0.0 1:-95.0 2:-57.0 3:-59.0 4:-56.0 5:-38.0 6:-95.0 7:-87.0 8:-95.0 9:-60.0 10:-57.0 11:-95.0 12:-95.0 13:-95.0 14:-95.0 15:-95.0 16:-95.0 17:-89.0 18:-95.0 
-0.0 -0.0 -0.0 -0.0 -0.14992664800692995 0.0 0.0 0.0 0.0 0.0 0.0 0.0 0.0 0.0 1:-74.0 2:-66.0 3:-58.0 4:-47.0 5:-51.0 6:-63.0 7:-87.0 8:-91.0 9:-53.0 10:-58.0 11:-95.0 12:-95.0 13:-95.0 14:-95.0 15:-95.0 16:-90.0 17:-89.0 18:-95.0 
-0.0 -0.0 -0.0 -0.0 -1.0 0.0 0.0 0.0 0.0 0.0 0.0 0.0 0.0 0.0 1:-74.0 2:-62.0 3:-59.0 4:-43.0 5:-43.0 6:-63.0 7:-87.0 8:-91.0 9:-52.0 10:-55.0 11:-95.0 12:-95.0 13:-95.0 14:-95.0 15:-95.0 16:-90.0 17:-89.0 18:-95.0 
-0.0 -0.0 -0.0 -0.0 -0.0 0.0 0.0 0.0 7.866143466454116E-4 0.0 0.0 0.0 0.0 0.0 1:-74.0 2:-61.0 3:-62.0 4:-54.0 5:-43.0 6:-63.0 7:-87.0 8:-91.0 9:-51.0 10:-54.0 11:-70.0 12:-95.0 13:-95.0 14:-95.0 15:-95.0 16:-90.0 17:-89.0 18:-70.0 
-0.0 -4.1372897456113917E-5 -0.0017065740808066023 -0.03405111905333461 -1.0 0.0 0.0 0.0 8.315582758877089E-4 6.65068109946277E-5 0.0 0.0 0.0061641692161283805 4.2012847317112297E-4 1:-74.0 2:-67.0 3:-54.0 4:-52.0 5:-57.0 6:-75.0 7:-87.0 8:-91.0 9:-58.0 10:-53.0 11:-70.0 12:-95.0 13:-95.0 14:-95.0 15:-95.0 16:-90.0 17:-89.0 18:-70.0 
-0.0 -0.0 -0.0 -0.0 -1.0 0.0 0.0 0.0 0.0 0.0 0.0 0.0 0.0 0.0 1:-74.0 2:-64.0 3:-60.0 4:-55.0 5:-46.0 6:-75.0 7:-95.0 8:-95.0 9:-63.0 10:-66.0 11:-70.0 12:-95.0 13:-95.0 14:-95.0 15:-95.0 16:-90.0 17:-95.0 18:-70.0 
-0.0 -0.0 -0.0016914840335941219 -0.0 -1.0 0.0 0.0 0.0 0.0 0.0 0.0 0.0 0.0 0.0 1:-74.0 2:-64.0 3:-60.0 4:-57.0 5:-50.0 6:-75.0 7:-95.0 8:-95.0 9:-63.0 10:-63.0 11:-70.0 12:-95.0 13:-95.0 14:-95.0 15:-95.0 16:-90.0 17:-95.0 18:-70.0 
-0.0 -6.936851954230849E-4 -0.0 -0.0 -0.0 0.0 0.0 0.0 0.0 0.0 0.0 0.0 0.0 0.0 1:-74.0 2:-64.0 3:-63.0 4:-61.0 5:-50.0 6:-75.0 7:-95.0 8:-95.0 9:-63.0 10:-63.0 11:-70.0 12:-95.0 13:-95.0 14:-95.0 15:-95.0 16:-95.0 17:-95.0 18:-70.0 
-2.4251308100347978E-4 -0.0 -0.0 -0.0 -1.0 0.0 0.0 0.0 0.0 0.0 0.0 0.0 0.0 0.0 1:-74.0 2:-70.0 3:-63.0 4:-54.0 5:-53.0 6:-77.0 7:-95.0 8:-95.0 9:-61.0 10:-63.0 11:-70.0 12:-95.0 13:-95.0 14:-95.0 15:-95.0 16:-95.0 17:-95.0 18:-70.0 
-0.0 -0.0 -0.0 -0.0 -1.0 0.0 0.0 0.0 0.0 0.0 0.0 0.0 0.0 0.0 1:-80.0 2:-63.0 3:-57.0 4:-51.0 5:-42.0 6:-64.0 7:-95.0 8:-95.0 9:-68.0 10:-55.0 11:-89.0 12:-85.0 13:-95.0 14:-95.0 15:-95.0 16:-95.0 17:-95.0 18:-74.0 
-0.0 -0.0 -0.0 -0.007632959100760391 -1.0 0.0 0.0 0.0 0.0 0.0 0.0 0.0 0.0 0.0 1:-80.0 2:-60.0 3:-57.0 4:-51.0 5:-48.0 6:-64.0 7:-95.0 8:-95.0 9:-66.0 10:-52.0 11:-89.0 12:-85.0 13:-95.0 14:-95.0 15:-95.0 16:-95.0 17:-95.0 18:-74.0 
-0.0 -0.0 -0.0 -0.0 -1.0 0.0 0.0 0.0 0.0 0.0 0.0 0.0 0.0 0.0 1:-80.0 2:-68.0 3:-55.0 4:-56.0 5:-54.0 6:-71.0 7:-95.0 8:-95.0 9:-64.0 10:-56.0 11:-95.0 12:-95.0 13:-95.0 14:-95.0 15:-95.0 16:-95.0 17:-95.0 18:-95.0 
-0.0 -0.0 -0.0 -0.0 -1.0 0.0 0.0 0.0 0.0 0.0 0.0 0.0 0.0 0.0 1:-80.0 2:-76.0 3:-55.0 4:-57.0 5:-58.0 6:-71.0 7:-95.0 8:-95.0 9:-64.0 10:-61.0 11:-95.0 12:-95.0 13:-95.0 14:-95.0 15:-95.0 16:-95.0 17:-95.0 18:-95.0 
-0.0 -7.290834340315092E-4 -0.002163589472949365 -0.0014941644800782103 -1.0 0.0 0.0 0.0 0.0 0.0 0.0 0.0 0.0 0.0 1:-80.0 2:-64.0 3:-58.0 4:-57.0 5:-61.0 6:-68.0 7:-95.0 8:-92.0 9:-66.0 10:-57.0 11:-95.0 12:-95.0 13:-95.0 14:-95.0 15:-95.0 16:-95.0 17:-95.0 18:-95.0 
-0.0 -0.0 -0.0 -0.0 -1.0 0.0 0.0 0.0 0.0 0.0 0.0 0.0 0.0 0.0 1:-86.0 2:-58.0 3:-57.0 4:-46.0 5:-44.0 6:-63.0 7:-95.0 8:-92.0 9:-63.0 10:-57.0 11:-95.0 12:-95.0 13:-95.0 14:-95.0 15:-95.0 16:-95.0 17:-95.0 18:-95.0 
-0.0 -0.0 -0.0 -0.0 -1.0 0.0 0.0 0.0 0.0 0.0 0.0 0.0 0.0 0.0 1:-82.0 2:-66.0 3:-53.0 4:-51.0 5:-37.0 6:-59.0 7:-83.0 8:-95.0 9:-53.0 10:-59.0 11:-80.0 12:-79.0 13:-95.0 14:-95.0 15:-95.0 16:-95.0 17:-95.0 18:-76.0 
-0.0 -0.0 -0.0 -0.0 -0.0 0.0 0.0 0.0 0.0010054142688311098 0.0 0.0 0.0 0.005749549093794735 0.0022017049685314678 1:-79.0 2:-63.0 3:-58.0 4:-49.0 5:-40.0 6:-59.0 7:-83.0 8:-95.0 9:-54.0 10:-53.0 11:-80.0 12:-79.0 13:-84.0 14:-95.0 15:-95.0 16:-95.0 17:-95.0 18:-76.0 
-0.0 -0.0 -0.0 -0.0 -0.0 0.0 0.0 0.0 0.0 0.0 0.0 0.0 6.373491930077721E-4 0.0 1:-79.0 2:-69.0 3:-55.0 4:-54.0 5:-44.0 6:-66.0 7:-83.0 8:-95.0 9:-63.0 10:-55.0 11:-80.0 12:-79.0 13:-84.0 14:-95.0 15:-95.0 16:-95.0 17:-95.0 18:-76.0 
-0.0 -0.0 -0.0 -0.0 -1.0 0.0 0.0 0.0 0.0 0.0 0.0 0.0 0.0 0.0 1:-79.0 2:-69.0 3:-57.0 4:-49.0 5:-44.0 6:-69.0 7:-83.0 8:-95.0 9:-63.0 10:-59.0 11:-80.0 12:-79.0 13:-84.0 14:-95.0 15:-95.0 16:-95.0 17:-95.0 18:-76.0 
-0.0 -0.0 -0.0 -0.0 -1.0 0.0 0.0 0.0 0.0 0.0 0.0 0.0 0.0 0.0 1:-79.0 2:-69.0 3:-57.0 4:-49.0 5:-40.0 6:-69.0 7:-83.0 8:-95.0 9:-66.0 10:-63.0 11:-80.0 12:-79.0 13:-84.0 14:-95.0 15:-95.0 16:-95.0 17:-95.0 18:-76.0 
-0.0 -0.0 -0.0 -0.0 -0.4727683987469643 0.0 0.0 0.0 0.0 0.0 0.0 0.0 0.0 0.0 1:-85.0 2:-67.0 3:-61.0 4:-48.0 5:-54.0 6:-64.0 7:-88.0 8:-95.0 9:-62.0 10:-58.0 11:-86.0 12:-90.0 13:-95.0 14:-95.0 15:-95.0 16:-95.0 17:-95.0 18:-95.0 
-0.0 -0.0 -0.0 -0.009906052321702863 -1.0 0.0 0.0 0.0 0.0 0.0 0.0 0.0 0.006713656168561829 0.0 1:-73.0 2:-67.0 3:-61.0 4:-49.0 5:-56.0 6:-64.0 7:-95.0 8:-95.0 9:-59.0 10:-55.0 11:-86.0 12:-79.0 13:-95.0 14:-95.0 15:-95.0 16:-95.0 17:-95.0 18:-95.0 
-2.3895236869783822E-4 -6.308235130401066E-4 -0.0 -0.0 -0.0 0.0 0.0 0.0 0.0 0.0 0.0 0.0 0.0 0.0 1:-73.0 2:-76.0 3:-64.0 4:-54.0 5:-58.0 6:-67.0 7:-95.0 8:-95.0 9:-72.0 10:-66.0 11:-95.0 12:-79.0 13:-95.0 14:-95.0 15:-95.0 16:-95.0 17:-95.0 18:-95.0 
-1.9644115763919824E-4 -0.0 -0.0 -0.0 -0.0 0.0 0.0 0.0 0.0 0.0 0.0 0.0 0.0 0.0 1:-73.0 2:-84.0 3:-76.0 4:-63.0 5:-52.0 6:-67.0 7:-95.0 8:-95.0 9:-71.0 10:-64.0 11:-92.0 12:-79.0 13:-95.0 14:-95.0 15:-95.0 16:-95.0 17:-95.0 18:-95.0 
-0.0 -0.0 -0.0 -0.0 -0.0 0.013299344801611497 7.718298962795011E-4 0.0 0.0 0.0 0.0 7.962656672466442E-5 0.0 0.0 1:-95.0 2:-83.0 3:-65.0 4:-65.0 5:-67.0 6:-62.0 7:-84.0 8:-95.0 9:-74.0 10:-68.0 11:-84.0 12:-86.0 13:-95.0 14:-95.0 15:-95.0 16:-95.0 17:-95.0 18:-95.0 
-1.3076194419543754E-4 -0.0 -0.0 -0.0 -0.0 0.0 0.0 0.0 0.0 0.0 0.0 0.0 0.0 0.0 1:-95.0 2:-77.0 3:-67.0 4:-58.0 5:-58.0 6:-77.0 7:-87.0 8:-95.0 9:-66.0 10:-65.0 11:-95.0 12:-95.0 13:-95.0 14:-95.0 15:-95.0 16:-95.0 17:-95.0 18:-83.0 
-0.0 -0.0 -0.0 -0.0 -0.0 0.0 0.0 0.0 0.0 0.0 0.0 0.0 0.0047125208435008295 0.0 1:-95.0 2:-77.0 3:-60.0 4:-63.0 5:-66.0 6:-63.0 7:-87.0 8:-95.0 9:-58.0 10:-60.0 11:-95.0 12:-95.0 13:-95.0 14:-95.0 15:-95.0 16:-95.0 17:-95.0 18:-83.0 
-0.0 -0.0 -0.0 -0.00692649416549321 -0.0 0.0 0.0 0.0 0.0 0.0 0.0 0.0 0.0 0.0 1:-76.0 2:-63.0 3:-62.0 4:-50.0 5:-53.0 6:-58.0 7:-87.0 8:-95.0 9:-58.0 10:-60.0 11:-95.0 12:-95.0 13:-95.0 14:-95.0 15:-95.0 16:-95.0 17:-95.0 18:-83.0 
-0.0 -0.0 -0.0 -0.003096512768895218 -1.0 0.0 0.0 0.0 0.0 0.0 0.0 0.0 0.0 0.0 1:-76.0 2:-65.0 3:-58.0 4:-55.0 5:-53.0 6:-70.0 7:-86.0 8:-95.0 9:-61.0 10:-63.0 11:-73.0 12:-95.0 13:-86.0 14:-95.0 15:-95.0 16:-95.0 17:-95.0 18:-78.0 
-0.0 -0.0 -0.0 -0.0 -1.0 0.0 0.0 0.0 0.0 0.0 0.0 0.0 0.0 0.0 1:-76.0 2:-69.0 3:-57.0 4:-51.0 5:-43.0 6:-70.0 7:-86.0 8:-95.0 9:-61.0 10:-63.0 11:-73.0 12:-95.0 13:-86.0 14:-95.0 15:-95.0 16:-95.0 17:-95.0 18:-78.0 
-0.0 -0.0 -0.0 -0.0 -0.5304427933327694 0.0 0.0 0.0 0.0 0.0 0.0 0.0 0.0 0.0 1:-76.0 2:-69.0 3:-57.0 4:-52.0 5:-42.0 6:-70.0 7:-86.0 8:-95.0 9:-61.0 10:-66.0 11:-73.0 12:-95.0 13:-86.0 14:-95.0 15:-95.0 16:-95.0 17:-95.0 18:-78.0 
-0.0 -0.0 -0.0 -0.0 -0.0 0.0 0.0 0.0 0.0 0.0 0.0 0.0 0.0 4.092265105538903E-4 1:-95.0 2:-68.0 3:-61.0 4:-56.0 5:-54.0 6:-59.0 7:-95.0 8:-95.0 9:-55.0 10:-60.0 11:-95.0 12:-95.0 13:-95.0 14:-95.0 15:-95.0 16:-95.0 17:-95.0 18:-78.0 
-0.0 -0.0 -0.0 -0.0 -0.0 0.0 0.0 0.0 0.0 0.0 0.0 0.0 0.0 2.6807674459950116E-4 1:-95.0 2:-68.0 3:-61.0 4:-51.0 5:-48.0 6:-60.0 7:-95.0 8:-95.0 9:-55.0 10:-56.0 11:-78.0 12:-77.0 13:-95.0 14:-95.0 15:-95.0 16:-95.0 17:-95.0 18:-78.0 
-0.0 -0.0 -0.0 -0.0 -0.0 0.0 0.0 0.0 0.0 9.466974094975894E-5 0.0 0.0 0.0 0.0018254271613948093 1:-95.0 2:-68.0 3:-64.0 4:-53.0 5:-59.0 6:-56.0 7:-95.0 8:-95.0 9:-55.0 10:-60.0 11:-78.0 12:-77.0 13:-95.0 14:-95.0 15:-95.0 16:-95.0 17:-95.0 18:-78.0 
-0.0 -0.0 -0.0 -0.0 -0.0 0.0 0.0 0.0 0.0 4.995099434802764E-4 0.0 0.0 0.0 0.0 1:-95.0 2:-66.0 3:-64.0 4:-59.0 5:-46.0 6:-60.0 7:-95.0 8:-95.0 9:-55.0 10:-56.0 11:-78.0 12:-77.0 13:-87.0 14:-95.0 15:-95.0 16:-95.0 17:-95.0 18:-78.0 
-0.0 -0.0 -0.0 -0.0 -0.0 2.533991810448851E-4 0.0 0.0 0.0 0.0 0.0 0.0 0.0 0.0 1:-95.0 2:-71.0 3:-70.0 4:-51.0 5:-63.0 6:-63.0 7:-83.0 8:-95.0 9:-71.0 10:-62.0 11:-82.0 12:-95.0 13:-95.0 14:-95.0 15:-95.0 16:-95.0 17:-95.0 18:-85.0 
-0.0 -0.0 -0.0 -0.0 -0.0 0.0 0.0 0.0 0.0 0.0 0.0 0.0 0.0 0.0029902572781581455 1:-95.0 2:-67.0 3:-60.0 4:-57.0 5:-55.0 6:-67.0 7:-83.0 8:-95.0 9:-61.0 10:-54.0 11:-82.0 12:-95.0 13:-95.0 14:-95.0 15:-95.0 16:-95.0 17:-95.0 18:-85.0 
-0.0 -0.0 -0.0 -3.0797472144424126E-5 -1.0 0.0 0.0 0.0 0.0 0.0 0.0 0.0 0.0 0.0 1:-95.0 2:-60.0 3:-62.0 4:-53.0 5:-60.0 6:-70.0 7:-83.0 8:-95.0 9:-61.0 10:-67.0 11:-82.0 12:-95.0 13:-95.0 14:-95.0 15:-95.0 16:-95.0 17:-95.0 18:-88.0 
-0.0 -0.0 -0.0 -0.0 -0.0 0.0 0.0 0.0 0.0 0.0 0.0 0.0 0.0 8.923773049969839E-4 1:-95.0 2:-61.0 3:-59.0 4:-58.0 5:-49.0 6:-70.0 7:-95.0 8:-89.0 9:-53.0 10:-57.0 11:-75.0 12:-95.0 13:-85.0 14:-95.0 15:-95.0 16:-87.0 17:-95.0 18:-88.0 
-0.0 -0.0 -0.0 -0.0 -0.0 0.0 0.0 0.0 0.0 0.0 0.0 0.0 0.0 0.0011910090207727427 1:-95.0 2:-61.0 3:-59.0 4:-58.0 5:-53.0 6:-70.0 7:-95.0 8:-89.0 9:-52.0 10:-60.0 11:-75.0 12:-95.0 13:-85.0 14:-95.0 15:-95.0 16:-87.0 17:-95.0 18:-88.0 
-0.0 -0.0 -0.0 -0.0 -0.0 0.0 0.0 0.0 0.0 0.0 0.0 0.0 0.0 3.14212960186467E-4 1:-95.0 2:-72.0 3:-63.0 4:-54.0 5:-67.0 6:-65.0 7:-95.0 8:-89.0 9:-60.0 10:-54.0 11:-75.0 12:-95.0 13:-85.0 14:-95.0 15:-95.0 16:-87.0 17:-95.0 18:-95.0 
-0.0 -0.0 -0.0 -0.0 -0.0 0.006183396870327818 0.0 0.0 0.0 0.0 0.0 0.0 0.0 0.0 1:-85.0 2:-78.0 3:-63.0 4:-58.0 5:-42.0 6:-58.0 7:-95.0 8:-95.0 9:-55.0 10:-53.0 11:-70.0 12:-95.0 13:-95.0 14:-95.0 15:-95.0 16:-95.0 17:-95.0 18:-76.0 
-0.0 -0.0 -0.0 -0.0 -1.0 0.0 0.0 0.0 0.0 0.0 0.0 0.0 0.0 0.0 1:-85.0 2:-65.0 3:-59.0 4:-54.0 5:-45.0 6:-77.0 7:-95.0 8:-95.0 9:-60.0 10:-54.0 11:-70.0 12:-95.0 13:-95.0 14:-95.0 15:-95.0 16:-95.0 17:-95.0 18:-76.0 
-0.0 -0.0 -0.0 -0.0 -0.0 0.0 0.0 0.0 0.0 0.0 3.67115936363328E-5 0.0 0.0 0.0 1:-95.0 2:-67.0 3:-62.0 4:-56.0 5:-59.0 6:-73.0 7:-95.0 8:-95.0 9:-54.0 10:-61.0 11:-79.0 12:-85.0 13:-86.0 14:-95.0 15:-95.0 16:-95.0 17:-95.0 18:-81.0 
-0.0 -0.0 -0.0 -0.0 -0.5961148388153921 0.0 0.0 0.0 0.0 0.0 0.0 0.0 0.0 0.0 1:-80.0 2:-70.0 3:-59.0 4:-54.0 5:-57.0 6:-76.0 7:-95.0 8:-95.0 9:-63.0 10:-72.0 11:-70.0 12:-79.0 13:-86.0 14:-95.0 15:-95.0 16:-95.0 17:-95.0 18:-95.0 
-0.0 -0.0 -0.0 -0.0 -0.0 0.0 0.0 0.0 0.0 3.289720651972371E-5 0.0 0.0 0.0 0.0 1:-83.0 2:-77.0 3:-63.0 4:-55.0 5:-53.0 6:-68.0 7:-95.0 8:-95.0 9:-64.0 10:-69.0 11:-70.0 12:-79.0 13:-91.0 14:-95.0 15:-95.0 16:-95.0 17:-95.0 18:-81.0 
-0.0 -0.0 -0.0 -0.0 -0.0 0.0 4.8330109807574186E-5 0.0 0.0 0.0 0.0 0.0 0.0 0.0 1:-83.0 2:-79.0 3:-73.0 4:-60.0 5:-54.0 6:-68.0 7:-82.0 8:-95.0 9:-62.0 10:-62.0 11:-76.0 12:-95.0 13:-91.0 14:-95.0 15:-95.0 16:-95.0 17:-95.0 18:-77.0 
-0.0 -0.0 -0.0 -0.0 -0.0 0.0 0.0 3.059288967695801E-4 0.0 5.6370093252825896E-5 2.8440929403626306E-4 1.1939303751340102E-4 0.0 0.0 1:-83.0 2:-79.0 3:-69.0 4:-60.0 5:-53.0 6:-69.0 7:-82.0 8:-95.0 9:-69.0 10:-62.0 11:-76.0 12:-84.0 13:-91.0 14:-95.0 15:-95.0 16:-95.0 17:-90.0 18:-77.0 
-0.0 -0.0 -0.0 -0.0 -0.0 0.0 0.0 0.0 0.0 0.0 0.0 0.0 0.001013948441893546 0.0 1:-95.0 2:-63.0 3:-67.0 4:-49.0 5:-57.0 6:-61.0 7:-82.0 8:-95.0 9:-60.0 10:-61.0 11:-77.0 12:-84.0 13:-95.0 14:-95.0 15:-95.0 16:-95.0 17:-90.0 18:-77.0 
-0.0 -0.0 -0.0 -0.0 -0.0 0.0 0.0 0.0 9.108551298359006E-4 0.0 0.0 0.0 0.0 0.0 1:-79.0 2:-62.0 3:-61.0 4:-53.0 5:-54.0 6:-58.0 7:-89.0 8:-82.0 9:-59.0 10:-58.0 11:-65.0 12:-95.0 13:-95.0 14:-95.0 15:-95.0 16:-95.0 17:-95.0 18:-95.0 
-0.0 -0.0 -0.0 -0.0 -0.14251451805640336 0.0 0.0 0.0 0.0 0.0 0.0 0.0 0.0 0.0 1:-95.0 2:-67.0 3:-56.0 4:-56.0 5:-58.0 6:-68.0 7:-95.0 8:-95.0 9:-59.0 10:-58.0 11:-68.0 12:-95.0 13:-95.0 14:-95.0 15:-95.0 16:-95.0 17:-95.0 18:-95.0 
-0.0 -0.0 -0.0 -0.0 -1.0 0.0 0.0 0.0 0.0 0.0 0.0 0.0 0.0 0.0 1:-95.0 2:-63.0 3:-56.0 4:-52.0 5:-48.0 6:-68.0 7:-95.0 8:-95.0 9:-61.0 10:-55.0 11:-68.0 12:-95.0 13:-95.0 14:-95.0 15:-95.0 16:-95.0 17:-95.0 18:-95.0 
-3.454088310322503E-5 -0.0 -0.0 -0.0 -0.0 0.0 0.0 0.0 0.0 0.0 0.0 0.0 0.0 0.0 1:-80.0 2:-78.0 3:-64.0 4:-59.0 5:-55.0 6:-71.0 7:-95.0 8:-95.0 9:-64.0 10:-63.0 11:-89.0 12:-95.0 13:-95.0 14:-95.0 15:-95.0 16:-95.0 17:-95.0 18:-78.0 
-1.288378915084863E-4 -1.7441564491268213E-4 -0.0 -0.0 -0.001037804956552038 -0.008760418975455037 0.0 0.0 0.0 0.0 0.0 0.0 0.0 0.0 1:-95.0 2:-95.0 3:-69.0 4:-58.0 5:-59.0 6:-53.0 7:-95.0 8:-95.0 9:-71.0 10:-60.0 11:-95.0 12:-95.0 13:-95.0 14:-95.0 15:-95.0 16:-95.0 17:-95.0 18:-95.0 
-0.0 -0.0 -4.692426281947021E-4 -2.1640150190190928E-5 -0.0 -9.595244147650788E-4 0.0 0.0 0.0 0.0 0.0 0.0 0.0 0.0 1:-81.0 2:-77.0 3:-66.0 4:-65.0 5:-66.0 6:-54.0 7:-70.0 8:-95.0 9:-61.0 10:-63.0 11:-65.0 12:-95.0 13:-95.0 14:-95.0 15:-95.0 16:-95.0 17:-95.0 18:-95.0 
-0.0 -0.0 -0.0 -0.0 -0.0 -0.0011768144392787134 0.0 0.0 0.0 0.0 0.0 0.0 0.0 0.0 1:-81.0 2:-77.0 3:-66.0 4:-70.0 5:-64.0 6:-50.0 7:-70.0 8:-95.0 9:-66.0 10:-58.0 11:-65.0 12:-81.0 13:-95.0 14:-95.0 15:-95.0 16:-95.0 17:-95.0 18:-95.0 
-0.0 -0.0 -0.0 -2.541009080967002E-4 -0.0 -0.0 0.0 0.0 0.0 0.0 0.0 0.0 0.0 0.0 1:-81.0 2:-77.0 3:-66.0 4:-67.0 5:-67.0 6:-47.0 7:-77.0 8:-95.0 9:-66.0 10:-55.0 11:-65.0 12:-81.0 13:-95.0 14:-95.0 15:-95.0 16:-95.0 17:-95.0 18:-95.0 
-0.0 -4.941673762658276E-4 -3.710204406735721E-4 -7.202383672462258E-4 -0.0 -0.0 0.0 0.0 0.0 0.0 0.0 0.0 0.0 0.0 1:-81.0 2:-77.0 3:-66.0 4:-68.0 5:-66.0 6:-55.0 7:-64.0 8:-95.0 9:-65.0 10:-57.0 11:-71.0 12:-81.0 13:-95.0 14:-95.0 15:-95.0 16:-95.0 17:-95.0 18:-69.0 
-2.416504498377598E-4 -0.0 -0.0 -0.0 -0.0 -0.0 0.0 0.0 0.0 0.0 0.0 0.0 0.0 0.0 1:-81.0 2:-84.0 3:-76.0 4:-66.0 5:-65.0 6:-56.0 7:-70.0 8:-95.0 9:-61.0 10:-61.0 11:-74.0 12:-81.0 13:-95.0 14:-95.0 15:-95.0 16:-95.0 17:-95.0 18:-77.0 
-9.328201573146963E-5 -1.672916092683453E-4 -2.5984316771029406E-4 -3.232077236618004E-4 -0.001714965797055989 -0.0030431315663418603 0.0 0.0 0.0 0.0 0.0 0.0 0.0 0.0 1:-95.0 2:-73.0 3:-68.0 4:-63.0 5:-62.0 6:-54.0 7:-95.0 8:-85.0 9:-65.0 10:-62.0 11:-68.0 12:-95.0 13:-95.0 14:-87.0 15:-84.0 16:-87.0 17:-95.0 18:-78.0 
-0.0 -0.0 -0.0 -0.0 -0.0 -0.0 5.07040906044468E-4 0.0 0.0 0.0 0.0 0.0 0.0 0.0 1:-95.0 2:-95.0 3:-77.0 4:-75.0 5:-67.0 6:-48.0 7:-63.0 8:-80.0 9:-62.0 10:-62.0 11:-67.0 12:-82.0 13:-95.0 14:-95.0 15:-95.0 16:-95.0 17:-95.0 18:-95.0 
-0.0 -0.0 -0.0 -0.0 -0.0 -0.0015993133503095763 0.0 0.0 0.0 0.0 0.0 0.0 0.0 0.0 1:-95.0 2:-82.0 3:-71.0 4:-73.0 5:-62.0 6:-59.0 7:-71.0 8:-95.0 9:-56.0 10:-69.0 11:-67.0 12:-88.0 13:-95.0 14:-95.0 15:-95.0 16:-95.0 17:-95.0 18:-95.0 
-0.0 -0.0 -0.0 -0.0 -0.0 -0.0 0.0 3.2686112636420394E-4 0.0 0.0 1.4758183311103408E-4 9.407247702204806E-5 0.0 0.0 1:-95.0 2:-95.0 3:-95.0 4:-70.0 5:-64.0 6:-59.0 7:-66.0 8:-83.0 9:-62.0 10:-58.0 11:-65.0 12:-76.0 13:-95.0 14:-95.0 15:-95.0 16:-95.0 17:-87.0 18:-66.0 
-0.0 -0.0 -0.0 -0.0 -0.0 -0.0 0.0 0.0 0.0 0.0 0.0 0.0 8.87198737225012E-4 0.0 1:-95.0 2:-69.0 3:-81.0 4:-64.0 5:-68.0 6:-52.0 7:-67.0 8:-95.0 9:-60.0 10:-54.0 11:-75.0 12:-79.0 13:-90.0 14:-95.0 15:-95.0 16:-95.0 17:-95.0 18:-69.0 
-0.0 -0.0 -0.0 -0.0 -0.0 -0.0 0.0 0.0 4.905306285958356E-4 0.0 0.0 0.0 0.0 0.0 1:-95.0 2:-73.0 3:-65.0 4:-60.0 5:-63.0 6:-48.0 7:-68.0 8:-84.0 9:-60.0 10:-58.0 11:-55.0 12:-75.0 13:-85.0 14:-95.0 15:-95.0 16:-86.0 17:-90.0 18:-69.0 
-0.0 -0.0 -0.0 -0.0 -0.0 -0.0 1.5436190647525873E-4 0.0 0.0 0.0 0.0 0.0 0.0 0.0 1:-95.0 2:-95.0 3:-80.0 4:-66.0 5:-81.0 6:-47.0 7:-76.0 8:-81.0 9:-62.0 10:-64.0 11:-76.0 12:-79.0 13:-95.0 14:-95.0 15:-95.0 16:-91.0 17:-95.0 18:-82.0 
-0.0 -0.0 -0.0 -0.0 -0.0 -0.0 0.0 0.0 0.0 0.0 0.0 3.080343989200223E-5 0.0 0.0 1:-95.0 2:-95.0 3:-80.0 4:-73.0 5:-75.0 6:-51.0 7:-76.0 8:-81.0 9:-64.0 10:-64.0 11:-76.0 12:-79.0 13:-95.0 14:-95.0 15:-95.0 16:-91.0 17:-95.0 18:-82.0 
-6.899088884167251E-5 -0.0 -0.0 -0.0 -0.0 -0.0 0.0 0.0 0.0 0.0 0.0 1.1842774692279454E-4 0.0 0.0 1:-95.0 2:-80.0 3:-80.0 4:-77.0 5:-75.0 6:-61.0 7:-64.0 8:-81.0 9:-65.0 10:-60.0 11:-76.0 12:-79.0 13:-95.0 14:-95.0 15:-95.0 16:-91.0 17:-95.0 18:-82.0 
-0.0 -0.0 -0.0 -0.0 -0.0 -0.0 0.0043433596388245494 0.0 0.0 0.0 0.0 0.0 0.0 0.0 1:-95.0 2:-80.0 3:-82.0 4:-65.0 5:-78.0 6:-54.0 7:-63.0 8:-81.0 9:-62.0 10:-60.0 11:-66.0 12:-79.0 13:-83.0 14:-95.0 15:-95.0 16:-91.0 17:-95.0 18:-82.0 
-0.0 -0.0 -0.0 -0.0 -0.0 -0.0 0.0 0.0 4.9546039586922956E-5 0.0 0.0 0.0 0.0 0.004430291694936536 1:-95.0 2:-85.0 3:-58.0 4:-56.0 5:-60.0 6:-58.0 7:-72.0 8:-83.0 9:-65.0 10:-54.0 11:-67.0 12:-95.0 13:-89.0 14:-95.0 15:-90.0 16:-95.0 17:-95.0 18:-66.0 
-0.0 -0.0 -0.0 -0.0 -0.0 -0.0 0.0 0.0 0.0 0.0011544274541805772 0.0 0.0 0.0 0.0 1:-95.0 2:-85.0 3:-67.0 4:-61.0 5:-64.0 6:-52.0 7:-69.0 8:-77.0 9:-60.0 10:-54.0 11:-62.0 12:-67.0 13:-95.0 14:-95.0 15:-95.0 16:-95.0 17:-95.0 18:-67.0 
-0.0 -0.0 -0.0 -0.0 -0.0 -0.0 0.0 0.0 0.0 0.0 0.0 0.0 0.0 8.849037042607042E-5 1:-95.0 2:-85.0 3:-62.0 4:-60.0 5:-64.0 6:-48.0 7:-66.0 8:-77.0 9:-60.0 10:-53.0 11:-62.0 12:-67.0 13:-95.0 14:-95.0 15:-95.0 16:-95.0 17:-95.0 18:-67.0 
-0.0 -0.0 -0.0 -0.0 -0.0 -0.0 0.0 0.0 4.49583648266363E-4 0.0 0.0 0.0 5.15253471985109E-4 0.0025342640269644706 1:-95.0 2:-84.0 3:-65.0 4:-62.0 5:-59.0 6:-60.0 7:-68.0 8:-77.0 9:-61.0 10:-56.0 11:-65.0 12:-67.0 13:-95.0 14:-95.0 15:-95.0 16:-95.0 17:-95.0 18:-67.0 
-0.0 -0.0 -0.0 -0.0 -0.0 -0.0035770815690296873 0.0 0.0 0.0 0.0 0.0 0.0 0.0 0.0 1:-95.0 2:-80.0 3:-67.0 4:-64.0 5:-65.0 6:-58.0 7:-70.0 8:-95.0 9:-62.0 10:-62.0 11:-65.0 12:-79.0 13:-95.0 14:-95.0 15:-95.0 16:-95.0 17:-95.0 18:-77.0 
-0.0 -0.0 -0.0 -0.0 -0.0 -0.0 0.0 2.8056776853521405E-4 0.0 8.764837372305408E-5 4.367313019101294E-4 0.0 0.0 0.0 1:-95.0 2:-77.0 3:-76.0 4:-60.0 5:-72.0 6:-56.0 7:-71.0 8:-79.0 9:-60.0 10:-53.0 11:-68.0 12:-78.0 13:-80.0 14:-95.0 15:-95.0 16:-95.0 17:-95.0 18:-66.0 
-0.0 -0.0 -0.0 -6.213129629998612E-4 -0.0 -0.0 0.0 0.0 0.0015361753799874127 0.0 0.0 0.0 2.608228220068582E-5 0.0 1:-95.0 2:-76.0 3:-67.0 4:-62.0 5:-64.0 6:-58.0 7:-71.0 8:-95.0 9:-57.0 10:-53.0 11:-60.0 12:-78.0 13:-80.0 14:-95.0 15:-95.0 16:-95.0 17:-95.0 18:-76.0 
-0.0 -0.0 -0.0 -1.1477869144683762E-4 -4.544681663100418E-4 -0.0 0.0 0.0 0.0 0.0 0.0 0.0 2.702176696404358E-4 0.0 1:-95.0 2:-72.0 3:-69.0 4:-56.0 5:-61.0 6:-58.0 7:-72.0 8:-80.0 9:-61.0 10:-54.0 11:-71.0 12:-95.0 13:-95.0 14:-95.0 15:-95.0 16:-95.0 17:-95.0 18:-70.0 
-0.0 -0.0 -0.0 -0.0 -5.551789769888455E-4 -0.0 0.0 0.0 0.0 0.0 0.0 0.0 0.0 0.0 1:-95.0 2:-81.0 3:-65.0 4:-55.0 5:-58.0 6:-57.0 7:-71.0 8:-95.0 9:-65.0 10:-64.0 11:-69.0 12:-95.0 13:-95.0 14:-95.0 15:-95.0 16:-95.0 17:-95.0 18:-70.0 
-0.0 -0.0 -0.0 -0.0 -0.0 -0.0 0.0 0.0 0.0033117053575045 0.0 0.0 0.0 0.0022364646157019053 0.0 1:-95.0 2:-74.0 3:-66.0 4:-57.0 5:-62.0 6:-59.0 7:-65.0 8:-95.0 9:-60.0 10:-52.0 11:-61.0 12:-82.0 13:-95.0 14:-95.0 15:-95.0 16:-95.0 17:-95.0 18:-71.0 
-0.0 -0.0 -0.0 -0.0 -0.0 -0.0 0.0 0.0 0.0 0.0 0.0 0.0 0.0 0.0042685292661563835 1:-95.0 2:-68.0 3:-66.0 4:-57.0 5:-67.0 6:-43.0 7:-69.0 8:-95.0 9:-56.0 10:-51.0 11:-61.0 12:-82.0 13:-95.0 14:-95.0 15:-95.0 16:-95.0 17:-95.0 18:-71.0 
-0.0 -0.0 -0.0 -4.0343450757305123E-4 -4.280288546404616E-4 -6.198565378042551E-4 0.0 0.0 0.0 0.0 0.0 0.0 4.078046535759421E-4 0.0 1:-89.0 2:-77.0 3:-64.0 4:-58.0 5:-59.0 6:-56.0 7:-69.0 8:-95.0 9:-60.0 10:-58.0 11:-61.0 12:-79.0 13:-95.0 14:-95.0 15:-95.0 16:-89.0 17:-95.0 18:-69.0 
-0.0 -0.0 -0.0 -0.0 -0.0 -0.0 0.0 0.0 0.0 0.0016842462492643864 0.0 0.0 0.0 0.0 1:-95.0 2:-80.0 3:-72.0 4:-59.0 5:-68.0 6:-58.0 7:-64.0 8:-95.0 9:-59.0 10:-57.0 11:-60.0 12:-77.0 13:-86.0 14:-83.0 15:-95.0 16:-95.0 17:-91.0 18:-69.0 
-0.0 -0.0 -0.0 -0.0 -0.0 -0.0 0.0 0.0 0.0 0.0 0.0 0.0 4.0007944457768045E-6 0.0 1:-95.0 2:-80.0 3:-72.0 4:-59.0 5:-68.0 6:-60.0 7:-71.0 8:-95.0 9:-59.0 10:-59.0 11:-67.0 12:-77.0 13:-86.0 14:-83.0 15:-95.0 16:-95.0 17:-91.0 18:-72.0 
-6.854696117151853E-6 -1.1171084191708133E-4 -2.2259462091109918E-4 -2.0912781464791237E-4 -2.019822137653971E-4 -4.036871039780245E-4 -0.0024627677003801786 0.0 0.0 0.0 0.0 0.0 2.020002720441083E-4 2.1069373312758267E-4 1:-95.0 2:-80.0 3:-75.0 4:-60.0 5:-95.0 6:-49.0 7:-58.0 8:-73.0 9:-61.0 10:-65.0 11:-58.0 12:-95.0 13:-95.0 14:-95.0 15:-95.0 16:-95.0 17:-95.0 18:-95.0 
-0.0 -9.225037299421221E-7 -0.0 -0.0 -0.0 -0.0 -0.0 0.0 0.0 0.0 0.0 0.0 0.0 0.0 1:-95.0 2:-80.0 3:-75.0 4:-64.0 5:-95.0 6:-68.0 7:-47.0 8:-62.0 9:-73.0 10:-67.0 11:-62.0 12:-73.0 13:-95.0 14:-95.0 15:-95.0 16:-95.0 17:-95.0 18:-74.0 
-0.0 -2.102931600318862E-5 -1.6985877609822236E-4 -3.9845538755632084E-4 -3.3457108458691476E-4 -0.0 -5.81459991837544E-5 0.0 0.0010746855134057722 0.0 0.0 0.0 2.283911622355848E-4 0.0 1:-95.0 2:-80.0 3:-75.0 4:-64.0 5:-85.0 6:-64.0 7:-55.0 8:-60.0 9:-67.0 10:-67.0 11:-60.0 12:-75.0 13:-79.0 14:-86.0 15:-95.0 16:-95.0 17:-95.0 18:-78.0 
-0.0 -1.469963171399647E-4 -0.0 -0.0 -0.0 -0.0 -1.2144351961822378E-4 0.0 0.0 0.0 0.0 0.0 1.0154537975419322E-4 4.2414040854238123E-4 1:-95.0 2:-90.0 3:-75.0 4:-69.0 5:-85.0 6:-64.0 7:-58.0 8:-61.0 9:-67.0 10:-71.0 11:-65.0 12:-66.0 13:-79.0 14:-86.0 15:-95.0 16:-95.0 17:-95.0 18:-72.0 
-0.0 -0.0 -0.0 -0.0 -0.0 -0.0 -0.0 0.0 0.0 0.0 0.0 0.0 0.0 4.529812708077173E-5 1:-95.0 2:-90.0 3:-75.0 4:-74.0 5:-85.0 6:-64.0 7:-41.0 8:-62.0 9:-66.0 10:-64.0 11:-62.0 12:-66.0 13:-79.0 14:-86.0 15:-95.0 16:-95.0 17:-95.0 18:-72.0 
-0.0 -0.0 -0.0 -0.0 -0.0 -0.0 -0.0 0.0 0.0 0.0 0.0 0.0 0.0 1.3384980771535894E-4 1:-95.0 2:-90.0 3:-75.0 4:-78.0 5:-85.0 6:-64.0 7:-41.0 8:-66.0 9:-66.0 10:-67.0 11:-70.0 12:-66.0 13:-79.0 14:-88.0 15:-95.0 16:-95.0 17:-95.0 18:-68.0 
-0.0 -0.0 -0.0 -0.0 -0.0 -0.0 -6.091234071754803E-4 0.0 0.0 0.0 0.0 0.0 0.0 0.0 1:-95.0 2:-90.0 3:-95.0 4:-81.0 5:-85.0 6:-64.0 7:-53.0 8:-69.0 9:-65.0 10:-63.0 11:-64.0 12:-66.0 13:-77.0 14:-88.0 15:-95.0 16:-95.0 17:-95.0 18:-70.0 
-0.0 -0.0 -0.0 -0.0 -0.0 -0.0 -4.021148812748828E-4 0.0 0.0 0.0 0.0 0.0 0.0 0.0 1:-95.0 2:-90.0 3:-95.0 4:-81.0 5:-85.0 6:-60.0 7:-60.0 8:-67.0 9:-65.0 10:-69.0 11:-64.0 12:-66.0 13:-77.0 14:-88.0 15:-95.0 16:-95.0 17:-95.0 18:-70.0 
-0.0 -0.0 -0.0 -0.0 -0.0 -0.0 -0.0 0.0 0.0 0.005716123356024955 0.0 0.0 0.0 0.0 1:-95.0 2:-90.0 3:-95.0 4:-81.0 5:-95.0 6:-60.0 7:-54.0 8:-67.0 9:-65.0 10:-63.0 11:-56.0 12:-61.0 13:-77.0 14:-75.0 15:-95.0 16:-95.0 17:-95.0 18:-68.0 
-1.7477644978610717E-5 -0.0 -0.0 -0.0 -0.0 -0.0 -0.0 0.0 0.0 0.0 0.0 0.0 0.0 0.0 1:-95.0 2:-95.0 3:-95.0 4:-80.0 5:-95.0 6:-63.0 7:-61.0 8:-78.0 9:-75.0 10:-72.0 11:-65.0 12:-70.0 13:-76.0 14:-95.0 15:-68.0 16:-89.0 17:-95.0 18:-70.0 
-0.0 -0.0 -0.0 -0.0 -0.0 -0.0 -0.0 1.1421176339170903E-4 0.0 0.0 0.0 0.0 0.0 0.0 1:-95.0 2:-95.0 3:-95.0 4:-84.0 5:-95.0 6:-73.0 7:-48.0 8:-69.0 9:-63.0 10:-67.0 11:-67.0 12:-66.0 13:-76.0 14:-89.0 15:-95.0 16:-83.0 17:-95.0 18:-66.0 
-0.0 -0.0 -0.0 -0.0 -0.0 -0.0 -0.0 0.0 4.030390160268823E-5 0.0 0.0 0.0 0.0 1.6383977652931694E-4 1:-95.0 2:-95.0 3:-84.0 4:-74.0 5:-95.0 6:-60.0 7:-54.0 8:-63.0 9:-65.0 10:-65.0 11:-66.0 12:-68.0 13:-82.0 14:-95.0 15:-79.0 16:-95.0 17:-77.0 18:-61.0 
-0.0 -0.0 -0.0 -0.0 -0.0 -0.0 -0.0 4.1572214165376065E-4 0.0 0.0 5.997091582558084E-4 0.0 0.0 0.0 1:-95.0 2:-95.0 3:-84.0 4:-74.0 5:-95.0 6:-65.0 7:-53.0 8:-62.0 9:-79.0 10:-65.0 11:-63.0 12:-68.0 13:-69.0 14:-76.0 15:-79.0 16:-95.0 17:-77.0 18:-61.0 
-0.0 -0.0 -0.0 -0.0 -0.0 -0.0 -0.0 0.0 0.0 3.576172800805521E-5 0.0 1.0596368873139704E-5 0.0 0.0 1:-95.0 2:-95.0 3:-84.0 4:-78.0 5:-95.0 6:-66.0 7:-51.0 8:-62.0 9:-72.0 10:-65.0 11:-65.0 12:-68.0 13:-69.0 14:-76.0 15:-79.0 16:-95.0 17:-77.0 18:-61.0 
-1.3265721888399573E-4 -0.0 -0.0 -0.0 -0.0 -0.0 -0.0 0.0 0.0 0.0 0.0 0.0 0.0 0.0 1:-95.0 2:-95.0 3:-84.0 4:-79.0 5:-95.0 6:-59.0 7:-66.0 8:-61.0 9:-70.0 10:-70.0 11:-67.0 12:-95.0 13:-77.0 14:-88.0 15:-95.0 16:-95.0 17:-77.0 18:-77.0 
-0.0 -0.0 -0.0 -0.0 -0.0 -0.0 -0.0 0.0 0.0 0.0014380709223989463 0.0 0.0 0.0 0.0 1:-95.0 2:-95.0 3:-95.0 4:-82.0 5:-95.0 6:-66.0 7:-37.0 8:-64.0 9:-65.0 10:-60.0 11:-60.0 12:-62.0 13:-62.0 14:-95.0 15:-95.0 16:-88.0 17:-86.0 18:-69.0 
-0.0 -0.0 -0.0 -0.0 -0.0 -0.0 -0.0 0.0 0.0 0.0 0.0 6.978667998164979E-5 0.0 0.0 1:-95.0 2:-95.0 3:-95.0 4:-79.0 5:-80.0 6:-61.0 7:-54.0 8:-71.0 9:-95.0 10:-95.0 11:-68.0 12:-73.0 13:-74.0 14:-95.0 15:-76.0 16:-88.0 17:-76.0 18:-69.0 
-6.886378838712848E-5 -0.0 -0.0 -0.0 -0.0 -0.0 -0.0 0.0 0.0 0.0 0.0 0.0 0.0 0.0 1:-95.0 2:-95.0 3:-95.0 4:-80.0 5:-85.0 6:-64.0 7:-67.0 8:-65.0 9:-75.0 10:-73.0 11:-61.0 12:-71.0 13:-95.0 14:-84.0 15:-95.0 16:-95.0 17:-95.0 18:-76.0 
-0.0 -0.0 -0.0 -0.0 -0.0 -0.0 -0.0 0.0 0.0 0.0 0.0 0.0 1.2214083578349269E-5 0.0 1:-95.0 2:-95.0 3:-95.0 4:-80.0 5:-85.0 6:-62.0 7:-56.0 8:-70.0 9:-75.0 10:-63.0 11:-66.0 12:-71.0 13:-95.0 14:-84.0 15:-95.0 16:-95.0 17:-95.0 18:-71.0 
-0.0 -0.0 -0.0 -0.0 -0.0 -0.0 -0.0 8.132959522073416E-4 0.0 0.0 6.679573140692744E-4 0.0 0.0 0.0 1:-95.0 2:-95.0 3:-95.0 4:-76.0 5:-95.0 6:-71.0 7:-59.0 8:-63.0 9:-76.0 10:-63.0 11:-68.0 12:-64.0 13:-69.0 14:-81.0 15:-79.0 16:-95.0 17:-95.0 18:-67.0 
-0.0 -0.0 -0.0 -0.0 -0.0 -0.0 -0.0 2.676225596801185E-4 0.0 0.0 0.0 1.1985531217887719E-4 0.0 0.0 1:-95.0 2:-95.0 3:-95.0 4:-95.0 5:-95.0 6:-66.0 7:-58.0 8:-64.0 9:-76.0 10:-70.0 11:-67.0 12:-66.0 13:-69.0 14:-81.0 15:-79.0 16:-95.0 17:-95.0 18:-67.0 
-0.0 -0.0 -0.0 -0.0 -0.0 -0.0 -0.0 9.555348373028098E-4 0.0 0.0 0.0 0.0 0.0 0.0 1:-95.0 2:-95.0 3:-95.0 4:-95.0 5:-95.0 6:-72.0 7:-51.0 8:-61.0 9:-71.0 10:-63.0 11:-62.0 12:-64.0 13:-95.0 14:-95.0 15:-95.0 16:-95.0 17:-82.0 18:-67.0 
-0.0 -0.0 -0.0 -0.0 -0.0 -0.0 -0.0 0.0 0.0 5.505523734409677E-4 0.0 0.0 0.0 0.0 1:-95.0 2:-95.0 3:-86.0 4:-74.0 5:-95.0 6:-61.0 7:-58.0 8:-63.0 9:-68.0 10:-59.0 11:-59.0 12:-64.0 13:-68.0 14:-95.0 15:-66.0 16:-95.0 17:-85.0 18:-67.0 
-0.0 -0.0 -0.0 -0.0 -0.0 -0.0 -0.0 0.0 1.7325109699282733E-5 0.0 0.0 0.0 0.0 0.0 1:-95.0 2:-95.0 3:-86.0 4:-71.0 5:-95.0 6:-66.0 7:-59.0 8:-63.0 9:-70.0 10:-59.0 11:-64.0 12:-64.0 13:-68.0 14:-95.0 15:-66.0 16:-95.0 17:-85.0 18:-67.0 
-0.0 -0.0 -0.0 -0.0 -0.0 -0.0 -0.0 0.001914559491724817 0.0 0.004915224709312462 0.0016274305300742517 0.0 0.0 0.0 1:-95.0 2:-95.0 3:-95.0 4:-68.0 5:-95.0 6:-68.0 7:-56.0 8:-54.0 9:-73.0 10:-60.0 11:-63.0 12:-56.0 13:-66.0 14:-85.0 15:-75.0 16:-95.0 17:-95.0 18:-62.0 
-0.0 -0.0 -0.0 -0.0 -0.0 -0.0 -0.0 0.0 0.0 0.0 1.2315538269622604E-4 0.0 0.0 0.0 1:-95.0 2:-95.0 3:-95.0 4:-68.0 5:-95.0 6:-68.0 7:-54.0 8:-58.0 9:-73.0 10:-60.0 11:-67.0 12:-60.0 13:-66.0 14:-72.0 15:-75.0 16:-95.0 17:-95.0 18:-71.0 
-0.0 -0.0 -0.0 -0.0 -0.0 -0.0 -0.0 0.0 0.0 0.0 0.0 3.4272041753496794E-4 0.0 0.0 1:-95.0 2:-90.0 3:-95.0 4:-78.0 5:-87.0 6:-66.0 7:-66.0 8:-64.0 9:-68.0 10:-68.0 11:-63.0 12:-70.0 13:-76.0 14:-78.0 15:-70.0 16:-95.0 17:-81.0 18:-72.0 
-0.0 -0.0 -0.0 -0.0 -0.0 -0.0 -0.0 0.0 0.0 0.0 0.0 1.0209924380010514E-4 0.0 0.0 1:-95.0 2:-95.0 3:-95.0 4:-74.0 5:-95.0 6:-65.0 7:-49.0 8:-65.0 9:-95.0 10:-69.0 11:-64.0 12:-64.0 13:-74.0 14:-95.0 15:-77.0 16:-78.0 17:-79.0 18:-71.0 
-0.0 -0.0 -0.0 -0.0 -0.0 -0.0 -7.455490114360257E-4 0.0 0.0 0.0 0.0 0.0 0.0 0.0 1:-95.0 2:-95.0 3:-95.0 4:-78.0 5:-83.0 6:-60.0 7:-56.0 8:-73.0 9:-77.0 10:-65.0 11:-65.0 12:-69.0 13:-74.0 14:-95.0 15:-95.0 16:-78.0 17:-79.0 18:-71.0 
-1.503182829382749E-4 -1.0804061254917866E-4 -2.8057308005746405E-5 -0.0 -0.0 -4.164729021090508E-4 -6.056179322757304E-4 0.0 0.0 0.0 0.0 0.0 0.0 0.0 1:-95.0 2:-95.0 3:-95.0 4:-78.0 5:-83.0 6:-61.0 7:-59.0 8:-76.0 9:-77.0 10:-70.0 11:-78.0 12:-75.0 13:-75.0 14:-95.0 15:-86.0 16:-95.0 17:-95.0 18:-95.0 
-0.0 -0.0 -0.0 -0.0 -0.0 -0.0 -2.4349593145045087E-5 -5.339315725261516E-4 0.0 0.0 0.0 0.0 0.0 0.0 1:-95.0 2:-95.0 3:-95.0 4:-95.0 5:-95.0 6:-70.0 7:-53.0 8:-38.0 9:-95.0 10:-95.0 11:-95.0 12:-62.0 13:-95.0 14:-70.0 15:-95.0 16:-95.0 17:-95.0 18:-59.0 
-0.0 -0.0 -0.0 -0.0 -0.0 -0.0 -0.0 -4.275212204571219E-4 0.0 0.0 0.0 0.0 0.0 0.0 1:-95.0 2:-95.0 3:-95.0 4:-95.0 5:-95.0 6:-82.0 7:-53.0 8:-57.0 9:-95.0 10:-67.0 11:-62.0 12:-65.0 13:-66.0 14:-68.0 15:-79.0 16:-95.0 17:-85.0 18:-57.0 
-0.0 -0.0 -0.0 -0.0 -0.0 -0.0 -0.0 -4.385409199331664E-4 0.0 0.0 0.0 0.0 0.0 0.0 1:-95.0 2:-95.0 3:-95.0 4:-78.0 5:-95.0 6:-82.0 7:-63.0 8:-54.0 9:-95.0 10:-67.0 11:-59.0 12:-58.0 13:-68.0 14:-69.0 15:-70.0 16:-95.0 17:-74.0 18:-58.0 
-0.0 -0.0 -0.0 -0.0 -0.0 -0.0 -0.0 -0.0 0.0 0.0 1.0 0.0 0.0 0.0 1:-95.0 2:-95.0 3:-84.0 4:-78.0 5:-95.0 6:-95.0 7:-67.0 8:-57.0 9:-78.0 10:-61.0 11:-61.0 12:-62.0 13:-62.0 14:-62.0 15:-63.0 16:-73.0 17:-76.0 18:-54.0 
-3.7324583476835035E-5 -8.130759109494691E-5 -0.0 -1.9965770435438414E-5 -0.0 -0.0 -0.0 -0.0 1.1264057762435855E-5 0.0 1.0 0.0 3.0252701553181658E-5 0.0 1:-95.0 2:-95.0 3:-84.0 4:-80.0 5:-95.0 6:-95.0 7:-57.0 8:-61.0 9:-78.0 10:-61.0 11:-95.0 12:-70.0 13:-60.0 14:-66.0 15:-63.0 16:-68.0 17:-77.0 18:-60.0 
-0.0 -0.0 -0.0 -0.0 -0.0 -0.0 -0.0 -0.0 2.728015219429396E-5 0.0 0.0 0.0 0.0 0.0 1:-95.0 2:-95.0 3:-84.0 4:-80.0 5:-95.0 6:-95.0 7:-66.0 8:-55.0 9:-78.0 10:-61.0 11:-95.0 12:-70.0 13:-60.0 14:-70.0 15:-63.0 16:-68.0 17:-77.0 18:-58.0 
-0.0 -0.0 -0.0 -0.0 -0.0 -0.0 -0.0 -0.0 0.0 0.0 0.0 0.003545151663126001 0.0 0.0 1:-95.0 2:-95.0 3:-84.0 4:-80.0 5:-95.0 6:-95.0 7:-66.0 8:-53.0 9:-78.0 10:-71.0 11:-95.0 12:-70.0 13:-60.0 14:-67.0 15:-63.0 16:-68.0 17:-77.0 18:-59.0 
-0.0 -1.2385636080723328E-4 -0.0 -0.0 -0.0 -0.0 -0.0 -0.0 0.0 0.0 0.0 0.0 0.0 0.0 1:-95.0 2:-95.0 3:-84.0 4:-80.0 5:-95.0 6:-95.0 7:-66.0 8:-53.0 9:-78.0 10:-71.0 11:-95.0 12:-70.0 13:-68.0 14:-67.0 15:-63.0 16:-68.0 17:-77.0 18:-59.0 
-0.0 -0.0 -0.0 -0.0 -0.0 -0.0 -0.0 -0.0 0.0 0.0 0.0 0.0012775910214990129 0.0 0.0 1:-95.0 2:-95.0 3:-95.0 4:-80.0 5:-95.0 6:-95.0 7:-66.0 8:-56.0 9:-95.0 10:-71.0 11:-64.0 12:-70.0 13:-65.0 14:-67.0 15:-63.0 16:-68.0 17:-83.0 18:-61.0 
-2.5572221370924475E-5 -1.08538623376622E-5 -0.0 -0.0 -0.0 -0.0 -0.0 -0.0 0.0 0.0 0.0 0.0 0.0 0.0 1:-95.0 2:-95.0 3:-95.0 4:-73.0 5:-95.0 6:-87.0 7:-67.0 8:-62.0 9:-95.0 10:-71.0 11:-64.0 12:-70.0 13:-65.0 14:-67.0 15:-95.0 16:-68.0 17:-83.0 18:-58.0 
-0.0 -0.0 -0.0 -6.039010473106508E-5 -0.0 -1.7957359990212503E-5 -2.3634799223668713E-4 -0.002296900430497722 1.606828120005695E-4 0.015560994134491054 0.0 0.0 1.1591958489626274E-4 2.6845148901523516E-4 1:-95.0 2:-95.0 3:-95.0 4:-73.0 5:-95.0 6:-87.0 7:-63.0 8:-54.0 9:-66.0 10:-61.0 11:-58.0 12:-58.0 13:-66.0 14:-95.0 15:-95.0 16:-95.0 17:-95.0 18:-52.0 
-0.0 -0.0 -0.0 -1.0963422780123061E-5 -0.0 -0.0 -0.0 -0.0 0.0 0.0 0.0 0.0 0.0 9.450223672956993E-6 1:-95.0 2:-95.0 3:-79.0 4:-95.0 5:-95.0 6:-78.0 7:-95.0 8:-46.0 9:-60.0 10:-60.0 11:-51.0 12:-58.0 13:-62.0 14:-67.0 15:-95.0 16:-95.0 17:-95.0 18:-55.0 
-0.0 -0.0 -0.0 -0.0 -0.0 -0.0 -0.0 -0.0 0.0 2.5498598772095423E-4 1.0 0.0 0.0 1.9941973076035565E-5 1:-95.0 2:-95.0 3:-79.0 4:-95.0 5:-95.0 6:-78.0 7:-60.0 8:-50.0 9:-60.0 10:-60.0 11:-51.0 12:-58.0 13:-58.0 14:-67.0 15:-95.0 16:-95.0 17:-95.0 18:-54.0 
