svm_type c_svc
kernel_type polynomial
degree 3
gamma 0.05555555555555555
coef0 0.0
nr_class 15
total_sv 707
rho 33.11706306483069 8.574791452585204 4.7347180225780905 4.028929808452845 0.6179590237987341 1.2656832941931546 1.2103148616054442 0.891089999381633 2.6748617919990587 2.174665308757453 1.6593829794628527 1.4628168095155003 5.838130502960427 2.0987448609818484 -7.768484835038722 3.5471811023738176 4.0042731567389165 -0.35817757230134045 0.10647546990205556 0.02993315220988324 0.3089764301144059 2.4907693042897447 1.5403219474572993 0.7349513071104863 0.5485660289518112 6.7912972241423155 1.6221637737786456 5.148591766686638 3.2637537481725762 -2.945690373763104 -0.2884975278672076 0.30294861188821204 0.054125505389340925 2.898374375443133 2.0913435786540266 0.8607547345690283 0.20091062784308975 -0.782423632036014 1.4153492439965907 -24.754186630129322 -6.777973041454457 -1.8919214493017291 -1.1038224664101217 -0.777158747570358 2.351601241145793 0.4516973247533876 -0.2709446090890213 -0.3189074447304178 -16.359243717380618 2.1387071607868555 -21.990850181439694 -3.398111577600106 -1.3223118679719899 -0.9411744871201083 6.9365465887377225 1.4029616785256152 -0.10360085348382736 -0.13488517195877966 17.756857064862633 7.034594293846979 1.5199948890816477 0.4491032313017991 0.09687505970518039 8.322083851604557 3.046839335752891 1.0358895337834972 0.39754900524760045 18.08504836677824 9.954930457963481 -1.2582226572624482 -0.5882229168683082 6.869878816269278 5.184460429283005 1.0040873411362516 0.14087901478851234 3.993842498316658 9.992986492655524 -6.013552998591793 2.266231184122762 4.573854245109069 2.8211737961686736 0.6071655286868558 1.8159904040292143 1.656372980433353 1.6347964459911806 2.599695443990024 2.791457638100786 2.72693632021965 0.7718232289319125 0.7653467581235693 -1.5243255171343997 0.12759137195615325 -0.2923315777560135 -10.442482259103855 -0.6386250227302857 -0.6469307918674926 -0.5571016267032491 -0.5504082364992353 -2.9336489460865103 5.215931578733461 -0.24128600351667345 -0.42108022380851895 0.579282266636923 -0.2238704894147574 1.816518781610103
label 1 10 2 3 4 5 6 7 8 9 13 14 15 11 12
nr_sv 32 57 41 71 63 42 35 34 40 58 37 53 26 82 36
SV
0.0 0.0 0.0 0.0 2.7052713077155403E-11 0.0 0.0 0.0 0.0 0.0 0.0 0.0 0.0 0.0 1:-58.0 2:-76.0 3:-70.0 4:-71.0 5:-79.0 6:-95.0 7:-95.0 8:-95.0 9:-79.0 10:-79.0 11:-95.0 12:-95.0 13:-95.0 14:-95.0 15:-95.0 16:-95.0 17:-87.0 18:-87.0 
3.181336297631198E-8 0.0 0.0 0.0 0.0 0.0 0.0 0.0 0.0 0.0 0.0 0.0 0.0 0.0 1:-57.0 2:-70.0 3:-71.0 4:-72.0 5:-86.0 6:-95.0 7:-95.0 8:-95.0 9:-77.0 10:-74.0 11:-95.0 12:-95.0 13:-95.0 14:-77.0 15:-90.0 16:-82.0 17:-95.0 18:-82.0 
0.0 0.0 9.768786619903065E-12 1.3438154835298145E-11 0.0 0.0 0.0 0.0 0.0 0.0 0.0 0.0 0.0 0.0 1:-43.0 2:-65.0 3:-66.0 4:-73.0 5:-75.0 6:-95.0 7:-95.0 8:-95.0 9:-80.0 10:-74.0 11:-95.0 12:-95.0 13:-95.0 14:-95.0 15:-90.0 16:-95.0 17:-87.0 18:-82.0 
1.3189056132276141E-9 0.0 0.0 0.0 0.0 0.0 0.0 0.0 0.0 0.0 0.0 0.0 0.0 0.0 1:-50.0 2:-65.0 3:-75.0 4:-67.0 5:-82.0 6:-95.0 7:-95.0 8:-95.0 9:-76.0 10:-95.0 11:-95.0 12:-95.0 13:-95.0 14:-85.0 15:-95.0 16:-95.0 17:-87.0 18:-79.0 
7.577670875240839E-8 0.0 0.0 0.0 0.0 0.0 0.0 0.0 0.0 0.0 0.0 0.0 0.0 0.0 1:-50.0 2:-65.0 3:-75.0 4:-67.0 5:-82.0 6:-95.0 7:-95.0 8:-95.0 9:-76.0 10:-95.0 11:-95.0 12:-95.0 13:-95.0 14:-85.0 15:-95.0 16:-95.0 17:-87.0 18:-79.0 
5.477061253397883E-8 0.0 0.0 0.0 0.0 0.0 0.0 0.0 0.0 0.0 0.0 0.0 0.0 0.0 1:-61.0 2:-80.0 3:-77.0 4:-80.0 5:-88.0 6:-95.0 7:-95.0 8:-95.0 9:-79.0 10:-95.0 11:-95.0 12:-95.0 13:-91.0 14:-85.0 15:-95.0 16:-95.0 17:-87.0 18:-87.0 
2.8690092007858716E-8 0.0 0.0 0.0 0.0 0.0 0.0 0.0 0.0 0.0 0.0 0.0 0.0 0.0 1:-57.0 2:-70.0 3:-78.0 4:-70.0 5:-85.0 6:-95.0 7:-95.0 8:-95.0 9:-82.0 10:-83.0 11:-95.0 12:-95.0 13:-91.0 14:-91.0 15:-87.0 16:-95.0 17:-95.0 18:-87.0 
2.1374414638710722E-7 0.0 0.0 0.0 0.0 0.0 0.0 0.0 0.0 0.0 0.0 0.0 0.0 0.0 1:-58.0 2:-64.0 3:-78.0 4:-77.0 5:-85.0 6:-95.0 7:-95.0 8:-95.0 9:-82.0 10:-83.0 11:-95.0 12:-95.0 13:-91.0 14:-91.0 15:-87.0 16:-77.0 17:-95.0 18:-87.0 
2.6790727729466825E-7 0.0 0.0 0.0 0.0 0.0 0.0 0.0 0.0 0.0 0.0 0.0 0.0 0.0 1:-55.0 2:-66.0 3:-69.0 4:-73.0 5:-84.0 6:-95.0 7:-95.0 8:-95.0 9:-77.0 10:-76.0 11:-95.0 12:-95.0 13:-88.0 14:-87.0 15:-83.0 16:-79.0 17:-95.0 18:-81.0 
2.606926568816214E-7 0.0 0.0 0.0 0.0 0.0 0.0 0.0 0.0 0.0 0.0 0.0 0.0 0.0 1:-58.0 2:-66.0 3:-77.0 4:-72.0 5:-83.0 6:-95.0 7:-95.0 8:-95.0 9:-73.0 10:-77.0 11:-95.0 12:-95.0 13:-88.0 14:-87.0 15:-95.0 16:-95.0 17:-95.0 18:-81.0 
0.0 9.623869010880788E-11 0.0 0.0 6.837780202289434E-11 0.0 0.0 0.0 0.0 0.0 0.0 0.0 0.0 0.0 1:-61.0 2:-67.0 3:-76.0 4:-75.0 5:-80.0 6:-95.0 7:-95.0 8:-95.0 9:-79.0 10:-66.0 11:-95.0 12:-95.0 13:-88.0 14:-87.0 15:-95.0 16:-95.0 17:-95.0 18:-95.0 
1.6286355652151207E-7 0.0 0.0 0.0 0.0 0.0 0.0 0.0 0.0 0.0 0.0 0.0 0.0 0.0 1:-57.0 2:-67.0 3:-70.0 4:-64.0 5:-83.0 6:-95.0 7:-95.0 8:-95.0 9:-78.0 10:-78.0 11:-95.0 12:-95.0 13:-88.0 14:-84.0 15:-95.0 16:-83.0 17:-95.0 18:-95.0 
2.437147602079803E-7 0.0 0.0 0.0 0.0 0.0 0.0 0.0 0.0 0.0 0.0 0.0 0.0 0.0 1:-50.0 2:-74.0 3:-73.0 4:-75.0 5:-88.0 6:-95.0 7:-95.0 8:-95.0 9:-85.0 10:-82.0 11:-95.0 12:-95.0 13:-91.0 14:-95.0 15:-82.0 16:-87.0 17:-88.0 18:-83.0 
0.0 0.0 0.0 0.0 0.0 0.0 0.0 2.9232417599846686E-11 0.0 0.0 0.0 4.9743832932934965E-11 0.0 0.0 1:-57.0 2:-80.0 3:-82.0 4:-72.0 5:-85.0 6:-95.0 7:-95.0 8:-95.0 9:-79.0 10:-77.0 11:-95.0 12:-95.0 13:-83.0 14:-78.0 15:-95.0 16:-71.0 17:-84.0 18:-83.0 
1.5340478120402328E-7 0.0 0.0 0.0 2.0306984967592485E-11 0.0 0.0 0.0 0.0 0.0 0.0 0.0 0.0 0.0 1:-57.0 2:-70.0 3:-70.0 4:-71.0 5:-80.0 6:-95.0 7:-95.0 8:-95.0 9:-71.0 10:-77.0 11:-95.0 12:-95.0 13:-95.0 14:-95.0 15:-95.0 16:-85.0 17:-92.0 18:-78.0 
0.0 0.0 0.0 0.0 0.0 0.0 0.0 0.0 0.0 0.0 0.0 0.0 9.44713119065066E-12 0.0 1:-37.0 2:-64.0 3:-73.0 4:-74.0 5:-80.0 6:-95.0 7:-95.0 8:-95.0 9:-71.0 10:-73.0 11:-91.0 12:-95.0 13:-88.0 14:-84.0 15:-95.0 16:-84.0 17:-95.0 18:-71.0 
2.533651415900388E-7 0.0 0.0 0.0 0.0 0.0 0.0 0.0 0.0 0.0 0.0 0.0 0.0 0.0 1:-57.0 2:-72.0 3:-69.0 4:-70.0 5:-84.0 6:-95.0 7:-95.0 8:-95.0 9:-76.0 10:-73.0 11:-91.0 12:-95.0 13:-88.0 14:-84.0 15:-95.0 16:-84.0 17:-95.0 18:-76.0 
0.0 1.9782368864069469E-10 8.973381833318307E-11 7.883895232081237E-11 8.57309775032128E-13 0.0 0.0 0.0 4.5105100100165344E-11 4.121578118104801E-11 0.0 0.0 1.014881698970645E-10 4.1090210788911705E-11 1:-58.0 2:-70.0 3:-71.0 4:-70.0 5:-84.0 6:-89.0 7:-95.0 8:-95.0 9:-71.0 10:-79.0 11:-91.0 12:-95.0 13:-88.0 14:-84.0 15:-95.0 16:-84.0 17:-95.0 18:-76.0 
0.0 0.0 0.0 0.0 0.0 0.0 1.535720039525751E-11 0.0 0.0 0.0 4.0038193956954706E-11 0.0 0.0 0.0 1:-57.0 2:-69.0 3:-76.0 4:-73.0 5:-84.0 6:-89.0 7:-95.0 8:-95.0 9:-74.0 10:-79.0 11:-91.0 12:-95.0 13:-88.0 14:-75.0 15:-95.0 16:-76.0 17:-95.0 18:-76.0 
0.0 0.0 0.0 1.3115445354376254E-11 0.0 0.0 0.0 0.0 0.0 0.0 0.0 0.0 0.0 3.1472147730610385E-11 1:-58.0 2:-68.0 3:-68.0 4:-78.0 5:-84.0 6:-95.0 7:-95.0 8:-95.0 9:-77.0 10:-72.0 11:-84.0 12:-95.0 13:-95.0 14:-89.0 15:-88.0 16:-88.0 17:-95.0 18:-82.0 
2.641128081477862E-7 0.0 0.0 0.0 0.0 0.0 0.0 0.0 0.0 0.0 0.0 0.0 0.0 0.0 1:-58.0 2:-75.0 3:-74.0 4:-67.0 5:-88.0 6:-95.0 7:-95.0 8:-95.0 9:-84.0 10:-77.0 11:-84.0 12:-95.0 13:-95.0 14:-89.0 15:-88.0 16:-95.0 17:-95.0 18:-82.0 
1.587577890012384E-7 0.0 0.0 0.0 0.0 0.0 0.0 1.6843941769192215E-11 0.0 0.0 0.0 0.0 0.0 0.0 1:-59.0 2:-71.0 3:-74.0 4:-72.0 5:-89.0 6:-95.0 7:-95.0 8:-91.0 9:-80.0 10:-75.0 11:-84.0 12:-95.0 13:-95.0 14:-89.0 15:-95.0 16:-85.0 17:-95.0 18:-82.0 
4.0649298354123484E-9 0.0 0.0 0.0 0.0 0.0 0.0 0.0 0.0 0.0 0.0 0.0 0.0 0.0 1:-47.0 2:-66.0 3:-70.0 4:-69.0 5:-89.0 6:-95.0 7:-95.0 8:-91.0 9:-80.0 10:-75.0 11:-84.0 12:-95.0 13:-95.0 14:-89.0 15:-95.0 16:-85.0 17:-95.0 18:-82.0 
2.1160021918974466E-7 0.0 0.0 0.0 0.0 0.0 0.0 0.0 0.0 0.0 0.0 0.0 0.0 0.0 1:-49.0 2:-66.0 3:-71.0 4:-69.0 5:-82.0 6:-95.0 7:-95.0 8:-91.0 9:-74.0 10:-75.0 11:-95.0 12:-95.0 13:-95.0 14:-95.0 15:-95.0 16:-85.0 17:-95.0 18:-82.0 
8.737908801827747E-8 0.0 0.0 0.0 0.0 0.0 0.0 0.0 0.0 0.0 0.0 0.0 0.0 0.0 1:-37.0 2:-67.0 3:-71.0 4:-66.0 5:-82.0 6:-95.0 7:-95.0 8:-91.0 9:-76.0 10:-79.0 11:-95.0 12:-95.0 13:-95.0 14:-76.0 15:-95.0 16:-81.0 17:-95.0 18:-82.0 
0.0 0.0 0.0 0.0 0.0 7.516123225486431E-11 2.9792306862903875E-11 7.42912980022983E-14 0.0 0.0 0.0 0.0 0.0 0.0 1:-58.0 2:-79.0 3:-75.0 4:-77.0 5:-81.0 6:-86.0 7:-95.0 8:-95.0 9:-83.0 10:-77.0 11:-88.0 12:-95.0 13:-88.0 14:-88.0 15:-95.0 16:-84.0 17:-89.0 18:-86.0 
3.497243477923829E-7 0.0 0.0 0.0 2.0295144030461642E-11 0.0 0.0 0.0 0.0 0.0 0.0 0.0 0.0 0.0 1:-59.0 2:-69.0 3:-70.0 4:-69.0 5:-81.0 6:-88.0 7:-95.0 8:-95.0 9:-80.0 10:-83.0 11:-95.0 12:-95.0 13:-95.0 14:-80.0 15:-84.0 16:-80.0 17:-95.0 18:-85.0 
6.552936553657711E-8 0.0 0.0 0.0 0.0 0.0 0.0 0.0 0.0 0.0 0.0 0.0 0.0 0.0 1:-40.0 2:-64.0 3:-74.0 4:-66.0 5:-85.0 6:-95.0 7:-95.0 8:-95.0 9:-80.0 10:-80.0 11:-95.0 12:-91.0 13:-95.0 14:-84.0 15:-84.0 16:-79.0 17:-95.0 18:-80.0 
5.270433107587436E-8 0.0 0.0 0.0 0.0 0.0 0.0 0.0 0.0 0.0 0.0 0.0 0.0 0.0 1:-45.0 2:-71.0 3:-73.0 4:-66.0 5:-87.0 6:-95.0 7:-95.0 8:-95.0 9:-83.0 10:-80.0 11:-95.0 12:-91.0 13:-95.0 14:-84.0 15:-84.0 16:-79.0 17:-95.0 18:-80.0 
1.9391433057133829E-7 0.0 0.0 0.0 0.0 0.0 0.0 0.0 0.0 0.0 0.0 0.0 0.0 0.0 1:-57.0 2:-74.0 3:-71.0 4:-68.0 5:-80.0 6:-95.0 7:-91.0 8:-95.0 9:-81.0 10:-79.0 11:-95.0 12:-95.0 13:-95.0 14:-95.0 15:-90.0 16:-88.0 17:-95.0 18:-82.0 
7.470442384516171E-7 3.298399605183379E-10 3.948671527626077E-11 6.56871237822488E-13 0.0 0.0 0.0 0.0 0.0 0.0 0.0 0.0 7.118253212653637E-11 0.0 1:-47.0 2:-64.0 3:-69.0 4:-66.0 5:-80.0 6:-95.0 7:-91.0 8:-95.0 9:-80.0 10:-72.0 11:-95.0 12:-95.0 13:-95.0 14:-95.0 15:-90.0 16:-88.0 17:-95.0 18:-82.0 
5.424213494291549E-7 0.0 0.0 0.0 0.0 0.0 0.0 0.0 0.0 0.0 0.0 0.0 0.0 0.0 1:-57.0 2:-69.0 3:-75.0 4:-74.0 5:-85.0 6:-95.0 7:-91.0 8:-95.0 9:-74.0 10:-80.0 11:-95.0 12:-95.0 13:-95.0 14:-95.0 15:-90.0 16:-84.0 17:-95.0 18:-95.0 
-3.01472943861876E-7 0.0 0.0 0.0 0.0 0.0 0.0 0.0 0.0 0.0 0.0 0.0 0.0 0.0 1:-48.0 2:-73.0 3:-69.0 4:-72.0 5:-95.0 6:-95.0 7:-95.0 8:-95.0 9:-95.0 10:-72.0 11:-95.0 12:-95.0 13:-95.0 14:-95.0 15:-95.0 16:-95.0 17:-95.0 18:-84.0 
-6.971349023664082E-8 0.0 0.0 0.0 0.0 0.0 0.0 0.0 0.0 0.0 0.0 0.0 0.0 0.0 1:-58.0 2:-73.0 3:-64.0 4:-72.0 5:-79.0 6:-95.0 7:-95.0 8:-95.0 9:-67.0 10:-74.0 11:-95.0 12:-95.0 13:-95.0 14:-95.0 15:-95.0 16:-95.0 17:-95.0 18:-68.0 
-1.9940128707787458E-7 0.0 0.0 0.0 0.0 0.0 0.0 0.0 0.0 0.0 0.0 0.0 0.0 0.0 1:-57.0 2:-67.0 3:-74.0 4:-68.0 5:-85.0 6:-95.0 7:-95.0 8:-95.0 9:-76.0 10:-74.0 11:-80.0 12:-95.0 13:-95.0 14:-79.0 15:-95.0 16:-95.0 17:-95.0 18:-76.0 
-4.833605889413559E-8 1.1812002220483556E-9 0.0 0.0 0.0 0.0 0.0 0.0 0.0 0.0 0.0 0.0 0.0 0.0 1:-51.0 2:-61.0 3:-62.0 4:-64.0 5:-80.0 6:-95.0 7:-95.0 8:-95.0 9:-76.0 10:-66.0 11:-95.0 12:-95.0 13:-84.0 14:-95.0 15:-90.0 16:-95.0 17:-95.0 18:-95.0 
-8.131436702841785E-8 0.0 0.0 0.0 0.0 0.0 0.0 0.0 0.0 0.0 0.0 0.0 0.0 0.0 1:-56.0 2:-63.0 3:-68.0 4:-64.0 5:-77.0 6:-95.0 7:-95.0 8:-95.0 9:-76.0 10:-77.0 11:-95.0 12:-95.0 13:-84.0 14:-84.0 15:-95.0 16:-71.0 17:-95.0 18:-82.0 
-8.286465354420847E-8 0.0 0.0 0.0 0.0 0.0 0.0 0.0 0.0 0.0 0.0 0.0 0.0 0.0 1:-54.0 2:-66.0 3:-66.0 4:-69.0 5:-77.0 6:-95.0 7:-85.0 8:-95.0 9:-78.0 10:-73.0 11:-95.0 12:-95.0 13:-87.0 14:-84.0 15:-95.0 16:-71.0 17:-95.0 18:-78.0 
-7.142767156753456E-9 0.0 0.0 0.0 0.0 0.0 0.0 0.0 0.0 0.0 0.0 0.0 0.0 0.0 1:-51.0 2:-67.0 3:-68.0 4:-66.0 5:-76.0 6:-95.0 7:-85.0 8:-95.0 9:-78.0 10:-75.0 11:-95.0 12:-95.0 13:-88.0 14:-95.0 15:-95.0 16:-95.0 17:-91.0 18:-78.0 
-1.3535567552397352E-7 0.0 0.0 0.0 0.0 0.0 0.0 0.0 0.0 0.0 0.0 0.0 0.0 0.0 1:-46.0 2:-62.0 3:-75.0 4:-64.0 5:-76.0 6:-95.0 7:-85.0 8:-95.0 9:-78.0 10:-75.0 11:-95.0 12:-95.0 13:-88.0 14:-95.0 15:-95.0 16:-95.0 17:-91.0 18:-78.0 
-8.18727956508491E-8 0.0 0.0 0.0 0.0 0.0 0.0 0.0 0.0 0.0 0.0 0.0 0.0 0.0 1:-43.0 2:-61.0 3:-71.0 4:-65.0 5:-76.0 6:-95.0 7:-85.0 8:-95.0 9:-72.0 10:-71.0 11:-95.0 12:-95.0 13:-88.0 14:-95.0 15:-95.0 16:-69.0 17:-91.0 18:-81.0 
-7.028403641778252E-8 0.0 0.0 0.0 0.0 0.0 0.0 0.0 0.0 0.0 0.0 0.0 0.0 0.0 1:-53.0 2:-62.0 3:-72.0 4:-64.0 5:-76.0 6:-85.0 7:-95.0 8:-95.0 9:-72.0 10:-71.0 11:-87.0 12:-95.0 13:-95.0 14:-74.0 15:-95.0 16:-77.0 17:-85.0 18:-77.0 
-6.4646961077180155E-9 0.0 0.0 0.0 0.0 0.0 0.0 0.0 0.0 0.0 0.0 0.0 0.0 0.0 1:-57.0 2:-61.0 3:-67.0 4:-64.0 5:-76.0 6:-85.0 7:-95.0 8:-95.0 9:-76.0 10:-71.0 11:-87.0 12:-95.0 13:-95.0 14:-74.0 15:-95.0 16:-77.0 17:-85.0 18:-77.0 
-0.0 0.0 0.0 2.596087220235876E-10 0.0 2.325220960124132E-11 0.0 0.0 0.0 0.0 0.0 0.0 0.0 5.046025521542276E-11 1:-56.0 2:-63.0 3:-62.0 4:-63.0 5:-64.0 6:-83.0 7:-95.0 8:-95.0 9:-67.0 10:-66.0 11:-83.0 12:-95.0 13:-95.0 14:-95.0 15:-95.0 16:-95.0 17:-95.0 18:-70.0 
-0.0 0.0 4.299966069321707E-10 1.4832953675391426E-10 2.0734724453804485E-10 0.0 0.0 0.0 7.312470416008901E-12 0.0 0.0 0.0 8.593288423398587E-10 0.0 1:-55.0 2:-63.0 3:-64.0 4:-58.0 5:-63.0 6:-83.0 7:-95.0 8:-95.0 9:-67.0 10:-66.0 11:-83.0 12:-95.0 13:-95.0 14:-95.0 15:-95.0 16:-95.0 17:-95.0 18:-70.0 
-0.0 3.5602645112395524E-9 0.0 0.0 0.0 0.0 0.0 0.0 0.0 0.0 0.0 0.0 1.7586396825118737E-10 0.0 1:-55.0 2:-58.0 3:-64.0 4:-66.0 5:-63.0 6:-83.0 7:-95.0 8:-95.0 9:-67.0 10:-66.0 11:-83.0 12:-95.0 13:-95.0 14:-95.0 15:-95.0 16:-95.0 17:-95.0 18:-70.0 
-0.0 9.136716077738596E-10 0.0 0.0 0.0 0.0 0.0 0.0 0.0 0.0 0.0 0.0 0.0 0.0 1:-58.0 2:-65.0 3:-68.0 4:-62.0 5:-71.0 6:-83.0 7:-95.0 8:-95.0 9:-75.0 10:-67.0 11:-83.0 12:-95.0 13:-95.0 14:-95.0 15:-95.0 16:-95.0 17:-95.0 18:-78.0 
-1.6996405399472074E-7 0.0 0.0 0.0 0.0 0.0 0.0 0.0 0.0 0.0 0.0 0.0 0.0 0.0 1:-56.0 2:-79.0 3:-71.0 4:-61.0 5:-81.0 6:-95.0 7:-95.0 8:-95.0 9:-75.0 10:-67.0 11:-95.0 12:-95.0 13:-95.0 14:-95.0 15:-95.0 16:-95.0 17:-95.0 18:-78.0 
-0.0 3.884275748105732E-9 0.0 0.0 0.0 0.0 0.0 0.0 0.0 0.0 0.0 0.0 0.0 0.0 1:-54.0 2:-62.0 3:-61.0 4:-62.0 5:-82.0 6:-95.0 7:-95.0 8:-90.0 9:-69.0 10:-64.0 11:-95.0 12:-95.0 13:-95.0 14:-95.0 15:-95.0 16:-95.0 17:-95.0 18:-79.0 
-1.8950990646190545E-7 0.0 0.0 0.0 0.0 0.0 0.0 0.0 0.0 0.0 0.0 0.0 0.0 0.0 1:-49.0 2:-61.0 3:-76.0 4:-66.0 5:-78.0 6:-95.0 7:-95.0 8:-90.0 9:-80.0 10:-71.0 11:-95.0 12:-95.0 13:-95.0 14:-95.0 15:-87.0 16:-82.0 17:-95.0 18:-79.0 
-1.5799703743308634E-7 0.0 0.0 0.0 0.0 0.0 0.0 0.0 0.0 0.0 0.0 0.0 0.0 0.0 1:-43.0 2:-56.0 3:-74.0 4:-68.0 5:-80.0 6:-95.0 7:-95.0 8:-90.0 9:-80.0 10:-77.0 11:-95.0 12:-95.0 13:-95.0 14:-95.0 15:-87.0 16:-82.0 17:-95.0 18:-79.0 
-0.0 1.1663987940154352E-9 0.0 0.0 0.0 0.0 0.0 0.0 0.0 0.0 0.0 0.0 0.0 0.0 1:-42.0 2:-53.0 3:-61.0 4:-61.0 5:-78.0 6:-95.0 7:-95.0 8:-90.0 9:-78.0 10:-69.0 11:-95.0 12:-95.0 13:-95.0 14:-95.0 15:-87.0 16:-82.0 17:-95.0 18:-95.0 
-0.0 1.750153107867792E-9 2.8582254067678033E-11 0.0 0.0 0.0 0.0 0.0 0.0 0.0 0.0 0.0 2.8628317127671903E-11 0.0 1:-59.0 2:-59.0 3:-62.0 4:-57.0 5:-72.0 6:-81.0 7:-87.0 8:-95.0 9:-72.0 10:-69.0 11:-95.0 12:-95.0 13:-95.0 14:-81.0 15:-95.0 16:-95.0 17:-82.0 18:-75.0 
-0.0 0.0 0.0 0.0 0.0 0.0 1.4762686871017617E-11 0.0 0.0 0.0 1.2446815151374837E-11 9.256437337504685E-12 0.0 0.0 1:-59.0 2:-68.0 3:-69.0 4:-65.0 5:-76.0 6:-81.0 7:-87.0 8:-95.0 9:-72.0 10:-68.0 11:-95.0 12:-95.0 13:-77.0 14:-72.0 15:-83.0 16:-95.0 17:-82.0 18:-70.0 
-0.0 0.0 0.0 0.0 1.1247192234116316E-11 4.123567743070999E-11 0.0 0.0 0.0 0.0 0.0 0.0 0.0 0.0 1:-65.0 2:-66.0 3:-65.0 4:-61.0 5:-76.0 6:-81.0 7:-87.0 8:-95.0 9:-76.0 10:-68.0 11:-95.0 12:-95.0 13:-77.0 14:-72.0 15:-83.0 16:-95.0 17:-82.0 18:-74.0 
-0.0 0.0 0.0 0.0 0.0 0.0 0.0 0.0 0.0 0.0 0.0 0.0 0.0 5.783731990187642E-12 1:-61.0 2:-62.0 3:-65.0 4:-61.0 5:-76.0 6:-81.0 7:-87.0 8:-95.0 9:-69.0 10:-68.0 11:-95.0 12:-95.0 13:-77.0 14:-72.0 15:-83.0 16:-95.0 17:-82.0 18:-73.0 
-0.0 0.0 0.0 0.0 0.0 0.0 3.257965845378715E-11 4.8881214194836545E-12 0.0 0.0 0.0 0.0 0.0 0.0 1:-62.0 2:-64.0 3:-69.0 4:-63.0 5:-77.0 6:-87.0 7:-80.0 8:-95.0 9:-79.0 10:-74.0 11:-82.0 12:-95.0 13:-91.0 14:-72.0 15:-83.0 16:-95.0 17:-95.0 18:-73.0 
-0.0 0.0 0.0 0.0 0.0 5.466727066955582E-12 9.447540578917304E-12 2.4747115464020218E-12 0.0 0.0 0.0 0.0 0.0 0.0 1:-62.0 2:-66.0 3:-67.0 4:-75.0 5:-77.0 6:-87.0 7:-80.0 8:-95.0 9:-79.0 10:-74.0 11:-82.0 12:-95.0 13:-91.0 14:-72.0 15:-95.0 16:-95.0 17:-95.0 18:-73.0 
-5.1957675892576744E-9 0.0 0.0 0.0 0.0 0.0 0.0 0.0 0.0 0.0 0.0 0.0 0.0 0.0 1:-52.0 2:-68.0 3:-69.0 4:-73.0 5:-75.0 6:-95.0 7:-80.0 8:-95.0 9:-73.0 10:-76.0 11:-82.0 12:-95.0 13:-91.0 14:-86.0 15:-95.0 16:-95.0 17:-95.0 18:-74.0 
-1.700202582667677E-8 0.0 0.0 0.0 0.0 0.0 0.0 0.0 0.0 0.0 0.0 0.0 0.0 0.0 1:-60.0 2:-62.0 3:-71.0 4:-62.0 5:-75.0 6:-95.0 7:-95.0 8:-95.0 9:-83.0 10:-82.0 11:-82.0 12:-95.0 13:-85.0 14:-86.0 15:-95.0 16:-95.0 17:-95.0 18:-78.0 
-9.42953097115869E-9 0.0 0.0 0.0 0.0 0.0 0.0 0.0 0.0 0.0 0.0 0.0 0.0 0.0 1:-45.0 2:-62.0 3:-70.0 4:-61.0 5:-75.0 6:-95.0 7:-95.0 8:-95.0 9:-75.0 10:-82.0 11:-82.0 12:-95.0 13:-85.0 14:-86.0 15:-80.0 16:-79.0 17:-95.0 18:-84.0 
-0.0 0.0 0.0 0.0 0.0 0.0 0.0 0.0 0.0 0.0 0.0 0.0 1.3333889707827505E-10 0.0 1:-60.0 2:-53.0 3:-64.0 4:-59.0 5:-75.0 6:-95.0 7:-95.0 8:-95.0 9:-71.0 10:-70.0 11:-95.0 12:-95.0 13:-85.0 14:-86.0 15:-80.0 16:-79.0 17:-95.0 18:-84.0 
-1.5699224365809713E-7 0.0 0.0 0.0 0.0 0.0 0.0 0.0 0.0 0.0 0.0 0.0 0.0 0.0 1:-53.0 2:-60.0 3:-69.0 4:-67.0 5:-77.0 6:-95.0 7:-95.0 8:-95.0 9:-73.0 10:-74.0 11:-95.0 12:-95.0 13:-91.0 14:-95.0 15:-95.0 16:-80.0 17:-95.0 18:-77.0 
-0.0 5.488823727192686E-9 0.0 0.0 0.0 0.0 0.0 0.0 0.0 0.0 0.0 0.0 3.8496502908347954E-10 0.0 1:-54.0 2:-53.0 3:-60.0 4:-55.0 5:-80.0 6:-95.0 7:-95.0 8:-95.0 9:-71.0 10:-67.0 11:-95.0 12:-85.0 13:-95.0 14:-73.0 15:-95.0 16:-95.0 17:-95.0 18:-77.0 
-0.0 1.9467372208737007E-9 9.700932816063086E-11 0.0 8.496829400244356E-11 3.543589642979214E-11 0.0 0.0 0.0 0.0 0.0 0.0 0.0 1.9609858297847828E-12 1:-63.0 2:-59.0 3:-64.0 4:-68.0 5:-70.0 6:-73.0 7:-95.0 8:-95.0 9:-71.0 10:-66.0 11:-95.0 12:-85.0 13:-95.0 14:-95.0 15:-95.0 16:-75.0 17:-95.0 18:-70.0 
-0.0 0.0 1.1025835270318475E-10 0.0 0.0 0.0 0.0 0.0 0.0 0.0 0.0 0.0 0.0 0.0 1:-63.0 2:-56.0 3:-64.0 4:-60.0 5:-70.0 6:-73.0 7:-95.0 8:-95.0 9:-71.0 10:-73.0 11:-95.0 12:-85.0 13:-95.0 14:-95.0 15:-95.0 16:-75.0 17:-95.0 18:-70.0 
-0.0 0.0 0.0 0.0 0.0 0.0 0.0 0.0 0.0 0.0 0.0 0.0 2.481424949670969E-10 0.0 1:-59.0 2:-58.0 3:-69.0 4:-60.0 5:-70.0 6:-82.0 7:-95.0 8:-95.0 9:-71.0 10:-66.0 11:-85.0 12:-85.0 13:-95.0 14:-95.0 15:-95.0 16:-75.0 17:-95.0 18:-70.0 
-0.0 0.0 0.0 6.529902414867695E-11 0.0 1.546877160559761E-11 0.0 0.0 0.0 1.568384030286255E-11 0.0 0.0 0.0 4.3966720786704194E-11 1:-63.0 2:-66.0 3:-67.0 4:-63.0 5:-70.0 6:-82.0 7:-95.0 8:-95.0 9:-71.0 10:-66.0 11:-81.0 12:-95.0 13:-95.0 14:-95.0 15:-95.0 16:-70.0 17:-83.0 18:-70.0 
-0.0 0.0 0.0 0.0 0.0 0.0 0.0 0.0 2.7388238067990837E-11 0.0 0.0 0.0 0.0 0.0 1:-63.0 2:-64.0 3:-67.0 4:-63.0 5:-70.0 6:-82.0 7:-95.0 8:-95.0 9:-71.0 10:-66.0 11:-81.0 12:-95.0 13:-95.0 14:-95.0 15:-95.0 16:-70.0 17:-83.0 18:-70.0 
-1.229860439480967E-7 0.0 0.0 0.0 0.0 0.0 0.0 0.0 0.0 0.0 0.0 0.0 0.0 0.0 1:-54.0 2:-63.0 3:-75.0 4:-68.0 5:-80.0 6:-85.0 7:-95.0 8:-95.0 9:-69.0 10:-67.0 11:-81.0 12:-95.0 13:-95.0 14:-95.0 15:-95.0 16:-80.0 17:-83.0 18:-80.0 
-1.724838485507482E-8 0.0 0.0 0.0 0.0 0.0 0.0 0.0 0.0 0.0 0.0 0.0 0.0 0.0 1:-50.0 2:-72.0 3:-67.0 4:-70.0 5:-79.0 6:-85.0 7:-95.0 8:-95.0 9:-77.0 10:-66.0 11:-95.0 12:-87.0 13:-95.0 14:-95.0 15:-95.0 16:-83.0 17:-83.0 18:-80.0 
-0.0 8.646082498724549E-10 0.0 0.0 0.0 0.0 0.0 0.0 0.0 0.0 0.0 0.0 0.0 0.0 1:-59.0 2:-70.0 3:-67.0 4:-68.0 5:-75.0 6:-95.0 7:-84.0 8:-90.0 9:-73.0 10:-70.0 11:-95.0 12:-95.0 13:-80.0 14:-70.0 15:-95.0 16:-95.0 17:-95.0 18:-95.0 
-3.4495768910716635E-8 0.0 0.0 0.0 0.0 0.0 0.0 0.0 0.0 0.0 0.0 0.0 0.0 0.0 1:-54.0 2:-66.0 3:-76.0 4:-72.0 5:-75.0 6:-95.0 7:-84.0 8:-95.0 9:-73.0 10:-70.0 11:-95.0 12:-91.0 13:-80.0 14:-82.0 15:-95.0 16:-83.0 17:-95.0 18:-95.0 
-1.461537510794457E-8 0.0 0.0 0.0 0.0 0.0 0.0 0.0 0.0 0.0 0.0 0.0 0.0 0.0 1:-45.0 2:-57.0 3:-68.0 4:-64.0 5:-79.0 6:-79.0 7:-95.0 8:-95.0 9:-76.0 10:-71.0 11:-87.0 12:-91.0 13:-79.0 14:-82.0 15:-81.0 16:-83.0 17:-95.0 18:-70.0 
-0.0 0.0 1.904913971615876E-10 4.901011932862365E-11 0.0 0.0 0.0 0.0 5.7160281453411395E-11 6.073283132348212E-11 0.0 0.0 0.0 4.8989991638613804E-11 1:-54.0 2:-68.0 3:-59.0 4:-52.0 5:-73.0 6:-79.0 7:-95.0 8:-95.0 9:-73.0 10:-67.0 11:-88.0 12:-84.0 13:-79.0 14:-74.0 15:-81.0 16:-95.0 17:-95.0 18:-67.0 
-0.0 0.0 0.0 0.0 0.0 0.0 0.0 0.0 0.0 0.0 1.5761236491402956E-11 0.0 0.0 0.0 1:-55.0 2:-63.0 3:-62.0 4:-60.0 5:-73.0 6:-79.0 7:-95.0 8:-95.0 9:-73.0 10:-71.0 11:-88.0 12:-84.0 13:-79.0 14:-74.0 15:-81.0 16:-83.0 17:-95.0 18:-67.0 
-0.0 0.0 0.0 0.0 0.0 0.0 0.0 0.0 1.9063971871831332E-11 0.0 0.0 0.0 0.0 0.0 1:-53.0 2:-54.0 3:-62.0 4:-60.0 5:-73.0 6:-79.0 7:-95.0 8:-95.0 9:-71.0 10:-71.0 11:-88.0 12:-84.0 13:-79.0 14:-74.0 15:-81.0 16:-83.0 17:-95.0 18:-67.0 
-0.0 0.0 0.0 0.0 0.0 0.0 0.0 0.0 0.0 0.0 0.0 3.4147468697301248E-12 0.0 0.0 1:-54.0 2:-66.0 3:-65.0 4:-64.0 5:-79.0 6:-79.0 7:-95.0 8:-95.0 9:-75.0 10:-69.0 11:-88.0 12:-82.0 13:-81.0 14:-74.0 15:-81.0 16:-80.0 17:-95.0 18:-74.0 
-0.0 0.0 0.0 0.0 0.0 0.0 0.0 4.8706089491055334E-11 0.0 0.0 3.024280833212066E-11 4.039219495135507E-11 0.0 0.0 1:-59.0 2:-70.0 3:-73.0 4:-68.0 5:-82.0 6:-95.0 7:-95.0 8:-95.0 9:-79.0 10:-67.0 11:-90.0 12:-80.0 13:-81.0 14:-76.0 15:-95.0 16:-79.0 17:-95.0 18:-70.0 
-5.054004949732377E-7 0.0 0.0 0.0 0.0 0.0 0.0 0.0 0.0 0.0 0.0 0.0 0.0 0.0 1:-51.0 2:-67.0 3:-74.0 4:-70.0 5:-79.0 6:-95.0 7:-90.0 8:-95.0 9:-72.0 10:-80.0 11:-95.0 12:-95.0 13:-95.0 14:-80.0 15:-86.0 16:-85.0 17:-95.0 18:-88.0 
-1.0015899806173294E-7 0.0 0.0 0.0 0.0 0.0 0.0 0.0 0.0 0.0 0.0 0.0 0.0 0.0 1:-57.0 2:-78.0 3:-79.0 4:-70.0 5:-89.0 6:-95.0 7:-95.0 8:-95.0 9:-72.0 10:-80.0 11:-95.0 12:-95.0 13:-95.0 14:-80.0 15:-86.0 16:-85.0 17:-95.0 18:-88.0 
-2.124268349051712E-7 0.0 0.0 0.0 0.0 0.0 2.1154472805155227E-12 0.0 0.0 0.0 0.0 0.0 0.0 0.0 1:-62.0 2:-81.0 3:-79.0 4:-82.0 5:-89.0 6:-95.0 7:-95.0 8:-95.0 9:-72.0 10:-80.0 11:-95.0 12:-95.0 13:-95.0 14:-95.0 15:-86.0 16:-85.0 17:-95.0 18:-91.0 
-2.0488591239988767E-7 0.0 0.0 0.0 0.0 0.0 0.0 0.0 0.0 0.0 0.0 0.0 0.0 0.0 1:-62.0 2:-74.0 3:-79.0 4:-82.0 5:-89.0 6:-95.0 7:-95.0 8:-95.0 9:-88.0 10:-89.0 11:-95.0 12:-95.0 13:-95.0 14:-95.0 15:-86.0 16:-85.0 17:-95.0 18:-89.0 
-1.564351490688022E-7 0.0 0.0 0.0 0.0 0.0 0.0 0.0 0.0 0.0 0.0 0.0 0.0 0.0 1:-61.0 2:-77.0 3:-80.0 4:-82.0 5:-89.0 6:-95.0 7:-95.0 8:-95.0 9:-91.0 10:-89.0 11:-95.0 12:-95.0 13:-95.0 14:-95.0 15:-86.0 16:-85.0 17:-95.0 18:-89.0 
-3.7782560030700015E-8 0.0 0.0 0.0 0.0 0.0 0.0 0.0 0.0 0.0 0.0 0.0 0.0 0.0 1:-57.0 2:-69.0 3:-76.0 4:-70.0 5:-86.0 6:-95.0 7:-95.0 8:-95.0 9:-80.0 10:-89.0 11:-95.0 12:-95.0 13:-95.0 14:-95.0 15:-86.0 16:-85.0 17:-95.0 18:-89.0 
-5.343155063876079E-7 0.0 0.0 0.0 0.0 0.0 0.0 0.0 0.0 0.0 0.0 0.0 0.0 0.0 1:-53.0 2:-72.0 3:-68.0 4:-69.0 5:-85.0 6:-95.0 7:-95.0 8:-95.0 9:-80.0 10:-89.0 11:-95.0 12:-95.0 13:-95.0 14:-95.0 15:-86.0 16:-85.0 17:-95.0 18:-89.0 
-3.5131247573892737E-7 0.0 0.0 0.0 0.0 0.0 0.0 0.0 0.0 0.0 0.0 0.0 0.0 0.0 1:-62.0 2:-62.0 3:-73.0 4:-69.0 5:-85.0 6:-95.0 7:-95.0 8:-95.0 9:-77.0 10:-74.0 11:-95.0 12:-95.0 13:-95.0 14:-95.0 15:-86.0 16:-85.0 17:-95.0 18:-89.0 
-1.6034822563615914E-7 0.0 0.0 0.0 0.0 0.0 0.0 0.0 0.0 0.0 0.0 0.0 0.0 0.0 1:-51.0 2:-66.0 3:-61.0 4:-69.0 5:-85.0 6:-95.0 7:-95.0 8:-95.0 9:-77.0 10:-78.0 11:-95.0 12:-95.0 13:-95.0 14:-77.0 15:-95.0 16:-85.0 17:-95.0 18:-79.0 
-1.8258973156095763E-7 0.0 0.0 0.0 0.0 0.0 0.0 0.0 0.0 0.0 0.0 0.0 0.0 0.0 1:-55.0 2:-70.0 3:-69.0 4:-70.0 5:-85.0 6:-95.0 7:-95.0 8:-95.0 9:-77.0 10:-78.0 11:-95.0 12:-95.0 13:-75.0 14:-77.0 15:-95.0 16:-85.0 17:-95.0 18:-79.0 
-0.0 -0.0 0.0 0.0 0.0 0.0 0.0 0.0 0.0 0.0 0.0 0.0 5.2589122941384445E-8 0.0 1:-61.0 2:-52.0 3:-60.0 4:-56.0 5:-70.0 6:-81.0 7:-95.0 8:-95.0 9:-60.0 10:-56.0 11:-83.0 12:-86.0 13:-88.0 14:-95.0 15:-95.0 16:-95.0 17:-95.0 18:-83.0 
-0.0 -0.0 0.0 0.0 0.0 0.0 0.0 0.0 0.0 0.0 0.0 0.0 3.1667425935501986E-8 0.0 1:-63.0 2:-52.0 3:-56.0 4:-60.0 5:-70.0 6:-81.0 7:-95.0 8:-95.0 9:-60.0 10:-56.0 11:-95.0 12:-86.0 13:-88.0 14:-95.0 15:-95.0 16:-95.0 17:-95.0 18:-83.0 
-0.0 -0.0 2.5422681346247633E-8 0.0 0.0 0.0 0.0 0.0 0.0 0.0 0.0 0.0 0.0 0.0 1:-64.0 2:-55.0 3:-54.0 4:-53.0 5:-71.0 6:-67.0 7:-95.0 8:-95.0 9:-60.0 10:-54.0 11:-89.0 12:-86.0 13:-88.0 14:-95.0 15:-95.0 16:-95.0 17:-95.0 18:-95.0 
-0.0 -0.0 0.0 2.776950502226346E-10 2.0442539403891714E-10 0.0 0.0 0.0 0.0 0.0 0.0 0.0 0.0 0.0 1:-61.0 2:-64.0 3:-53.0 4:-56.0 5:-62.0 6:-67.0 7:-95.0 8:-95.0 9:-68.0 10:-64.0 11:-83.0 12:-86.0 13:-95.0 14:-95.0 15:-95.0 16:-95.0 17:-95.0 18:-95.0 
-0.0 -0.0 0.0 5.083086193069817E-10 1.9508252443577162E-10 0.0 0.0 0.0 0.0 0.0 0.0 0.0 0.0 2.6018735742449696E-11 1:-62.0 2:-58.0 3:-56.0 4:-54.0 5:-63.0 6:-73.0 7:-95.0 8:-95.0 9:-62.0 10:-56.0 11:-82.0 12:-95.0 13:-86.0 14:-95.0 15:-95.0 16:-95.0 17:-95.0 18:-79.0 
-0.0 -0.0 0.0 0.0 0.0 3.6780952650865406E-11 9.168648097626658E-12 0.0 0.0 0.0 0.0 0.0 0.0 0.0 1:-64.0 2:-60.0 3:-56.0 4:-52.0 5:-71.0 6:-77.0 7:-85.0 8:-95.0 9:-63.0 10:-60.0 11:-72.0 12:-95.0 13:-86.0 14:-95.0 15:-91.0 16:-95.0 17:-95.0 18:-95.0 
-0.0 -0.0 0.0 0.0 0.0 0.0 0.0 0.0 0.0 0.0 1.2707476069189526E-11 1.0417605288889643E-11 0.0 0.0 1:-65.0 2:-58.0 3:-60.0 4:-56.0 5:-73.0 6:-76.0 7:-95.0 8:-95.0 9:-63.0 10:-67.0 11:-79.0 12:-95.0 13:-80.0 14:-77.0 15:-95.0 16:-95.0 17:-95.0 18:-84.0 
-0.0 -6.003182167483656E-9 0.0 0.0 0.0 0.0 0.0 0.0 0.0 0.0 0.0 0.0 0.0 0.0 1:-51.0 2:-59.0 3:-57.0 4:-61.0 5:-69.0 6:-81.0 7:-95.0 8:-95.0 9:-71.0 10:-66.0 11:-95.0 12:-95.0 13:-95.0 14:-79.0 15:-95.0 16:-95.0 17:-95.0 18:-77.0 
-0.0 -8.207864242879851E-11 0.0 0.0 0.0 0.0 0.0 0.0 0.0 0.0 0.0 0.0 0.0 0.0 1:-54.0 2:-63.0 3:-55.0 4:-53.0 5:-64.0 6:-81.0 7:-95.0 8:-95.0 9:-70.0 10:-67.0 11:-95.0 12:-95.0 13:-95.0 14:-79.0 15:-95.0 16:-95.0 17:-95.0 18:-77.0 
-0.0 -0.0 0.0 0.0 0.0 0.0 0.0 0.0 0.0 0.0 0.0 0.0 1.2844435431478118E-9 0.0 1:-62.0 2:-48.0 3:-56.0 4:-53.0 5:-67.0 6:-95.0 7:-95.0 8:-95.0 9:-64.0 10:-62.0 11:-95.0 12:-95.0 13:-95.0 14:-79.0 15:-95.0 16:-95.0 17:-95.0 18:-77.0 
-0.0 -0.0 0.0 0.0 0.0 0.0 0.0 0.0 0.0 0.0 0.0 0.0 8.225681476743777E-9 0.0 1:-62.0 2:-52.0 3:-45.0 4:-47.0 5:-76.0 6:-79.0 7:-95.0 8:-95.0 9:-57.0 10:-57.0 11:-95.0 12:-95.0 13:-95.0 14:-95.0 15:-95.0 16:-95.0 17:-95.0 18:-78.0 
-0.0 -0.0 1.615610761354189E-8 0.0 0.0 0.0 0.0 0.0 8.891643594857757E-11 0.0 0.0 0.0 0.0 0.0 1:-63.0 2:-47.0 3:-58.0 4:-51.0 5:-69.0 6:-79.0 7:-88.0 8:-87.0 9:-53.0 10:-57.0 11:-75.0 12:-88.0 13:-95.0 14:-95.0 15:-95.0 16:-90.0 17:-95.0 18:-77.0 
-0.0 -0.0 1.1136550091707039E-7 1.770970188073957E-10 0.0 0.0 0.0 0.0 0.0 7.873592296066026E-14 0.0 0.0 5.84210869729493E-9 0.0 1:-61.0 2:-55.0 3:-50.0 4:-53.0 5:-66.0 6:-95.0 7:-88.0 8:-87.0 9:-53.0 10:-57.0 11:-75.0 12:-88.0 13:-95.0 14:-95.0 15:-95.0 16:-90.0 17:-95.0 18:-77.0 
-0.0 -0.0 0.0 3.340721921672906E-10 1.1008132527296983E-10 0.0 0.0 0.0 0.0 0.0 0.0 0.0 0.0 0.0 1:-68.0 2:-53.0 3:-56.0 4:-57.0 5:-66.0 6:-95.0 7:-88.0 8:-87.0 9:-61.0 10:-58.0 11:-75.0 12:-95.0 13:-95.0 14:-95.0 15:-95.0 16:-95.0 17:-95.0 18:-77.0 
-1.4883873117320565E-10 -5.508325803403821E-9 0.0 0.0 0.0 0.0 0.0 0.0 0.0 0.0 0.0 0.0 0.0 0.0 1:-61.0 2:-55.0 3:-62.0 4:-60.0 5:-79.0 6:-95.0 7:-95.0 8:-95.0 9:-74.0 10:-66.0 11:-95.0 12:-95.0 13:-95.0 14:-82.0 15:-95.0 16:-95.0 17:-95.0 18:-80.0 
-1.8017422397708965E-10 -0.0 0.0 0.0 0.0 0.0 0.0 0.0 0.0 0.0 0.0 0.0 0.0 0.0 1:-56.0 2:-60.0 3:-61.0 4:-70.0 5:-79.0 6:-85.0 7:-95.0 8:-95.0 9:-67.0 10:-64.0 11:-95.0 12:-95.0 13:-91.0 14:-95.0 15:-95.0 16:-95.0 17:-95.0 18:-80.0 
-1.214008323713922E-10 -0.0 0.0 0.0 0.0 0.0 0.0 0.0 0.0 0.0 0.0 0.0 0.0 0.0 1:-58.0 2:-61.0 3:-64.0 4:-60.0 5:-69.0 6:-83.0 7:-95.0 8:-95.0 9:-80.0 10:-65.0 11:-95.0 12:-95.0 13:-91.0 14:-95.0 15:-95.0 16:-95.0 17:-95.0 18:-86.0 
-0.0 -5.292347780352798E-10 0.0 0.0 0.0 0.0 0.0 0.0 0.0 0.0 0.0 0.0 0.0 0.0 1:-53.0 2:-53.0 3:-59.0 4:-63.0 5:-72.0 6:-95.0 7:-95.0 8:-91.0 9:-67.0 10:-68.0 11:-82.0 12:-88.0 13:-95.0 14:-95.0 15:-95.0 16:-95.0 17:-95.0 18:-85.0 
-0.0 -0.0 0.0 0.0 7.74937505211973E-11 8.617262061904577E-11 5.0703530072403105E-12 0.0 0.0 0.0 0.0 0.0 0.0 2.561967506711922E-12 1:-70.0 2:-53.0 3:-61.0 4:-60.0 5:-71.0 6:-71.0 7:-95.0 8:-91.0 9:-65.0 10:-66.0 11:-82.0 12:-88.0 13:-95.0 14:-84.0 15:-95.0 16:-95.0 17:-95.0 18:-76.0 
-0.0 -0.0 0.0 0.0 0.0 0.0 0.0 0.0 0.0 0.0 0.0 0.0 2.8206582291309528E-8 0.0 1:-63.0 2:-51.0 3:-61.0 4:-54.0 5:-71.0 6:-71.0 7:-95.0 8:-91.0 9:-61.0 10:-58.0 11:-82.0 12:-88.0 13:-95.0 14:-84.0 15:-95.0 16:-95.0 17:-95.0 18:-76.0 
-0.0 -0.0 0.0 0.0 0.0 0.0 0.0 0.0 0.0 0.0 0.0 0.0 0.0 8.68836555954505E-11 1:-59.0 2:-57.0 3:-61.0 4:-54.0 5:-68.0 6:-71.0 7:-95.0 8:-91.0 9:-60.0 10:-58.0 11:-82.0 12:-95.0 13:-95.0 14:-84.0 15:-95.0 16:-95.0 17:-95.0 18:-76.0 
-0.0 -0.0 0.0 0.0 0.0 0.0 0.0 0.0 0.0 0.0 0.0 0.0 1.0913729372414164E-8 0.0 1:-61.0 2:-54.0 3:-61.0 4:-58.0 5:-68.0 6:-71.0 7:-95.0 8:-91.0 9:-61.0 10:-58.0 11:-82.0 12:-88.0 13:-95.0 14:-84.0 15:-95.0 16:-95.0 17:-95.0 18:-76.0 
-0.0 -0.0 3.197319266511451E-8 0.0 0.0 0.0 0.0 0.0 0.0 0.0 0.0 0.0 0.0 0.0 1:-61.0 2:-56.0 3:-57.0 4:-58.0 5:-70.0 6:-71.0 7:-95.0 8:-91.0 9:-61.0 10:-58.0 11:-82.0 12:-88.0 13:-95.0 14:-84.0 15:-95.0 16:-95.0 17:-95.0 18:-76.0 
-0.0 -3.9613305459656E-9 0.0 0.0 0.0 0.0 0.0 4.214189835935889E-12 0.0 0.0 0.0 0.0 0.0 0.0 1:-55.0 2:-56.0 3:-69.0 4:-64.0 5:-81.0 6:-90.0 7:-87.0 8:-86.0 9:-69.0 10:-67.0 11:-85.0 12:-88.0 13:-95.0 14:-95.0 15:-95.0 16:-92.0 17:-95.0 18:-84.0 
-1.73488551746153E-10 -0.0 0.0 0.0 0.0 0.0 0.0 0.0 0.0 0.0 0.0 0.0 0.0 0.0 1:-63.0 2:-56.0 3:-74.0 4:-64.0 5:-81.0 6:-90.0 7:-87.0 8:-95.0 9:-69.0 10:-67.0 11:-85.0 12:-88.0 13:-95.0 14:-95.0 15:-95.0 16:-92.0 17:-95.0 18:-84.0 
-0.0 -0.0 0.0 0.0 0.0 0.0 2.491316443766516E-11 1.4980612900896555E-11 0.0 0.0 0.0 0.0 0.0 0.0 1:-64.0 2:-55.0 3:-74.0 4:-64.0 5:-81.0 6:-78.0 7:-87.0 8:-95.0 9:-77.0 10:-67.0 11:-85.0 12:-88.0 13:-95.0 14:-95.0 15:-95.0 16:-92.0 17:-95.0 18:-81.0 
-0.0 -0.0 0.0 0.0 0.0 0.0 0.0 0.0 0.0 0.0 0.0 0.0 7.63115394136925E-9 0.0 1:-59.0 2:-53.0 3:-76.0 4:-55.0 5:-74.0 6:-83.0 7:-95.0 8:-95.0 9:-64.0 10:-63.0 11:-95.0 12:-88.0 13:-95.0 14:-95.0 15:-95.0 16:-92.0 17:-95.0 18:-82.0 
-0.0 -2.5793209545947853E-9 0.0 0.0 0.0 0.0 0.0 0.0 0.0 0.0 0.0 0.0 0.0 0.0 1:-51.0 2:-60.0 3:-68.0 4:-55.0 5:-78.0 6:-83.0 7:-95.0 8:-95.0 9:-64.0 10:-63.0 11:-95.0 12:-88.0 13:-95.0 14:-95.0 15:-95.0 16:-92.0 17:-95.0 18:-82.0 
-0.0 -0.0 3.340960397192998E-8 0.0 0.0 0.0 0.0 0.0 0.0 0.0 0.0 0.0 0.0 0.0 1:-66.0 2:-39.0 3:-48.0 4:-50.0 5:-69.0 6:-76.0 7:-95.0 8:-90.0 9:-62.0 10:-59.0 11:-71.0 12:-95.0 13:-88.0 14:-95.0 15:-95.0 16:-95.0 17:-91.0 18:-74.0 
-0.0 -0.0 0.0 2.8971394302507265E-10 0.0 0.0 0.0 0.0 1.3497706254661445E-10 3.335768518269648E-11 1.0923347715570912E-11 0.0 0.0 2.0164097275150264E-10 1:-66.0 2:-55.0 3:-47.0 4:-60.0 5:-69.0 6:-76.0 7:-95.0 8:-90.0 9:-61.0 10:-59.0 11:-71.0 12:-88.0 13:-88.0 14:-95.0 15:-95.0 16:-85.0 17:-91.0 18:-74.0 
-0.0 -0.0 9.75267641516026E-9 0.0 0.0 0.0 0.0 0.0 0.0 0.0 0.0 0.0 0.0 0.0 1:-66.0 2:-43.0 3:-43.0 4:-56.0 5:-69.0 6:-76.0 7:-95.0 8:-95.0 9:-65.0 10:-56.0 11:-71.0 12:-88.0 13:-95.0 14:-95.0 15:-95.0 16:-85.0 17:-95.0 18:-74.0 
-0.0 -0.0 5.062184828967338E-9 0.0 0.0 0.0 0.0 0.0 0.0 0.0 0.0 0.0 0.0 0.0 1:-66.0 2:-51.0 3:-44.0 4:-55.0 5:-69.0 6:-76.0 7:-95.0 8:-95.0 9:-62.0 10:-58.0 11:-77.0 12:-88.0 13:-95.0 14:-95.0 15:-95.0 16:-85.0 17:-95.0 18:-79.0 
-0.0 -0.0 6.17227985013377E-8 0.0 0.0 0.0 0.0 0.0 0.0 0.0 0.0 0.0 0.0 0.0 1:-60.0 2:-53.0 3:-45.0 4:-51.0 5:-65.0 6:-72.0 7:-95.0 8:-95.0 9:-61.0 10:-64.0 11:-84.0 12:-88.0 13:-95.0 14:-95.0 15:-95.0 16:-85.0 17:-95.0 18:-79.0 
-0.0 -0.0 0.0 0.0 0.0 0.0 0.0 0.0 0.0 0.0 0.0 0.0 1.2810250671137219E-8 0.0 1:-61.0 2:-58.0 3:-56.0 4:-60.0 5:-68.0 6:-86.0 7:-95.0 8:-95.0 9:-62.0 10:-64.0 11:-95.0 12:-95.0 13:-95.0 14:-84.0 15:-95.0 16:-95.0 17:-95.0 18:-72.0 
-0.0 -0.0 0.0 0.0 0.0 0.0 0.0 0.0 0.0 6.975720100906317E-11 0.0 0.0 6.332348521823414E-9 0.0 1:-62.0 2:-58.0 3:-55.0 4:-53.0 5:-73.0 6:-73.0 7:-95.0 8:-95.0 9:-66.0 10:-57.0 11:-70.0 12:-80.0 13:-95.0 14:-95.0 15:-95.0 16:-86.0 17:-95.0 18:-76.0 
-0.0 -0.0 0.0 0.0 0.0 1.4037945468392339E-11 0.0 0.0 0.0 0.0 0.0 0.0 0.0 0.0 1:-62.0 2:-59.0 3:-55.0 4:-57.0 5:-70.0 6:-73.0 7:-95.0 8:-95.0 9:-66.0 10:-61.0 11:-70.0 12:-86.0 13:-95.0 14:-95.0 15:-95.0 16:-86.0 17:-95.0 18:-76.0 
-0.0 -0.0 0.0 0.0 0.0 1.618523871617308E-11 8.366837246533427E-12 0.0 0.0 0.0 0.0 0.0 0.0 0.0 1:-57.0 2:-61.0 3:-63.0 4:-60.0 5:-72.0 6:-73.0 7:-95.0 8:-95.0 9:-62.0 10:-61.0 11:-70.0 12:-86.0 13:-95.0 14:-95.0 15:-95.0 16:-86.0 17:-95.0 18:-76.0 
-0.0 -1.1441740242050697E-9 0.0 0.0 0.0 0.0 0.0 0.0 0.0 0.0 0.0 0.0 0.0 0.0 1:-64.0 2:-54.0 3:-50.0 4:-64.0 5:-71.0 6:-95.0 7:-95.0 8:-95.0 9:-68.0 10:-60.0 11:-95.0 12:-86.0 13:-95.0 14:-95.0 15:-95.0 16:-82.0 17:-95.0 18:-76.0 
-0.0 -9.484862728725568E-10 0.0 0.0 0.0 0.0 0.0 0.0 0.0 0.0 0.0 0.0 0.0 0.0 1:-66.0 2:-59.0 3:-55.0 4:-68.0 5:-68.0 6:-84.0 7:-95.0 8:-95.0 9:-69.0 10:-61.0 11:-84.0 12:-95.0 13:-84.0 14:-95.0 15:-95.0 16:-82.0 17:-95.0 18:-76.0 
-0.0 -0.0 0.0 0.0 0.0 0.0 0.0 0.0 0.0 0.0 0.0 2.2940560669693153E-11 0.0 0.0 1:-65.0 2:-61.0 3:-55.0 4:-64.0 5:-70.0 6:-84.0 7:-95.0 8:-84.0 9:-65.0 10:-57.0 11:-84.0 12:-95.0 13:-86.0 14:-95.0 15:-95.0 16:-76.0 17:-95.0 18:-81.0 
-0.0 -0.0 0.0 8.252103493270806E-11 4.049708922799842E-11 0.0 4.6026933746468734E-12 2.4185040043232493E-11 0.0 0.0 1.7907902131871343E-11 0.0 0.0 0.0 1:-74.0 2:-59.0 3:-59.0 4:-54.0 5:-75.0 6:-84.0 7:-95.0 8:-84.0 9:-58.0 10:-59.0 11:-84.0 12:-95.0 13:-86.0 14:-95.0 15:-95.0 16:-76.0 17:-95.0 18:-81.0 
-0.0 -0.0 -4.494589938625924E-8 0.0 0.0 0.0 0.0 0.0 0.0 0.0 0.0 0.0 6.456116213371268E-8 0.0 1:-56.0 2:-41.0 3:-48.0 4:-54.0 5:-62.0 6:-95.0 7:-95.0 8:-85.0 9:-60.0 10:-52.0 11:-95.0 12:-95.0 13:-95.0 14:-95.0 15:-95.0 16:-95.0 17:-95.0 18:-95.0 
-0.0 -0.0 -0.0 0.0 0.0 0.0 0.0 0.0 0.0 0.0 0.0 0.0 1.5150037324449953E-7 0.0 1:-62.0 2:-49.0 3:-49.0 4:-55.0 5:-58.0 6:-95.0 7:-95.0 8:-85.0 9:-60.0 10:-53.0 11:-95.0 12:-95.0 13:-95.0 14:-95.0 15:-95.0 16:-95.0 17:-95.0 18:-95.0 
-0.0 -0.0 -0.0 0.0 0.0 0.0 0.0 0.0 0.0 0.0 0.0 0.0 1.2164080827975356E-7 0.0 1:-62.0 2:-53.0 3:-59.0 4:-48.0 5:-58.0 6:-95.0 7:-95.0 8:-85.0 9:-55.0 10:-53.0 11:-95.0 12:-95.0 13:-95.0 14:-95.0 15:-95.0 16:-95.0 17:-95.0 18:-95.0 
-0.0 -0.0 -2.642345729999316E-10 0.0 8.62926077381774E-11 0.0 0.0 0.0 0.0 0.0 0.0 0.0 0.0 0.0 1:-71.0 2:-55.0 3:-56.0 4:-57.0 5:-63.0 6:-69.0 7:-95.0 8:-85.0 9:-59.0 10:-49.0 11:-95.0 12:-95.0 13:-95.0 14:-95.0 15:-95.0 16:-95.0 17:-95.0 18:-95.0 
-0.0 -0.0 -0.0 1.9999435462494216E-8 0.0 0.0 0.0 0.0 0.0 0.0 0.0 0.0 0.0 0.0 1:-71.0 2:-61.0 3:-51.0 4:-48.0 5:-62.0 6:-77.0 7:-95.0 8:-85.0 9:-60.0 10:-47.0 11:-95.0 12:-95.0 13:-95.0 14:-95.0 15:-95.0 16:-95.0 17:-95.0 18:-95.0 
-0.0 -0.0 -0.0 0.0 0.0 0.0 0.0 0.0 0.0 0.0 0.0 0.0 8.152875904934723E-9 0.0 1:-71.0 2:-64.0 3:-34.0 4:-44.0 5:-55.0 6:-67.0 7:-95.0 8:-95.0 9:-56.0 10:-51.0 11:-95.0 12:-95.0 13:-95.0 14:-95.0 15:-95.0 16:-95.0 17:-95.0 18:-95.0 
-0.0 -0.0 -1.1164997430275883E-8 0.0 0.0 0.0 0.0 0.0 0.0 0.0 0.0 0.0 0.0 0.0 1:-71.0 2:-57.0 3:-54.0 4:-48.0 5:-66.0 6:-81.0 7:-95.0 8:-95.0 9:-56.0 10:-56.0 11:-95.0 12:-95.0 13:-95.0 14:-95.0 15:-95.0 16:-95.0 17:-95.0 18:-95.0 
-0.0 -0.0 -0.0 0.0 0.0 0.0 0.0 0.0 0.0 0.0 0.0 0.0 5.705990474154598E-7 0.0 1:-66.0 2:-57.0 3:-57.0 4:-52.0 5:-62.0 6:-72.0 7:-95.0 8:-95.0 9:-56.0 10:-53.0 11:-95.0 12:-95.0 13:-95.0 14:-95.0 15:-95.0 16:-95.0 17:-95.0 18:-76.0 
-0.0 -1.6034142371916935E-10 -0.0 0.0 0.0 0.0 0.0 0.0 0.0 0.0 0.0 0.0 1.0922201317735397E-7 0.0 1:-68.0 2:-61.0 3:-61.0 4:-43.0 5:-62.0 6:-72.0 7:-95.0 8:-95.0 9:-56.0 10:-65.0 11:-95.0 12:-95.0 13:-95.0 14:-95.0 15:-95.0 16:-95.0 17:-95.0 18:-67.0 
-0.0 -0.0 -0.0 0.0 0.0 0.0 0.0 0.0 0.0 0.0 0.0 0.0 8.257759076664791E-8 0.0 1:-68.0 2:-61.0 3:-57.0 4:-41.0 5:-58.0 6:-72.0 7:-95.0 8:-95.0 9:-56.0 10:-56.0 11:-95.0 12:-82.0 13:-95.0 14:-95.0 15:-95.0 16:-95.0 17:-95.0 18:-67.0 
-0.0 -0.0 -0.0 1.7740008460348034E-9 0.0 0.0 0.0 0.0 0.0 0.0 0.0 0.0 0.0 0.0 1:-72.0 2:-56.0 3:-42.0 4:-60.0 5:-60.0 6:-72.0 7:-95.0 8:-95.0 9:-61.0 10:-59.0 11:-95.0 12:-82.0 13:-81.0 14:-95.0 15:-95.0 16:-95.0 17:-95.0 18:-73.0 
-0.0 -0.0 -0.0 1.598760272417002E-8 0.0 0.0 0.0 0.0 0.0 0.0 0.0 0.0 0.0 0.0 1:-74.0 2:-58.0 3:-56.0 4:-48.0 5:-65.0 6:-72.0 7:-95.0 8:-95.0 9:-53.0 10:-59.0 11:-95.0 12:-82.0 13:-81.0 14:-95.0 15:-95.0 16:-95.0 17:-95.0 18:-73.0 
-0.0 -0.0 -0.0 0.0 0.0 0.0 0.0 0.0 0.0 0.0 0.0 0.0 2.527035573083184E-7 0.0 1:-74.0 2:-54.0 3:-56.0 4:-56.0 5:-66.0 6:-95.0 7:-95.0 8:-95.0 9:-55.0 10:-59.0 11:-95.0 12:-82.0 13:-81.0 14:-95.0 15:-95.0 16:-95.0 17:-95.0 18:-73.0 
-0.0 -0.0 -0.0 5.262888797703037E-8 0.0 0.0 0.0 0.0 0.0 0.0 0.0 0.0 0.0 0.0 1:-74.0 2:-63.0 3:-48.0 4:-44.0 5:-62.0 6:-95.0 7:-95.0 8:-95.0 9:-59.0 10:-57.0 11:-95.0 12:-82.0 13:-81.0 14:-95.0 15:-95.0 16:-95.0 17:-95.0 18:-73.0 
-0.0 -0.0 -0.0 1.393606919783636E-7 0.0 0.0 0.0 0.0 0.0 0.0 0.0 0.0 0.0 0.0 1:-74.0 2:-59.0 3:-48.0 4:-44.0 5:-62.0 6:-95.0 7:-95.0 8:-95.0 9:-59.0 10:-57.0 11:-70.0 12:-82.0 13:-81.0 14:-95.0 15:-95.0 16:-95.0 17:-95.0 18:-73.0 
-0.0 -0.0 -0.0 0.0 0.0 0.0 0.0 0.0 0.0 0.0 0.0 0.0 1.447065296081937E-7 0.0 1:-70.0 2:-60.0 3:-48.0 4:-51.0 5:-59.0 6:-95.0 7:-95.0 8:-95.0 9:-55.0 10:-51.0 11:-67.0 12:-82.0 13:-95.0 14:-88.0 15:-95.0 16:-85.0 17:-95.0 18:-67.0 
-0.0 -0.0 -0.0 0.0 0.0 0.0 0.0 0.0 8.267483254806186E-11 0.0 0.0 0.0 0.0 0.0 1:-74.0 2:-52.0 3:-50.0 4:-57.0 5:-56.0 6:-65.0 7:-95.0 8:-95.0 9:-52.0 10:-55.0 11:-64.0 12:-82.0 13:-95.0 14:-88.0 15:-95.0 16:-85.0 17:-95.0 18:-67.0 
-0.0 -0.0 -0.0 0.0 0.0 0.0 0.0 0.0 0.0 0.0 0.0 5.224492441710145E-13 0.0 1.7539316023352954E-11 1:-69.0 2:-52.0 3:-46.0 4:-62.0 5:-63.0 6:-65.0 7:-95.0 8:-86.0 9:-56.0 10:-52.0 11:-64.0 12:-82.0 13:-95.0 14:-88.0 15:-95.0 16:-85.0 17:-95.0 18:-67.0 
-0.0 -0.0 -7.405670908679448E-8 0.0 0.0 0.0 0.0 0.0 0.0 0.0 0.0 0.0 0.0 0.0 1:-58.0 2:-50.0 3:-47.0 4:-55.0 5:-71.0 6:-74.0 7:-88.0 8:-83.0 9:-58.0 10:-59.0 11:-70.0 12:-82.0 13:-95.0 14:-95.0 15:-95.0 16:-85.0 17:-95.0 18:-67.0 
-0.0 -0.0 -0.0 0.0 0.0 0.0 0.0 0.0 0.0 0.0 0.0 0.0 0.0 1.383780349573691E-10 1:-72.0 2:-60.0 3:-44.0 4:-59.0 5:-61.0 6:-69.0 7:-88.0 8:-83.0 9:-53.0 10:-52.0 11:-71.0 12:-95.0 13:-95.0 14:-95.0 15:-95.0 16:-95.0 17:-95.0 18:-72.0 
-0.0 -0.0 -0.0 5.014800879779651E-9 0.0 0.0 0.0 0.0 0.0 0.0 0.0 0.0 0.0 0.0 1:-69.0 2:-61.0 3:-42.0 4:-57.0 5:-60.0 6:-83.0 7:-88.0 8:-83.0 9:-60.0 10:-53.0 11:-71.0 12:-77.0 13:-95.0 14:-95.0 15:-95.0 16:-95.0 17:-95.0 18:-72.0 
-0.0 -0.0 -0.0 0.0 0.0 0.0 0.0 1.2378980741674635E-11 0.0 0.0 0.0 0.0 7.766725787390457E-8 0.0 1:-69.0 2:-64.0 3:-45.0 4:-61.0 5:-66.0 6:-83.0 7:-88.0 8:-83.0 9:-59.0 10:-57.0 11:-71.0 12:-77.0 13:-95.0 14:-95.0 15:-95.0 16:-95.0 17:-95.0 18:-82.0 
-0.0 -0.0 -1.770414167191523E-8 0.0 0.0 0.0 0.0 0.0 0.0 0.0 0.0 0.0 0.0 0.0 1:-66.0 2:-60.0 3:-42.0 4:-52.0 5:-74.0 6:-83.0 7:-88.0 8:-95.0 9:-55.0 10:-57.0 11:-71.0 12:-91.0 13:-95.0 14:-95.0 15:-95.0 16:-95.0 17:-95.0 18:-82.0 
-0.0 -0.0 -2.249087600869084E-8 0.0 0.0 0.0 0.0 0.0 0.0 0.0 0.0 0.0 0.0 0.0 1:-66.0 2:-63.0 3:-46.0 4:-48.0 5:-74.0 6:-83.0 7:-95.0 8:-95.0 9:-59.0 10:-64.0 11:-71.0 12:-86.0 13:-95.0 14:-95.0 15:-95.0 16:-89.0 17:-95.0 18:-82.0 
-0.0 -0.0 -1.6471585868634624E-8 0.0 0.0 0.0 0.0 0.0 0.0 0.0 0.0 0.0 0.0 0.0 1:-64.0 2:-63.0 3:-45.0 4:-46.0 5:-74.0 6:-83.0 7:-95.0 8:-95.0 9:-59.0 10:-64.0 11:-71.0 12:-86.0 13:-95.0 14:-95.0 15:-95.0 16:-89.0 17:-95.0 18:-82.0 
-0.0 -0.0 -0.0 2.6092588187305527E-9 0.0 0.0 0.0 0.0 0.0 0.0 0.0 0.0 0.0 0.0 1:-68.0 2:-57.0 3:-60.0 4:-43.0 5:-59.0 6:-69.0 7:-88.0 8:-95.0 9:-58.0 10:-54.0 11:-79.0 12:-80.0 13:-95.0 14:-95.0 15:-95.0 16:-95.0 17:-95.0 18:-73.0 
-0.0 -0.0 -0.0 0.0 0.0 0.0 0.0 0.0 0.0 0.0 0.0 0.0 7.970403152367285E-7 0.0 1:-68.0 2:-54.0 3:-58.0 4:-58.0 5:-67.0 6:-82.0 7:-95.0 8:-95.0 9:-61.0 10:-61.0 11:-95.0 12:-79.0 13:-87.0 14:-95.0 15:-95.0 16:-95.0 17:-95.0 18:-78.0 
-1.1186413654434069E-10 -4.776815069748835E-10 -0.0 0.0 0.0 0.0 0.0 0.0 0.0 0.0 0.0 0.0 0.0 0.0 1:-68.0 2:-60.0 3:-58.0 4:-58.0 5:-67.0 6:-82.0 7:-95.0 8:-95.0 9:-66.0 10:-60.0 11:-95.0 12:-79.0 13:-87.0 14:-95.0 15:-95.0 16:-95.0 17:-95.0 18:-78.0 
-0.0 -0.0 -0.0 6.228419506682335E-8 0.0 0.0 0.0 0.0 0.0 0.0 0.0 0.0 0.0 0.0 1:-70.0 2:-61.0 3:-34.0 4:-46.0 5:-58.0 6:-82.0 7:-95.0 8:-78.0 9:-66.0 10:-64.0 11:-95.0 12:-84.0 13:-85.0 14:-95.0 15:-95.0 16:-95.0 17:-95.0 18:-80.0 
-0.0 -0.0 -0.0 7.825276421792339E-8 0.0 0.0 0.0 5.734969334856141E-12 1.7942615813978803E-10 0.0 2.6298064494324108E-12 0.0 1.2852798776438943E-7 1.9158235971509105E-10 1:-70.0 2:-61.0 3:-58.0 4:-46.0 5:-63.0 6:-71.0 7:-95.0 8:-78.0 9:-54.0 10:-49.0 11:-68.0 12:-84.0 13:-85.0 14:-95.0 15:-95.0 16:-95.0 17:-95.0 18:-68.0 
-0.0 -0.0 -0.0 2.437395719159933E-7 0.0 0.0 0.0 0.0 0.0 0.0 0.0 0.0 0.0 0.0 1:-70.0 2:-58.0 3:-43.0 4:-54.0 5:-57.0 6:-71.0 7:-95.0 8:-78.0 9:-60.0 10:-51.0 11:-68.0 12:-84.0 13:-85.0 14:-95.0 15:-95.0 16:-95.0 17:-95.0 18:-65.0 
-0.0 -0.0 -0.0 0.0 0.0 0.0 0.0 0.0 0.0 0.0 0.0 0.0 2.162436967799251E-7 0.0 1:-60.0 2:-54.0 3:-49.0 4:-37.0 5:-57.0 6:-71.0 7:-95.0 8:-95.0 9:-54.0 10:-51.0 11:-73.0 12:-95.0 13:-77.0 14:-95.0 15:-95.0 16:-95.0 17:-95.0 18:-65.0 
-0.0 -0.0 -0.0 0.0 0.0 0.0 0.0 0.0 0.0 0.0 0.0 0.0 6.715836183142207E-8 0.0 1:-65.0 2:-55.0 3:-59.0 4:-44.0 5:-60.0 6:-95.0 7:-95.0 8:-95.0 9:-55.0 10:-50.0 11:-73.0 12:-95.0 13:-77.0 14:-95.0 15:-95.0 16:-95.0 17:-95.0 18:-65.0 
-0.0 -0.0 -0.0 0.0 0.0 0.0 0.0 2.4329851546042736E-12 0.0 0.0 0.0 7.2644646353358736E-12 0.0 0.0 1:-69.0 2:-57.0 3:-45.0 4:-61.0 5:-65.0 6:-95.0 7:-95.0 8:-95.0 9:-55.0 10:-53.0 11:-73.0 12:-82.0 13:-77.0 14:-95.0 15:-95.0 16:-87.0 17:-95.0 18:-65.0 
-0.0 -0.0 -1.0514236605674591E-8 0.0 0.0 0.0 0.0 0.0 0.0 0.0 0.0 0.0 0.0 0.0 1:-69.0 2:-51.0 3:-53.0 4:-45.0 5:-63.0 6:-95.0 7:-95.0 8:-95.0 9:-66.0 10:-56.0 11:-73.0 12:-82.0 13:-88.0 14:-95.0 15:-95.0 16:-87.0 17:-95.0 18:-95.0 
-0.0 -0.0 -2.7544500459156022E-8 0.0 0.0 0.0 0.0 0.0 0.0 0.0 0.0 0.0 0.0 0.0 1:-65.0 2:-55.0 3:-59.0 4:-60.0 5:-65.0 6:-82.0 7:-95.0 8:-95.0 9:-53.0 10:-60.0 11:-95.0 12:-82.0 13:-88.0 14:-95.0 15:-95.0 16:-87.0 17:-95.0 18:-74.0 
-0.0 -0.0 -0.0 0.0 5.785759944347796E-10 0.0 0.0 0.0 0.0 0.0 0.0 0.0 0.0 0.0 1:-79.0 2:-56.0 3:-52.0 4:-61.0 5:-65.0 6:-76.0 7:-95.0 8:-95.0 9:-57.0 10:-57.0 11:-83.0 12:-89.0 13:-95.0 14:-95.0 15:-95.0 16:-95.0 17:-95.0 18:-76.0 
-0.0 -0.0 -0.0 2.9207902280036002E-8 1.5237008826282484E-10 0.0 0.0 0.0 0.0 0.0 0.0 0.0 0.0 0.0 1:-79.0 2:-68.0 3:-44.0 4:-54.0 5:-67.0 6:-76.0 7:-95.0 8:-95.0 9:-58.0 10:-58.0 11:-83.0 12:-89.0 13:-95.0 14:-95.0 15:-95.0 16:-95.0 17:-95.0 18:-76.0 
-0.0 -0.0 -0.0 8.058813923093318E-8 0.0 0.0 0.0 0.0 0.0 0.0 0.0 0.0 0.0 0.0 1:-79.0 2:-55.0 3:-58.0 4:-41.0 5:-63.0 6:-76.0 7:-95.0 8:-95.0 9:-55.0 10:-63.0 11:-83.0 12:-89.0 13:-95.0 14:-95.0 15:-95.0 16:-95.0 17:-95.0 18:-76.0 
-0.0 -0.0 -1.4296526457646946E-10 0.0 0.0 0.0 0.0 0.0 0.0 0.0 0.0 0.0 0.0 0.0 1:-69.0 2:-58.0 3:-52.0 4:-43.0 5:-65.0 6:-82.0 7:-95.0 8:-95.0 9:-59.0 10:-63.0 11:-83.0 12:-95.0 13:-95.0 14:-95.0 15:-95.0 16:-95.0 17:-95.0 18:-95.0 
-2.712518368500623E-11 -0.0 -2.360762749501965E-8 0.0 0.0 0.0 0.0 0.0 0.0 0.0 0.0 0.0 0.0 0.0 1:-69.0 2:-53.0 3:-52.0 4:-58.0 5:-64.0 6:-82.0 7:-95.0 8:-95.0 9:-55.0 10:-67.0 11:-83.0 12:-95.0 13:-95.0 14:-95.0 15:-95.0 16:-95.0 17:-95.0 18:-79.0 
-0.0 -0.0 -0.0 4.2407652773240555E-8 0.0 0.0 0.0 0.0 0.0 0.0 0.0 0.0 1.3063618029559517E-6 0.0 1:-66.0 2:-54.0 3:-57.0 4:-52.0 5:-59.0 6:-82.0 7:-95.0 8:-95.0 9:-63.0 10:-59.0 11:-83.0 12:-79.0 13:-95.0 14:-95.0 15:-95.0 16:-95.0 17:-95.0 18:-79.0 
-0.0 -0.0 -0.0 0.0 0.0 0.0 0.0 0.0 0.0 0.0 0.0 0.0 2.996509457982296E-8 0.0 1:-69.0 2:-53.0 3:-56.0 4:-52.0 5:-62.0 6:-95.0 7:-95.0 8:-95.0 9:-52.0 10:-57.0 11:-69.0 12:-79.0 13:-95.0 14:-95.0 15:-95.0 16:-86.0 17:-95.0 18:-79.0 
-0.0 -0.0 -0.0 7.964727189544631E-8 0.0 0.0 0.0 0.0 0.0 0.0 0.0 0.0 0.0 0.0 1:-66.0 2:-62.0 3:-46.0 4:-49.0 5:-55.0 6:-73.0 7:-95.0 8:-95.0 9:-60.0 10:-62.0 11:-69.0 12:-80.0 13:-95.0 14:-95.0 15:-95.0 16:-95.0 17:-95.0 18:-84.0 
-0.0 -0.0 -0.0 0.0 0.0 0.0 0.0 0.0 0.0 0.0 0.0 0.0 0.0 2.046834718248452E-10 1:-67.0 2:-59.0 3:-36.0 4:-47.0 5:-67.0 6:-62.0 7:-79.0 8:-76.0 9:-52.0 10:-52.0 11:-95.0 12:-76.0 13:-95.0 14:-95.0 15:-95.0 16:-89.0 17:-91.0 18:-73.0 
-0.0 -0.0 -0.0 3.9585778136369734E-8 0.0 0.0 0.0 0.0 0.0 0.0 0.0 0.0 0.0 0.0 1:-70.0 2:-57.0 3:-47.0 4:-42.0 5:-59.0 6:-62.0 7:-79.0 8:-76.0 9:-56.0 10:-61.0 11:-69.0 12:-76.0 13:-95.0 14:-95.0 15:-95.0 16:-89.0 17:-91.0 18:-70.0 
-0.0 -0.0 -0.0 0.0 0.0 0.0 2.2050842839932276E-11 0.0 0.0 6.847121090104519E-11 0.0 0.0 0.0 0.0 1:-62.0 2:-57.0 3:-56.0 4:-47.0 5:-60.0 6:-62.0 7:-79.0 8:-76.0 9:-51.0 10:-57.0 11:-69.0 12:-76.0 13:-95.0 14:-95.0 15:-95.0 16:-95.0 17:-91.0 18:-70.0 
-0.0 -0.0 -0.0 0.0 0.0 0.0 0.0 0.0 0.0 0.0 0.0 0.0 7.125418836234601E-8 0.0 1:-62.0 2:-61.0 3:-35.0 4:-52.0 5:-58.0 6:-62.0 7:-95.0 8:-95.0 9:-53.0 10:-51.0 11:-69.0 12:-95.0 13:-95.0 14:-95.0 15:-95.0 16:-95.0 17:-95.0 18:-70.0 
-0.0 -0.0 -0.0 0.0 0.0 0.0 0.0 0.0 0.0 0.0 0.0 0.0 3.1515306402150364E-7 3.865988593571672E-10 1:-76.0 2:-59.0 3:-56.0 4:-43.0 5:-58.0 6:-62.0 7:-95.0 8:-95.0 9:-55.0 10:-51.0 11:-69.0 12:-95.0 13:-81.0 14:-95.0 15:-95.0 16:-95.0 17:-95.0 18:-70.0 
-0.0 -0.0 -0.0 1.695962522672532E-7 4.462749513166365E-10 8.445714654731967E-11 0.0 0.0 0.0 0.0 0.0 0.0 0.0 2.367654407594829E-10 1:-76.0 2:-59.0 3:-59.0 4:-45.0 5:-54.0 6:-62.0 7:-95.0 8:-95.0 9:-55.0 10:-55.0 11:-69.0 12:-95.0 13:-81.0 14:-95.0 15:-95.0 16:-95.0 17:-95.0 18:-70.0 
-0.0 -0.0 -0.0 0.0 0.0 0.0 0.0 0.0 0.0 0.0 0.0 0.0 1.0716109237159046E-8 0.0 1:-70.0 2:-57.0 3:-41.0 4:-44.0 5:-66.0 6:-95.0 7:-95.0 8:-95.0 9:-52.0 10:-55.0 11:-95.0 12:-95.0 13:-81.0 14:-95.0 15:-95.0 16:-95.0 17:-95.0 18:-61.0 
-0.0 -0.0 -0.0 0.0 0.0 0.0 0.0 0.0 7.92757052422791E-11 0.0 0.0 0.0 0.0 0.0 1:-70.0 2:-56.0 3:-43.0 4:-58.0 5:-59.0 6:-75.0 7:-95.0 8:-95.0 9:-53.0 10:-52.0 11:-69.0 12:-79.0 13:-81.0 14:-95.0 15:-95.0 16:-95.0 17:-95.0 18:-64.0 
-0.0 -0.0 -0.0 0.0 0.0 0.0 0.0 0.0 0.0 0.0 0.0 0.0 1.7170588867319837E-7 0.0 1:-67.0 2:-48.0 3:-50.0 4:-53.0 5:-59.0 6:-74.0 7:-95.0 8:-95.0 9:-50.0 10:-60.0 11:-68.0 12:-79.0 13:-95.0 14:-95.0 15:-95.0 16:-95.0 17:-95.0 18:-64.0 
-0.0 -0.0 -0.0 0.0 0.0 0.0 0.0 0.0 0.0 0.0 0.0 0.0 1.4800387016232481E-8 0.0 1:-67.0 2:-63.0 3:-46.0 4:-55.0 5:-60.0 6:-74.0 7:-95.0 8:-95.0 9:-53.0 10:-60.0 11:-63.0 12:-79.0 13:-95.0 14:-95.0 15:-95.0 16:-95.0 17:-95.0 18:-64.0 
-0.0 -0.0 -0.0 0.0 0.0 0.0 0.0 0.0 0.0 0.0 0.0 0.0 3.260656373927163E-7 0.0 1:-67.0 2:-58.0 3:-51.0 4:-43.0 5:-64.0 6:-74.0 7:-95.0 8:-95.0 9:-59.0 10:-54.0 11:-63.0 12:-79.0 13:-95.0 14:-95.0 15:-95.0 16:-95.0 17:-95.0 18:-81.0 
-0.0 -0.0 -0.0 0.0 6.792868769056911E-10 0.0 0.0 0.0 0.0 0.0 0.0 0.0 0.0 0.0 1:-70.0 2:-59.0 3:-58.0 4:-46.0 5:-57.0 6:-74.0 7:-95.0 8:-95.0 9:-61.0 10:-55.0 11:-72.0 12:-95.0 13:-95.0 14:-95.0 15:-95.0 16:-95.0 17:-95.0 18:-81.0 
-0.0 -0.0 -0.0 0.0 6.828900667216823E-11 0.0 0.0 0.0 0.0 0.0 0.0 0.0 2.0809868896741022E-7 0.0 1:-70.0 2:-62.0 3:-58.0 4:-58.0 5:-60.0 6:-76.0 7:-95.0 8:-95.0 9:-58.0 10:-53.0 11:-80.0 12:-95.0 13:-95.0 14:-95.0 15:-95.0 16:-95.0 17:-95.0 18:-70.0 
-0.0 -0.0 -0.0 0.0 0.0 0.0 0.0 0.0 0.0 0.0 0.0 0.0 1.2262386841164003E-6 0.0 1:-62.0 2:-55.0 3:-50.0 4:-46.0 5:-60.0 6:-76.0 7:-95.0 8:-95.0 9:-58.0 10:-55.0 11:-80.0 12:-95.0 13:-95.0 14:-95.0 15:-95.0 16:-95.0 17:-95.0 18:-70.0 
-0.0 -0.0 -0.0 0.0 0.0 0.0 0.0 0.0 0.0 0.0 0.0 0.0 6.643051899941075E-8 0.0 1:-62.0 2:-53.0 3:-46.0 4:-48.0 5:-63.0 6:-68.0 7:-95.0 8:-95.0 9:-48.0 10:-50.0 11:-65.0 12:-95.0 13:-95.0 14:-95.0 15:-83.0 16:-95.0 17:-95.0 18:-79.0 
-0.0 -0.0 -0.0 0.0 0.0 0.0 0.0 0.0 0.0 0.0 0.0 0.0 2.3690730946775698E-7 0.0 1:-70.0 2:-67.0 3:-53.0 4:-42.0 5:-60.0 6:-78.0 7:-95.0 8:-95.0 9:-56.0 10:-60.0 11:-69.0 12:-95.0 13:-95.0 14:-95.0 15:-83.0 16:-95.0 17:-95.0 18:-73.0 
-0.0 -1.3583400204725219E-11 -0.0 0.0 0.0 0.0 0.0 0.0 0.0 0.0 0.0 0.0 2.333890058476604E-8 0.0 1:-68.0 2:-72.0 3:-57.0 4:-39.0 5:-60.0 6:-78.0 7:-85.0 8:-95.0 9:-59.0 10:-59.0 11:-69.0 12:-95.0 13:-95.0 14:-95.0 15:-83.0 16:-95.0 17:-95.0 18:-73.0 
-0.0 -0.0 -0.0 0.0 0.0 5.4132339785935786E-12 0.0 0.0 0.0 0.0 0.0 0.0 0.0 0.0 1:-68.0 2:-66.0 3:-60.0 4:-44.0 5:-69.0 6:-71.0 7:-85.0 8:-95.0 9:-55.0 10:-55.0 11:-75.0 12:-95.0 13:-95.0 14:-95.0 15:-95.0 16:-95.0 17:-95.0 18:-67.0 
-0.0 -0.0 -0.0 0.0 0.0 1.4671843565265015E-10 3.935836342586707E-11 0.0 0.0 5.103997647518273E-11 0.0 0.0 1.040990632384034E-7 0.0 1:-68.0 2:-58.0 3:-59.0 4:-57.0 5:-63.0 6:-71.0 7:-82.0 8:-95.0 9:-58.0 10:-56.0 11:-75.0 12:-77.0 13:-95.0 14:-95.0 15:-95.0 16:-95.0 17:-95.0 18:-67.0 
-0.0 -0.0 -0.0 0.0 0.0 0.0 0.0 0.0 0.0 0.0 0.0 0.0 1.0665094958822591E-7 0.0 1:-65.0 2:-54.0 3:-49.0 4:-48.0 5:-66.0 6:-68.0 7:-82.0 8:-95.0 9:-57.0 10:-49.0 11:-95.0 12:-77.0 13:-95.0 14:-95.0 15:-95.0 16:-95.0 17:-95.0 18:-65.0 
-0.0 -0.0 -0.0 0.0 0.0 0.0 0.0 0.0 2.76771736501824E-10 0.0 0.0 0.0 0.0 0.0 1:-63.0 2:-49.0 3:-57.0 4:-45.0 5:-61.0 6:-71.0 7:-82.0 8:-95.0 9:-55.0 10:-51.0 11:-66.0 12:-77.0 13:-77.0 14:-95.0 15:-95.0 16:-95.0 17:-95.0 18:-65.0 
-0.0 -0.0 -0.0 0.0 0.0 0.0 0.0 0.0 0.0 0.0 0.0 0.0 3.413600879087366E-7 0.0 1:-70.0 2:-57.0 3:-50.0 4:-37.0 5:-60.0 6:-67.0 7:-95.0 8:-95.0 9:-51.0 10:-60.0 11:-69.0 12:-95.0 13:-95.0 14:-95.0 15:-95.0 16:-95.0 17:-91.0 18:-68.0 
-0.0 -0.0 -1.0912673918645796E-8 0.0 0.0 0.0 0.0 0.0 0.0 0.0 0.0 0.0 4.4818522444694493E-8 0.0 1:-58.0 2:-52.0 3:-51.0 4:-44.0 5:-56.0 6:-70.0 7:-84.0 8:-95.0 9:-56.0 10:-58.0 11:-69.0 12:-95.0 13:-95.0 14:-95.0 15:-95.0 16:-95.0 17:-91.0 18:-71.0 
-0.0 -0.0 -0.0 0.0 0.0 0.0 0.0 0.0 5.078308233309978E-10 0.0 5.6328045233381045E-11 0.0 0.0 0.0 1:-68.0 2:-57.0 3:-46.0 4:-44.0 5:-61.0 6:-76.0 7:-76.0 8:-86.0 9:-53.0 10:-53.0 11:-66.0 12:-81.0 13:-76.0 14:-85.0 15:-95.0 16:-82.0 17:-95.0 18:-67.0 
-0.0 -0.0 -0.0 0.0 0.0 0.0 0.0 2.651101928081063E-11 0.0 1.1316180366756125E-10 0.0 2.757455461351725E-11 0.0 0.0 1:-68.0 2:-59.0 3:-54.0 4:-42.0 5:-64.0 6:-76.0 7:-76.0 8:-95.0 9:-52.0 10:-59.0 11:-66.0 12:-81.0 13:-76.0 14:-85.0 15:-95.0 16:-82.0 17:-95.0 18:-67.0 
-0.0 -0.0 -7.180298787391725E-9 0.0 0.0 0.0 0.0 0.0 0.0 0.0 0.0 0.0 0.0 0.0 1:-66.0 2:-46.0 3:-50.0 4:-45.0 5:-68.0 6:-78.0 7:-76.0 8:-95.0 9:-53.0 10:-59.0 11:-66.0 12:-81.0 13:-76.0 14:-85.0 15:-95.0 16:-82.0 17:-95.0 18:-67.0 
-0.0 -2.0473160812647405E-10 -2.7863999703335065E-8 0.0 0.0 0.0 0.0 0.0 0.0 0.0 0.0 0.0 3.841170803901921E-7 0.0 1:-61.0 2:-51.0 3:-57.0 4:-52.0 5:-64.0 6:-69.0 7:-95.0 8:-95.0 9:-59.0 10:-55.0 11:-66.0 12:-95.0 13:-95.0 14:-85.0 15:-95.0 16:-95.0 17:-95.0 18:-67.0 
-1.6717459168206387E-12 -0.0 -0.0 -0.0 0.0 0.0 0.0 0.0 0.0 0.0 0.0 0.0 0.0 0.0 1:-95.0 2:-56.0 3:-49.0 4:-39.0 5:-61.0 6:-95.0 7:-95.0 8:-95.0 9:-59.0 10:-63.0 11:-95.0 12:-95.0 13:-95.0 14:-95.0 15:-95.0 16:-95.0 17:-95.0 18:-95.0 
-0.0 -0.0 -0.0 -0.0 0.0 0.0 0.0 0.0 0.0 0.0 0.0 0.0 1.3116638414156825E-8 0.0 1:-95.0 2:-59.0 3:-49.0 4:-51.0 5:-52.0 6:-69.0 7:-95.0 8:-95.0 9:-56.0 10:-58.0 11:-76.0 12:-95.0 13:-95.0 14:-95.0 15:-95.0 16:-95.0 17:-95.0 18:-95.0 
-0.0 -0.0 -0.0 -0.0 9.205558521072179E-8 0.0 0.0 0.0 0.0 0.0 0.0 0.0 0.0 0.0 1:-95.0 2:-65.0 3:-49.0 4:-57.0 5:-46.0 6:-76.0 7:-95.0 8:-95.0 9:-59.0 10:-65.0 11:-77.0 12:-82.0 13:-95.0 14:-95.0 15:-90.0 16:-95.0 17:-95.0 18:-75.0 
-0.0 -0.0 -0.0 -0.0 0.0 0.0 0.0 0.0 0.0 0.0 0.0 0.0 2.4104725984609745E-9 0.0 1:-77.0 2:-63.0 3:-47.0 4:-56.0 5:-48.0 6:-76.0 7:-85.0 8:-95.0 9:-45.0 10:-53.0 11:-77.0 12:-82.0 13:-95.0 14:-95.0 15:-90.0 16:-95.0 17:-95.0 18:-75.0 
-0.0 -0.0 -0.0 -0.0 0.0 0.0 4.8150767882374135E-11 0.0 0.0 0.0 0.0 0.0 0.0 0.0 1:-72.0 2:-73.0 3:-55.0 4:-59.0 5:-50.0 6:-71.0 7:-71.0 8:-82.0 9:-59.0 10:-62.0 11:-78.0 12:-75.0 13:-81.0 14:-95.0 15:-95.0 16:-95.0 17:-90.0 18:-95.0 
-0.0 -0.0 -0.0 -0.0 0.0 0.0 0.0 2.6544516101648764E-11 0.0 0.0 6.298997430954208E-11 2.193882170142099E-11 0.0 0.0 1:-72.0 2:-62.0 3:-58.0 4:-46.0 5:-55.0 6:-71.0 7:-71.0 8:-76.0 9:-59.0 10:-56.0 11:-72.0 12:-75.0 13:-81.0 14:-95.0 15:-95.0 16:-88.0 17:-90.0 18:-70.0 
-0.0 -0.0 -0.0 -3.192764627209627E-8 0.0 0.0 0.0 0.0 0.0 0.0 0.0 0.0 0.0 0.0 1:-69.0 2:-59.0 3:-51.0 4:-47.0 5:-57.0 6:-74.0 7:-95.0 8:-87.0 9:-68.0 10:-56.0 11:-75.0 12:-76.0 13:-95.0 14:-95.0 15:-95.0 16:-88.0 17:-95.0 18:-80.0 
-0.0 -0.0 -6.475859152601973E-10 -4.131242843591394E-7 0.0 0.0 0.0 0.0 0.0 0.0 0.0 0.0 0.0 0.0 1:-69.0 2:-55.0 3:-46.0 4:-48.0 5:-58.0 6:-82.0 7:-95.0 8:-87.0 9:-59.0 10:-55.0 11:-77.0 12:-81.0 13:-82.0 14:-95.0 15:-95.0 16:-95.0 17:-95.0 18:-77.0 
-0.0 -0.0 -0.0 -1.4144520147585728E-7 0.0 0.0 0.0 0.0 0.0 0.0 0.0 0.0 0.0 0.0 1:-69.0 2:-59.0 3:-49.0 4:-39.0 5:-57.0 6:-72.0 7:-95.0 8:-87.0 9:-57.0 10:-56.0 11:-76.0 12:-81.0 13:-82.0 14:-95.0 15:-95.0 16:-95.0 17:-95.0 18:-69.0 
-0.0 -0.0 -0.0 -0.0 0.0 0.0 0.0 0.0 0.0 0.0 0.0 0.0 0.0 9.879284070314443E-10 1:-95.0 2:-67.0 3:-56.0 4:-47.0 5:-53.0 6:-69.0 7:-85.0 8:-78.0 9:-52.0 10:-50.0 11:-76.0 12:-77.0 13:-82.0 14:-95.0 15:-95.0 16:-95.0 17:-95.0 18:-77.0 
-0.0 -0.0 -0.0 -0.0 1.1450738435591496E-7 1.3264713790037658E-10 1.7769927588854537E-11 0.0 0.0 0.0 0.0 0.0 0.0 0.0 1:-95.0 2:-68.0 3:-56.0 4:-52.0 5:-49.0 6:-69.0 7:-85.0 8:-78.0 9:-51.0 10:-55.0 11:-76.0 12:-77.0 13:-95.0 14:-95.0 15:-95.0 16:-95.0 17:-95.0 18:-77.0 
-0.0 -0.0 -0.0 -0.0 2.0226783853334906E-8 0.0 0.0 0.0 0.0 0.0 0.0 0.0 0.0 0.0 1:-76.0 2:-66.0 3:-53.0 4:-53.0 5:-51.0 6:-69.0 7:-79.0 8:-95.0 9:-54.0 10:-55.0 11:-78.0 12:-77.0 13:-95.0 14:-95.0 15:-95.0 16:-95.0 17:-95.0 18:-73.0 
-0.0 -0.0 -0.0 -0.0 0.0 0.0 0.0 0.0 1.1127907163623024E-10 0.0 0.0 0.0 0.0 0.0 1:-71.0 2:-66.0 3:-48.0 4:-54.0 5:-50.0 6:-69.0 7:-79.0 8:-89.0 9:-46.0 10:-55.0 11:-66.0 12:-77.0 13:-95.0 14:-95.0 15:-95.0 16:-95.0 17:-95.0 18:-70.0 
-0.0 -0.0 -0.0 -0.0 0.0 0.0 0.0 1.0877705582300457E-12 6.586881989899441E-11 6.584590472352454E-11 0.0 0.0 0.0 0.0 1:-71.0 2:-65.0 3:-55.0 4:-45.0 5:-59.0 6:-95.0 7:-75.0 8:-89.0 9:-49.0 10:-53.0 11:-66.0 12:-75.0 13:-95.0 14:-95.0 15:-95.0 16:-95.0 17:-95.0 18:-67.0 
-0.0 -0.0 -0.0 -1.7349967368018666E-8 0.0 0.0 0.0 0.0 0.0 0.0 0.0 0.0 0.0 0.0 1:-71.0 2:-66.0 3:-43.0 4:-56.0 5:-56.0 6:-95.0 7:-75.0 8:-89.0 9:-47.0 10:-61.0 11:-66.0 12:-75.0 13:-95.0 14:-95.0 15:-95.0 16:-95.0 17:-95.0 18:-66.0 
-0.0 -0.0 -0.0 -0.0 0.0 0.0 0.0 0.0 2.6773820828270826E-10 1.6466679251100545E-10 0.0 0.0 0.0 1.217178071302944E-10 1:-71.0 2:-67.0 3:-45.0 4:-56.0 5:-56.0 6:-68.0 7:-75.0 8:-89.0 9:-51.0 10:-57.0 11:-66.0 12:-75.0 13:-95.0 14:-95.0 15:-95.0 16:-95.0 17:-95.0 18:-66.0 
-0.0 -0.0 -0.0 -0.0 0.0 0.0 0.0 0.0 3.1995424412731464E-10 0.0 0.0 0.0 0.0 0.0 1:-71.0 2:-69.0 3:-49.0 4:-47.0 5:-55.0 6:-68.0 7:-75.0 8:-89.0 9:-61.0 10:-53.0 11:-66.0 12:-77.0 13:-76.0 14:-95.0 15:-95.0 16:-95.0 17:-95.0 18:-71.0 
-0.0 -0.0 -0.0 -0.0 0.0 2.9160726816405787E-10 1.0222125962134141E-11 1.4613111461621894E-11 0.0 3.945513546472952E-11 0.0 6.736380531168772E-12 0.0 4.109753191370483E-10 1:-71.0 2:-73.0 3:-53.0 4:-59.0 5:-59.0 6:-68.0 7:-75.0 8:-95.0 9:-63.0 10:-55.0 11:-70.0 12:-77.0 13:-76.0 14:-95.0 15:-95.0 16:-95.0 17:-95.0 18:-71.0 
-0.0 -0.0 -5.063101760071531E-11 -1.0583947823176758E-9 0.0 0.0 0.0 0.0 0.0 0.0 0.0 0.0 8.151494427586603E-10 0.0 1:-71.0 2:-65.0 3:-55.0 4:-46.0 5:-62.0 6:-68.0 7:-75.0 8:-95.0 9:-58.0 10:-54.0 11:-70.0 12:-86.0 13:-76.0 14:-95.0 15:-95.0 16:-95.0 17:-95.0 18:-76.0 
-0.0 -0.0 -0.0 -0.0 8.126028352458132E-8 0.0 0.0 0.0 0.0 0.0 0.0 0.0 0.0 0.0 1:-84.0 2:-61.0 3:-59.0 4:-59.0 5:-53.0 6:-76.0 7:-95.0 8:-95.0 9:-58.0 10:-54.0 11:-77.0 12:-83.0 13:-76.0 14:-95.0 15:-95.0 16:-95.0 17:-95.0 18:-84.0 
-0.0 -0.0 -0.0 -0.0 0.0 0.0 0.0 0.0 0.0 0.0 0.0 0.0 2.1685528520619747E-9 0.0 1:-84.0 2:-59.0 3:-62.0 4:-44.0 5:-59.0 6:-81.0 7:-95.0 8:-95.0 9:-66.0 10:-55.0 11:-77.0 12:-83.0 13:-95.0 14:-95.0 15:-95.0 16:-89.0 17:-95.0 18:-86.0 
-0.0 -0.0 -0.0 -0.0 1.6002947228045939E-7 0.0 0.0 0.0 0.0 0.0 0.0 0.0 0.0 0.0 1:-86.0 2:-70.0 3:-53.0 4:-58.0 5:-55.0 6:-78.0 7:-86.0 8:-95.0 9:-61.0 10:-57.0 11:-76.0 12:-83.0 13:-95.0 14:-95.0 15:-95.0 16:-89.0 17:-95.0 18:-77.0 
-0.0 -0.0 -0.0 -0.0 9.761993823534195E-8 0.0 0.0 0.0 0.0 0.0 0.0 0.0 0.0 0.0 1:-83.0 2:-60.0 3:-57.0 4:-46.0 5:-50.0 6:-76.0 7:-85.0 8:-86.0 9:-63.0 10:-59.0 11:-85.0 12:-95.0 13:-95.0 14:-95.0 15:-95.0 16:-95.0 17:-95.0 18:-79.0 
-0.0 -0.0 -0.0 -0.0 5.351047669944037E-7 0.0 0.0 0.0 0.0 0.0 0.0 0.0 0.0 0.0 1:-83.0 2:-58.0 3:-59.0 4:-61.0 5:-51.0 6:-71.0 7:-85.0 8:-86.0 9:-66.0 10:-52.0 11:-75.0 12:-95.0 13:-95.0 14:-95.0 15:-95.0 16:-95.0 17:-95.0 18:-79.0 
-0.0 -0.0 -0.0 -0.0 1.8591168218730423E-7 2.0959932235080585E-11 0.0 0.0 0.0 0.0 0.0 0.0 0.0 0.0 1:-95.0 2:-57.0 3:-57.0 4:-61.0 5:-52.0 6:-70.0 7:-95.0 8:-95.0 9:-64.0 10:-55.0 11:-78.0 12:-95.0 13:-95.0 14:-95.0 15:-95.0 16:-95.0 17:-95.0 18:-95.0 
-0.0 -0.0 -0.0 -0.0 2.6121964877812343E-7 0.0 0.0 0.0 0.0 0.0 0.0 0.0 0.0 0.0 1:-95.0 2:-63.0 3:-51.0 4:-46.0 5:-54.0 6:-70.0 7:-84.0 8:-95.0 9:-70.0 10:-58.0 11:-78.0 12:-95.0 13:-95.0 14:-95.0 15:-95.0 16:-95.0 17:-95.0 18:-80.0 
-0.0 -0.0 -0.0 -0.0 0.0 1.0222444080615107E-11 0.0 0.0 0.0 0.0 0.0 0.0 0.0 0.0 1:-95.0 2:-62.0 3:-56.0 4:-46.0 5:-54.0 6:-70.0 7:-84.0 8:-95.0 9:-70.0 10:-61.0 11:-78.0 12:-95.0 13:-95.0 14:-95.0 15:-95.0 16:-95.0 17:-95.0 18:-68.0 
-0.0 -0.0 -0.0 -0.0 0.0 0.0 0.0 0.0 0.0 0.0 0.0 0.0 3.776887566498124E-8 0.0 1:-71.0 2:-64.0 3:-58.0 4:-44.0 5:-55.0 6:-69.0 7:-85.0 8:-95.0 9:-60.0 10:-55.0 11:-67.0 12:-81.0 13:-95.0 14:-95.0 15:-95.0 16:-95.0 17:-95.0 18:-68.0 
-0.0 -0.0 -0.0 -0.0 0.0 0.0 0.0 0.0 0.0 0.0 0.0 0.0 0.0 2.7036652101576515E-10 1:-95.0 2:-61.0 3:-49.0 4:-42.0 5:-43.0 6:-61.0 7:-95.0 8:-72.0 9:-57.0 10:-54.0 11:-69.0 12:-77.0 13:-95.0 14:-95.0 15:-95.0 16:-95.0 17:-95.0 18:-56.0 
-0.0 -0.0 -0.0 -0.0 0.0 0.0 0.0 0.0 0.0 2.6547573309585934E-11 0.0 0.0 0.0 0.0 1:-95.0 2:-60.0 3:-50.0 4:-42.0 5:-58.0 6:-63.0 7:-95.0 8:-72.0 9:-63.0 10:-58.0 11:-69.0 12:-77.0 13:-95.0 14:-95.0 15:-95.0 16:-95.0 17:-95.0 18:-57.0 
-0.0 -0.0 -0.0 -0.0 0.0 0.0 6.073171882327234E-12 0.0 0.0 0.0 0.0 0.0 0.0 0.0 1:-95.0 2:-64.0 3:-56.0 4:-44.0 5:-48.0 6:-63.0 7:-85.0 8:-72.0 9:-67.0 10:-50.0 11:-71.0 12:-95.0 13:-95.0 14:-95.0 15:-95.0 16:-95.0 17:-95.0 18:-57.0 
-0.0 -0.0 -0.0 -0.0 0.0 0.0 0.0 0.0 6.950939431829022E-11 0.0 0.0 0.0 0.0 0.0 1:-95.0 2:-60.0 3:-50.0 4:-40.0 5:-40.0 6:-65.0 7:-85.0 8:-86.0 9:-55.0 10:-55.0 11:-72.0 12:-95.0 13:-95.0 14:-95.0 15:-95.0 16:-95.0 17:-88.0 18:-56.0 
-0.0 -0.0 -0.0 -0.0 0.0 2.990851222952195E-11 0.0 0.0 0.0 0.0 0.0 0.0 0.0 0.0 1:-95.0 2:-65.0 3:-58.0 4:-44.0 5:-46.0 6:-65.0 7:-85.0 8:-86.0 9:-62.0 10:-52.0 11:-72.0 12:-95.0 13:-95.0 14:-95.0 15:-95.0 16:-95.0 17:-88.0 18:-71.0 
-0.0 -0.0 -0.0 -1.1465307829120393E-8 0.0 0.0 0.0 0.0 0.0 0.0 0.0 0.0 4.799934280877787E-9 8.469591463656911E-10 1:-78.0 2:-63.0 3:-55.0 4:-57.0 5:-63.0 6:-67.0 7:-85.0 8:-86.0 9:-57.0 10:-51.0 11:-72.0 12:-95.0 13:-95.0 14:-95.0 15:-95.0 16:-95.0 17:-88.0 18:-71.0 
-0.0 -0.0 -0.0 -1.3659572933119073E-8 0.0 0.0 0.0 0.0 0.0 0.0 0.0 0.0 0.0 0.0 1:-78.0 2:-63.0 3:-48.0 4:-45.0 5:-60.0 6:-67.0 7:-95.0 8:-86.0 9:-60.0 10:-50.0 11:-72.0 12:-95.0 13:-70.0 14:-95.0 15:-95.0 16:-95.0 17:-88.0 18:-71.0 
-0.0 -0.0 -0.0 -0.0 0.0 0.0 0.0 0.0 0.0 0.0 0.0 7.089835523316084E-12 0.0 0.0 1:-78.0 2:-61.0 3:-54.0 4:-61.0 5:-57.0 6:-67.0 7:-95.0 8:-86.0 9:-61.0 10:-61.0 11:-72.0 12:-95.0 13:-70.0 14:-95.0 15:-95.0 16:-95.0 17:-88.0 18:-71.0 
-0.0 -0.0 -0.0 -0.0 1.5620280270479014E-8 0.0 0.0 0.0 0.0 0.0 0.0 0.0 0.0 0.0 1:-71.0 2:-64.0 3:-47.0 4:-54.0 5:-38.0 6:-69.0 7:-88.0 8:-78.0 9:-58.0 10:-57.0 11:-81.0 12:-95.0 13:-70.0 14:-95.0 15:-95.0 16:-95.0 17:-95.0 18:-82.0 
-0.0 -0.0 -0.0 -0.0 4.761195925564696E-8 0.0 0.0 0.0 0.0 0.0 0.0 0.0 0.0 0.0 1:-71.0 2:-64.0 3:-45.0 4:-54.0 5:-38.0 6:-69.0 7:-88.0 8:-78.0 9:-58.0 10:-53.0 11:-81.0 12:-95.0 13:-95.0 14:-95.0 15:-95.0 16:-95.0 17:-95.0 18:-82.0 
-0.0 -0.0 -0.0 -0.0 0.0 0.0 0.0 0.0 4.799396983148396E-10 0.0 0.0 0.0 2.0856380203895138E-8 0.0 1:-95.0 2:-54.0 3:-54.0 4:-41.0 5:-55.0 6:-69.0 7:-88.0 8:-95.0 9:-56.0 10:-51.0 11:-76.0 12:-78.0 13:-95.0 14:-95.0 15:-95.0 16:-95.0 17:-95.0 18:-61.0 
-0.0 -0.0 -0.0 -0.0 0.0 0.0 0.0 0.0 0.0 1.0726949941471081E-11 0.0 0.0 0.0 0.0 1:-95.0 2:-61.0 3:-60.0 4:-38.0 5:-51.0 6:-69.0 7:-88.0 8:-95.0 9:-59.0 10:-55.0 11:-76.0 12:-78.0 13:-95.0 14:-95.0 15:-95.0 16:-95.0 17:-95.0 18:-61.0 
-0.0 -0.0 -0.0 -1.0058095944335393E-7 0.0 0.0 0.0 0.0 0.0 0.0 0.0 0.0 9.250246533399763E-8 0.0 1:-73.0 2:-60.0 3:-56.0 4:-43.0 5:-60.0 6:-70.0 7:-95.0 8:-95.0 9:-53.0 10:-55.0 11:-76.0 12:-78.0 13:-81.0 14:-95.0 15:-95.0 16:-95.0 17:-95.0 18:-71.0 
-0.0 -0.0 -0.0 -0.0 0.0 0.0 0.0 8.325661386836038E-12 0.0 0.0 0.0 8.259299979771647E-14 0.0 0.0 1:-67.0 2:-65.0 3:-64.0 4:-65.0 5:-60.0 6:-70.0 7:-95.0 8:-76.0 9:-56.0 10:-56.0 11:-80.0 12:-95.0 13:-81.0 14:-95.0 15:-95.0 16:-95.0 17:-95.0 18:-71.0 
-0.0 -0.0 -0.0 -1.2348924550019912E-8 0.0 0.0 0.0 0.0 0.0 0.0 0.0 0.0 0.0 0.0 1:-67.0 2:-65.0 3:-60.0 4:-65.0 5:-59.0 6:-70.0 7:-95.0 8:-76.0 9:-54.0 10:-56.0 11:-80.0 12:-95.0 13:-81.0 14:-95.0 15:-95.0 16:-95.0 17:-95.0 18:-71.0 
-0.0 -0.0 -0.0 -0.0 0.0 0.0 0.0 0.0 0.0 0.0 0.0 0.0 2.5900915385538033E-9 0.0 1:-67.0 2:-68.0 3:-64.0 4:-59.0 5:-58.0 6:-68.0 7:-95.0 8:-76.0 9:-55.0 10:-57.0 11:-80.0 12:-95.0 13:-95.0 14:-95.0 15:-95.0 16:-95.0 17:-95.0 18:-71.0 
-4.60583054108384E-11 -2.840692957120334E-10 -4.551035240579818E-10 -0.0 0.0 0.0 0.0 0.0 0.0 0.0 0.0 0.0 0.0 0.0 1:-67.0 2:-68.0 3:-61.0 4:-59.0 5:-61.0 6:-75.0 7:-95.0 8:-76.0 9:-62.0 10:-62.0 11:-77.0 12:-95.0 13:-95.0 14:-95.0 15:-95.0 16:-95.0 17:-95.0 18:-71.0 
-0.0 -7.525356190905448E-11 -0.0 -0.0 3.178871204177527E-7 0.0 0.0 0.0 0.0 0.0 0.0 0.0 0.0 0.0 1:-80.0 2:-65.0 3:-61.0 4:-51.0 5:-56.0 6:-75.0 7:-95.0 8:-95.0 9:-64.0 10:-62.0 11:-77.0 12:-95.0 13:-95.0 14:-95.0 15:-95.0 16:-95.0 17:-95.0 18:-71.0 
-1.3206597150918467E-11 -0.0 -3.5145224934900126E-10 -0.0 1.0081292973946435E-6 0.0 0.0 0.0 0.0 0.0 0.0 0.0 0.0 0.0 1:-80.0 2:-67.0 3:-60.0 4:-53.0 5:-57.0 6:-75.0 7:-95.0 8:-95.0 9:-62.0 10:-60.0 11:-77.0 12:-95.0 13:-95.0 14:-95.0 15:-95.0 16:-95.0 17:-95.0 18:-95.0 
-0.0 -0.0 -0.0 -1.5445518575974697E-7 0.0 0.0 0.0 0.0 0.0 0.0 0.0 0.0 3.528572309935888E-8 0.0 1:-80.0 2:-67.0 3:-56.0 4:-46.0 5:-64.0 6:-75.0 7:-95.0 8:-95.0 9:-61.0 10:-55.0 11:-72.0 12:-95.0 13:-95.0 14:-95.0 15:-95.0 16:-95.0 17:-95.0 18:-69.0 
-0.0 -0.0 -0.0 -0.0 0.0 0.0 0.0 0.0 0.0 0.0 0.0 0.0 2.211164638016111E-8 0.0 1:-85.0 2:-67.0 3:-63.0 4:-46.0 5:-64.0 6:-75.0 7:-95.0 8:-95.0 9:-60.0 10:-54.0 11:-72.0 12:-95.0 13:-95.0 14:-95.0 15:-95.0 16:-95.0 17:-95.0 18:-70.0 
-0.0 -0.0 -0.0 -0.0 0.0 0.0 0.0 0.0 0.0 0.0 0.0 0.0 1.819720284073946E-8 0.0 1:-78.0 2:-69.0 3:-57.0 4:-50.0 5:-58.0 6:-75.0 7:-95.0 8:-95.0 9:-59.0 10:-52.0 11:-72.0 12:-95.0 13:-95.0 14:-95.0 15:-95.0 16:-95.0 17:-95.0 18:-73.0 
-0.0 -0.0 -0.0 -0.0 9.064007872981505E-7 0.0 0.0 0.0 0.0 0.0 0.0 0.0 0.0 0.0 1:-78.0 2:-69.0 3:-56.0 4:-55.0 5:-49.0 6:-75.0 7:-95.0 8:-95.0 9:-59.0 10:-59.0 11:-72.0 12:-95.0 13:-95.0 14:-95.0 15:-95.0 16:-95.0 17:-95.0 18:-73.0 
-4.738252916970005E-12 -0.0 -0.0 -0.0 0.0 0.0 0.0 0.0 0.0 0.0 0.0 0.0 0.0 0.0 1:-78.0 2:-70.0 3:-59.0 4:-53.0 5:-59.0 6:-95.0 7:-95.0 8:-95.0 9:-61.0 10:-57.0 11:-72.0 12:-95.0 13:-95.0 14:-95.0 15:-95.0 16:-95.0 17:-95.0 18:-73.0 
-0.0 -0.0 -0.0 -0.0 5.8411761425106216E-8 0.0 0.0 0.0 0.0 0.0 0.0 0.0 0.0 0.0 1:-78.0 2:-75.0 3:-59.0 4:-52.0 5:-57.0 6:-77.0 7:-78.0 8:-95.0 9:-62.0 10:-57.0 11:-76.0 12:-95.0 13:-88.0 14:-95.0 15:-95.0 16:-95.0 17:-95.0 18:-77.0 
-0.0 -0.0 -0.0 -1.5206627955049913E-8 0.0 0.0 0.0 0.0 0.0 0.0 0.0 0.0 0.0 0.0 1:-76.0 2:-65.0 3:-48.0 4:-47.0 5:-58.0 6:-95.0 7:-82.0 8:-95.0 9:-55.0 10:-59.0 11:-74.0 12:-95.0 13:-86.0 14:-95.0 15:-95.0 16:-95.0 17:-95.0 18:-68.0 
-0.0 -0.0 -0.0 -1.3355845746884722E-7 0.0 0.0 0.0 0.0 0.0 0.0 0.0 0.0 0.0 0.0 1:-76.0 2:-59.0 3:-47.0 4:-56.0 5:-57.0 6:-65.0 7:-95.0 8:-81.0 9:-58.0 10:-62.0 11:-72.0 12:-95.0 13:-95.0 14:-95.0 15:-95.0 16:-95.0 17:-95.0 18:-68.0 
-0.0 -0.0 -0.0 -0.0 1.491524337691668E-8 0.0 0.0 0.0 0.0 0.0 0.0 0.0 0.0 0.0 1:-76.0 2:-69.0 3:-59.0 4:-44.0 5:-55.0 6:-65.0 7:-95.0 8:-81.0 9:-62.0 10:-57.0 11:-95.0 12:-88.0 13:-95.0 14:-95.0 15:-95.0 16:-95.0 17:-95.0 18:-77.0 
-0.0 -0.0 -0.0 -0.0 3.277052685779074E-7 0.0 0.0 0.0 0.0 0.0 0.0 0.0 0.0 0.0 1:-76.0 2:-63.0 3:-62.0 4:-58.0 5:-50.0 6:-65.0 7:-95.0 8:-81.0 9:-62.0 10:-57.0 11:-71.0 12:-88.0 13:-95.0 14:-95.0 15:-95.0 16:-95.0 17:-95.0 18:-77.0 
-0.0 -0.0 -0.0 -1.65036762739346E-8 0.0 0.0 0.0 0.0 0.0 0.0 0.0 0.0 2.1495852904838263E-9 0.0 1:-71.0 2:-60.0 3:-56.0 4:-53.0 5:-58.0 6:-65.0 7:-95.0 8:-81.0 9:-62.0 10:-57.0 11:-71.0 12:-88.0 13:-95.0 14:-95.0 15:-95.0 16:-95.0 17:-95.0 18:-77.0 
-4.0374522352761756E-11 -1.629245446337146E-10 -1.6463515219418763E-10 -0.0 0.0 0.0 0.0 0.0 0.0 0.0 0.0 0.0 8.37756474218774E-9 0.0 1:-75.0 2:-66.0 3:-54.0 4:-61.0 5:-59.0 6:-95.0 7:-95.0 8:-95.0 9:-59.0 10:-55.0 11:-82.0 12:-81.0 13:-95.0 14:-95.0 15:-95.0 16:-95.0 17:-95.0 18:-73.0 
-0.0 -0.0 -0.0 -0.0 4.9278625445019785E-8 0.0 0.0 0.0 0.0 0.0 0.0 0.0 0.0 0.0 1:-75.0 2:-69.0 3:-62.0 4:-59.0 5:-51.0 6:-71.0 7:-95.0 8:-95.0 9:-55.0 10:-54.0 11:-82.0 12:-81.0 13:-95.0 14:-95.0 15:-95.0 16:-95.0 17:-95.0 18:-73.0 
-0.0 -0.0 -0.0 -0.0 2.8020199998732997E-8 0.0 0.0 0.0 0.0 0.0 0.0 0.0 0.0 0.0 1:-75.0 2:-65.0 3:-57.0 4:-51.0 5:-48.0 6:-71.0 7:-95.0 8:-95.0 9:-63.0 10:-61.0 11:-82.0 12:-81.0 13:-95.0 14:-95.0 15:-95.0 16:-95.0 17:-95.0 18:-73.0 
-0.0 -0.0 -0.0 -0.0 0.0 0.0 0.0 0.0 0.0 0.0 0.0 0.0 3.0899270528702383E-9 0.0 1:-72.0 2:-61.0 3:-60.0 4:-48.0 5:-58.0 6:-76.0 7:-95.0 8:-74.0 9:-51.0 10:-54.0 11:-83.0 12:-95.0 13:-95.0 14:-95.0 15:-95.0 16:-95.0 17:-95.0 18:-66.0 
-0.0 -0.0 -0.0 -0.0 0.0 0.0 0.0 1.4590745601841057E-12 0.0 0.0 0.0 0.0 0.0 0.0 1:-95.0 2:-61.0 3:-56.0 4:-58.0 5:-46.0 6:-75.0 7:-95.0 8:-83.0 9:-56.0 10:-67.0 11:-78.0 12:-82.0 13:-82.0 14:-95.0 15:-95.0 16:-95.0 17:-95.0 18:-65.0 
-3.326008278130961E-11 -0.0 -0.0 -0.0 -3.46364119845345E-8 0.0 0.0 0.0 0.0 0.0 0.0 0.0 0.0 0.0 1:-95.0 2:-60.0 3:-66.0 4:-54.0 5:-64.0 6:-95.0 7:-95.0 8:-95.0 9:-60.0 10:-62.0 11:-95.0 12:-95.0 13:-95.0 14:-95.0 15:-95.0 16:-95.0 17:-95.0 18:-95.0 
-0.0 -0.0 -0.0 -0.0 -1.9014598090955307E-8 0.0 0.0 0.0 0.0 0.0 0.0 0.0 0.0 0.0 1:-81.0 2:-69.0 3:-61.0 4:-59.0 5:-58.0 6:-65.0 7:-81.0 8:-95.0 9:-55.0 10:-55.0 11:-95.0 12:-95.0 13:-95.0 14:-95.0 15:-95.0 16:-95.0 17:-95.0 18:-95.0 
-0.0 -3.6229890646876625E-11 -0.0 -0.0 -0.0 0.0 0.0 0.0 0.0 0.0 0.0 0.0 0.0 0.0 1:-81.0 2:-76.0 3:-62.0 4:-59.0 5:-58.0 6:-65.0 7:-81.0 8:-95.0 9:-57.0 10:-71.0 11:-80.0 12:-95.0 13:-95.0 14:-95.0 15:-95.0 16:-95.0 17:-95.0 18:-72.0 
-0.0 -0.0 -0.0 -0.0 -4.095984065395859E-8 0.0 0.0 0.0 0.0 0.0 0.0 0.0 0.0 0.0 1:-95.0 2:-69.0 3:-55.0 4:-47.0 5:-36.0 6:-68.0 7:-95.0 8:-91.0 9:-55.0 10:-56.0 11:-76.0 12:-81.0 13:-95.0 14:-95.0 15:-95.0 16:-95.0 17:-95.0 18:-76.0 
-0.0 -0.0 -0.0 -0.0 -2.86437095884824E-8 0.0 0.0 0.0 0.0 0.0 0.0 0.0 0.0 0.0 1:-95.0 2:-73.0 3:-54.0 4:-52.0 5:-55.0 6:-65.0 7:-95.0 8:-91.0 9:-61.0 10:-58.0 11:-76.0 12:-78.0 13:-95.0 14:-95.0 15:-95.0 16:-95.0 17:-95.0 18:-76.0 
-6.525717245733082E-12 -1.0206134665436013E-10 -0.0 -0.0 -0.0 0.0 0.0 0.0 0.0 0.0 0.0 0.0 0.0 0.0 1:-78.0 2:-68.0 3:-63.0 4:-58.0 5:-45.0 6:-82.0 7:-95.0 8:-95.0 9:-65.0 10:-61.0 11:-78.0 12:-84.0 13:-95.0 14:-95.0 15:-95.0 16:-89.0 17:-95.0 18:-80.0 
-0.0 -0.0 -0.0 -0.0 -6.752197974545708E-8 0.0 0.0 0.0 0.0 0.0 0.0 0.0 0.0 0.0 1:-78.0 2:-70.0 3:-59.0 4:-58.0 5:-43.0 6:-82.0 7:-95.0 8:-86.0 9:-64.0 10:-62.0 11:-78.0 12:-84.0 13:-95.0 14:-95.0 15:-95.0 16:-89.0 17:-95.0 18:-80.0 
-0.0 -0.0 -0.0 -0.0 -5.559748132565578E-10 0.0 0.0 0.0 0.0 0.0 0.0 0.0 0.0 0.0 1:-78.0 2:-76.0 3:-58.0 4:-53.0 5:-48.0 6:-67.0 7:-95.0 8:-86.0 9:-64.0 10:-67.0 11:-78.0 12:-84.0 13:-95.0 14:-95.0 15:-95.0 16:-89.0 17:-95.0 18:-80.0 
-0.0 -0.0 -0.0 -0.0 -1.1619916294416349E-7 0.0 0.0 0.0 0.0 0.0 0.0 0.0 0.0 0.0 1:-78.0 2:-65.0 3:-58.0 4:-50.0 5:-47.0 6:-64.0 7:-95.0 8:-86.0 9:-64.0 10:-58.0 11:-81.0 12:-95.0 13:-95.0 14:-95.0 15:-95.0 16:-95.0 17:-95.0 18:-95.0 
-0.0 -0.0 -0.0 -0.0 -0.0 0.0 0.0 0.0 0.0 0.0 0.0 9.206670739387033E-13 0.0 0.0 1:-95.0 2:-73.0 3:-66.0 4:-61.0 5:-61.0 6:-66.0 7:-88.0 8:-95.0 9:-69.0 10:-70.0 11:-86.0 12:-84.0 13:-95.0 14:-95.0 15:-95.0 16:-92.0 17:-95.0 18:-80.0 
-0.0 -0.0 -0.0 -0.0 -9.696009300010633E-9 0.0 0.0 0.0 0.0 0.0 0.0 0.0 0.0 0.0 1:-84.0 2:-69.0 3:-55.0 4:-56.0 5:-48.0 6:-69.0 7:-87.0 8:-95.0 9:-68.0 10:-57.0 11:-74.0 12:-95.0 13:-95.0 14:-95.0 15:-95.0 16:-95.0 17:-95.0 18:-95.0 
-0.0 -0.0 -0.0 -0.0 -6.149616087470525E-7 0.0 0.0 0.0 0.0 0.0 0.0 0.0 0.0 0.0 1:-84.0 2:-70.0 3:-53.0 4:-54.0 5:-59.0 6:-74.0 7:-87.0 8:-95.0 9:-65.0 10:-62.0 11:-74.0 12:-95.0 13:-95.0 14:-95.0 15:-95.0 16:-95.0 17:-95.0 18:-83.0 
-0.0 -0.0 -8.66083768560611E-11 -0.0 -0.0 0.0 0.0 0.0 0.0 0.0 0.0 0.0 0.0 0.0 1:-84.0 2:-68.0 3:-56.0 4:-56.0 5:-60.0 6:-68.0 7:-87.0 8:-95.0 9:-65.0 10:-60.0 11:-95.0 12:-95.0 13:-95.0 14:-90.0 15:-93.0 16:-95.0 17:-95.0 18:-83.0 
-0.0 -0.0 -0.0 -0.0 -1.3207641959537056E-8 0.0 0.0 0.0 0.0 0.0 0.0 0.0 8.144852428826388E-10 0.0 1:-83.0 2:-73.0 3:-66.0 4:-56.0 5:-57.0 6:-75.0 7:-95.0 8:-95.0 9:-55.0 10:-60.0 11:-73.0 12:-95.0 13:-85.0 14:-90.0 15:-93.0 16:-95.0 17:-95.0 18:-83.0 
-0.0 -0.0 -0.0 -0.0 -0.0 0.0 0.0 0.0 0.0 0.0 0.0 7.475648305705686E-12 0.0 0.0 1:-83.0 2:-79.0 3:-66.0 4:-65.0 5:-48.0 6:-69.0 7:-95.0 8:-95.0 9:-61.0 10:-70.0 11:-73.0 12:-95.0 13:-85.0 14:-90.0 15:-93.0 16:-95.0 17:-95.0 18:-83.0 
-0.0 -6.966077898968887E-11 -3.8441652605316385E-10 -1.1145367987212265E-9 -2.109731047907451E-6 0.0 0.0 0.0 0.0 0.0 0.0 0.0 3.332321882558995E-9 0.0 1:-79.0 2:-62.0 3:-58.0 4:-55.0 5:-51.0 6:-74.0 7:-95.0 8:-92.0 9:-63.0 10:-57.0 11:-75.0 12:-95.0 13:-95.0 14:-95.0 15:-95.0 16:-95.0 17:-95.0 18:-80.0 
-0.0 -0.0 -0.0 -0.0 -3.373183501792231E-7 0.0 0.0 0.0 0.0 0.0 0.0 0.0 0.0 0.0 1:-79.0 2:-77.0 3:-58.0 4:-55.0 5:-52.0 6:-74.0 7:-95.0 8:-92.0 9:-60.0 10:-57.0 11:-75.0 12:-95.0 13:-95.0 14:-95.0 15:-95.0 16:-95.0 17:-95.0 18:-80.0 
-0.0 -0.0 -7.628901247640012E-11 -3.8344559434237267E-10 -2.0589149367769762E-8 0.0 0.0 0.0 0.0 0.0 0.0 0.0 3.3631221840138234E-10 0.0 1:-79.0 2:-60.0 3:-57.0 4:-54.0 5:-52.0 6:-66.0 7:-95.0 8:-95.0 9:-54.0 10:-64.0 11:-83.0 12:-95.0 13:-95.0 14:-95.0 15:-95.0 16:-95.0 17:-95.0 18:-80.0 
-0.0 -0.0 -0.0 -0.0 -0.0 0.0 0.0 0.0 0.0 0.0 0.0 0.0 2.3714615196415787E-9 0.0 1:-95.0 2:-64.0 3:-56.0 4:-54.0 5:-58.0 6:-64.0 7:-95.0 8:-95.0 9:-57.0 10:-55.0 11:-83.0 12:-95.0 13:-95.0 14:-95.0 15:-95.0 16:-95.0 17:-95.0 18:-80.0 
-0.0 -0.0 -0.0 -0.0 -0.0 1.1096291534736402E-10 0.0 0.0 0.0 0.0 0.0 0.0 0.0 0.0 1:-88.0 2:-79.0 3:-67.0 4:-56.0 5:-51.0 6:-61.0 7:-73.0 8:-95.0 9:-66.0 10:-63.0 11:-78.0 12:-95.0 13:-95.0 14:-95.0 15:-95.0 16:-95.0 17:-95.0 18:-86.0 
-0.0 -0.0 -0.0 -0.0 -0.0 0.0 0.0 3.547898647778594E-12 0.0 0.0 0.0 0.0 0.0 0.0 1:-88.0 2:-77.0 3:-67.0 4:-58.0 5:-55.0 6:-76.0 7:-73.0 8:-95.0 9:-66.0 10:-67.0 11:-78.0 12:-95.0 13:-95.0 14:-95.0 15:-95.0 16:-95.0 17:-95.0 18:-86.0 
-0.0 -0.0 -0.0 -0.0 -1.8165469307371804E-8 0.0 0.0 0.0 0.0 0.0 0.0 0.0 0.0 0.0 1:-82.0 2:-72.0 3:-73.0 4:-59.0 5:-55.0 6:-68.0 7:-95.0 8:-95.0 9:-58.0 10:-64.0 11:-70.0 12:-95.0 13:-95.0 14:-95.0 15:-95.0 16:-95.0 17:-95.0 18:-95.0 
-9.71041538460933E-11 -0.0 -0.0 -0.0 -0.0 0.0 0.0 0.0 0.0 0.0 0.0 0.0 0.0 0.0 1:-82.0 2:-79.0 3:-74.0 4:-67.0 5:-60.0 6:-70.0 7:-95.0 8:-95.0 9:-70.0 10:-73.0 11:-95.0 12:-95.0 13:-95.0 14:-95.0 15:-95.0 16:-95.0 17:-95.0 18:-95.0 
-0.0 -0.0 -0.0 -0.0 -0.0 0.0 0.0 0.0 0.0 0.0 0.0 0.0 3.573503149619091E-10 0.0 1:-85.0 2:-62.0 3:-58.0 4:-52.0 5:-50.0 6:-61.0 7:-95.0 8:-95.0 9:-61.0 10:-62.0 11:-80.0 12:-95.0 13:-88.0 14:-95.0 15:-95.0 16:-95.0 17:-95.0 18:-74.0 
-0.0 -0.0 -0.0 -0.0 -6.37639362346522E-9 0.0 0.0 0.0 0.0 0.0 0.0 0.0 0.0 0.0 1:-85.0 2:-62.0 3:-58.0 4:-53.0 5:-42.0 6:-61.0 7:-77.0 8:-95.0 9:-61.0 10:-54.0 11:-80.0 12:-95.0 13:-88.0 14:-95.0 15:-95.0 16:-95.0 17:-95.0 18:-74.0 
-0.0 -0.0 -0.0 -3.0253143218432044E-10 -3.233554998006059E-7 0.0 0.0 0.0 1.060058174601535E-9 2.2181005538330714E-10 1.3648308639475762E-11 0.0 1.740629189433376E-9 8.266754380286591E-10 1:-85.0 2:-60.0 3:-57.0 4:-54.0 5:-51.0 6:-66.0 7:-77.0 8:-95.0 9:-55.0 10:-53.0 11:-70.0 12:-79.0 13:-95.0 14:-95.0 15:-95.0 16:-95.0 17:-95.0 18:-70.0 
-0.0 -0.0 -0.0 -0.0 -0.0 2.8272738458081883E-10 0.0 0.0 0.0 0.0 0.0 0.0 0.0 0.0 1:-95.0 2:-68.0 3:-68.0 4:-52.0 5:-54.0 6:-66.0 7:-77.0 8:-95.0 9:-63.0 10:-57.0 11:-70.0 12:-89.0 13:-95.0 14:-95.0 15:-95.0 16:-95.0 17:-95.0 18:-77.0 
-0.0 -0.0 -0.0 -0.0 -0.0 0.0 5.099447700214733E-11 7.584383396439584E-12 0.0 0.0 0.0 0.0 0.0 0.0 1:-95.0 2:-72.0 3:-68.0 4:-54.0 5:-53.0 6:-66.0 7:-77.0 8:-95.0 9:-63.0 10:-70.0 11:-70.0 12:-89.0 13:-95.0 14:-95.0 15:-95.0 16:-95.0 17:-95.0 18:-77.0 
-0.0 -3.5389850587625906E-11 -0.0 -0.0 -0.0 0.0 0.0 0.0 0.0 0.0 0.0 0.0 0.0 0.0 1:-83.0 2:-69.0 3:-67.0 4:-52.0 5:-56.0 6:-70.0 7:-95.0 8:-95.0 9:-63.0 10:-70.0 11:-95.0 12:-89.0 13:-95.0 14:-95.0 15:-95.0 16:-95.0 17:-95.0 18:-77.0 
-0.0 -6.022086389605321E-11 -0.0 -0.0 -0.0 0.0 0.0 0.0 0.0 0.0 0.0 0.0 0.0 0.0 1:-83.0 2:-69.0 3:-64.0 4:-61.0 5:-57.0 6:-63.0 7:-95.0 8:-95.0 9:-70.0 10:-64.0 11:-95.0 12:-89.0 13:-95.0 14:-95.0 15:-95.0 16:-95.0 17:-95.0 18:-77.0 
-0.0 -0.0 -0.0 -0.0 -3.432378786705635E-8 0.0 0.0 0.0 0.0 0.0 0.0 0.0 1.836300721284429E-9 0.0 1:-83.0 2:-63.0 3:-65.0 4:-58.0 5:-52.0 6:-74.0 7:-95.0 8:-88.0 9:-60.0 10:-58.0 11:-83.0 12:-83.0 13:-87.0 14:-95.0 15:-95.0 16:-95.0 17:-95.0 18:-95.0 
-0.0 -0.0 -7.458981570761582E-11 -0.0 -1.8726656922920402E-7 0.0 0.0 0.0 0.0 0.0 0.0 0.0 0.0 0.0 1:-83.0 2:-70.0 3:-61.0 4:-59.0 5:-56.0 6:-74.0 7:-95.0 8:-88.0 9:-56.0 10:-58.0 11:-83.0 12:-83.0 13:-87.0 14:-95.0 15:-95.0 16:-95.0 17:-95.0 18:-95.0 
-0.0 -0.0 -0.0 -0.0 -3.7583955545487335E-8 0.0 0.0 0.0 0.0 0.0 0.0 0.0 0.0 0.0 1:-95.0 2:-64.0 3:-58.0 4:-59.0 5:-55.0 6:-73.0 7:-95.0 8:-88.0 9:-58.0 10:-61.0 11:-83.0 12:-83.0 13:-87.0 14:-95.0 15:-95.0 16:-95.0 17:-95.0 18:-95.0 
-0.0 -0.0 -0.0 -0.0 -0.0 0.0 0.0 0.0 0.0 0.0 0.0 0.0 6.681549775407163E-10 1.1167054733663441E-10 1:-95.0 2:-74.0 3:-59.0 4:-54.0 5:-58.0 6:-71.0 7:-95.0 8:-95.0 9:-58.0 10:-52.0 11:-79.0 12:-83.0 13:-87.0 14:-95.0 15:-95.0 16:-95.0 17:-95.0 18:-77.0 
-0.0 -0.0 -0.0 -0.0 -2.18564271478202E-8 0.0 0.0 0.0 0.0 0.0 0.0 0.0 7.201287451619697E-10 0.0 1:-95.0 2:-65.0 3:-57.0 4:-59.0 5:-58.0 6:-58.0 7:-95.0 8:-95.0 9:-60.0 10:-54.0 11:-74.0 12:-95.0 13:-95.0 14:-95.0 15:-95.0 16:-86.0 17:-95.0 18:-79.0 
-0.0 -0.0 -0.0 -2.1057570008235812E-10 -0.0 0.0 0.0 0.0 0.0 0.0 0.0 0.0 1.657961284431034E-9 3.131724079933687E-10 1:-82.0 2:-75.0 3:-57.0 4:-52.0 5:-61.0 6:-58.0 7:-95.0 8:-95.0 9:-54.0 10:-56.0 11:-82.0 12:-95.0 13:-95.0 14:-95.0 15:-95.0 16:-95.0 17:-95.0 18:-75.0 
-0.0 -0.0 -0.0 -0.0 -5.1494673221001064E-8 0.0 0.0 0.0 0.0 0.0 0.0 0.0 0.0 0.0 1:-95.0 2:-62.0 3:-62.0 4:-48.0 5:-46.0 6:-73.0 7:-83.0 8:-95.0 9:-60.0 10:-65.0 11:-82.0 12:-95.0 13:-95.0 14:-95.0 15:-95.0 16:-88.0 17:-95.0 18:-74.0 
-0.0 -0.0 -5.676352403613294E-12 -0.0 -0.0 0.0 0.0 0.0 0.0 0.0 0.0 0.0 0.0 0.0 1:-81.0 2:-76.0 3:-59.0 4:-58.0 5:-56.0 6:-66.0 7:-95.0 8:-85.0 9:-67.0 10:-62.0 11:-95.0 12:-78.0 13:-95.0 14:-95.0 15:-95.0 16:-95.0 17:-95.0 18:-87.0 
-0.0 -0.0 -0.0 -0.0 -0.0 1.8755701238448733E-10 4.453905407876395E-11 0.0 0.0 0.0 0.0 0.0 0.0 0.0 1:-81.0 2:-78.0 3:-73.0 4:-59.0 5:-55.0 6:-56.0 7:-95.0 8:-85.0 9:-65.0 10:-60.0 11:-82.0 12:-78.0 13:-95.0 14:-95.0 15:-95.0 16:-95.0 17:-95.0 18:-79.0 
-0.0 -0.0 -0.0 -0.0 -0.0 0.0 0.0 3.470259624022563E-11 0.0 0.0 2.9748076974115795E-11 2.305348618762776E-11 0.0 0.0 1:-81.0 2:-78.0 3:-69.0 4:-59.0 5:-60.0 6:-65.0 7:-95.0 8:-85.0 9:-60.0 10:-57.0 11:-82.0 12:-78.0 13:-95.0 14:-95.0 15:-95.0 16:-95.0 17:-95.0 18:-79.0 
-0.0 -0.0 -0.0 -0.0 -0.0 4.084616130333457E-10 0.0 0.0 0.0 0.0 0.0 0.0 0.0 0.0 1:-95.0 2:-74.0 3:-57.0 4:-62.0 5:-51.0 6:-59.0 7:-79.0 8:-95.0 9:-63.0 10:-59.0 11:-76.0 12:-95.0 13:-95.0 14:-95.0 15:-95.0 16:-95.0 17:-95.0 18:-83.0 
-0.0 -0.0 -0.0 -0.0 -2.2845782785669177E-7 0.0 0.0 0.0 0.0 0.0 0.0 0.0 0.0 0.0 1:-95.0 2:-63.0 3:-60.0 4:-54.0 5:-54.0 6:-73.0 7:-87.0 8:-87.0 9:-65.0 10:-59.0 11:-77.0 12:-95.0 13:-95.0 14:-95.0 15:-93.0 16:-95.0 17:-95.0 18:-84.0 
-4.136591063035104E-11 -9.811894008136787E-12 -0.0 -0.0 -0.0 -6.759370744640752E-11 0.0 0.0 0.0 0.0 0.0 0.0 0.0 0.0 1:-95.0 2:-95.0 3:-71.0 4:-73.0 5:-67.0 6:-62.0 7:-95.0 8:-95.0 9:-95.0 10:-55.0 11:-71.0 12:-95.0 13:-95.0 14:-95.0 15:-95.0 16:-95.0 17:-95.0 18:-95.0 
-0.0 -0.0 -0.0 -0.0 -0.0 -0.0 1.0323706043699399E-11 0.0 0.0 0.0 0.0 0.0 0.0 0.0 1:-95.0 2:-95.0 3:-74.0 4:-72.0 5:-64.0 6:-56.0 7:-67.0 8:-79.0 9:-57.0 10:-56.0 11:-65.0 12:-82.0 13:-95.0 14:-92.0 15:-95.0 16:-95.0 17:-95.0 18:-67.0 
-0.0 -0.0 -0.0 -0.0 -0.0 -7.964059211935061E-11 0.0 0.0 0.0 0.0 0.0 0.0 0.0 0.0 1:-95.0 2:-95.0 3:-69.0 4:-63.0 5:-60.0 6:-48.0 7:-95.0 8:-88.0 9:-59.0 10:-60.0 11:-66.0 12:-79.0 13:-95.0 14:-95.0 15:-95.0 16:-90.0 17:-95.0 18:-77.0 
-0.0 -0.0 -0.0 -0.0 -0.0 -0.0 4.5163043299083437E-11 0.0 0.0 0.0 0.0 0.0 0.0 0.0 1:-95.0 2:-95.0 3:-95.0 4:-71.0 5:-65.0 6:-60.0 7:-69.0 8:-88.0 9:-61.0 10:-57.0 11:-66.0 12:-79.0 13:-95.0 14:-95.0 15:-95.0 16:-90.0 17:-95.0 18:-77.0 
-0.0 -0.0 -1.7880993269189502E-11 -0.0 -0.0 -0.0 0.0 0.0 0.0 0.0 0.0 0.0 0.0 0.0 1:-95.0 2:-79.0 3:-69.0 4:-63.0 5:-65.0 6:-58.0 7:-71.0 8:-88.0 9:-63.0 10:-56.0 11:-69.0 12:-79.0 13:-95.0 14:-95.0 15:-93.0 16:-90.0 17:-95.0 18:-95.0 
-0.0 -0.0 -0.0 -0.0 -0.0 -1.1138431556098325E-10 0.0 0.0 0.0 0.0 0.0 0.0 0.0 0.0 1:-95.0 2:-79.0 3:-68.0 4:-61.0 5:-63.0 6:-54.0 7:-71.0 8:-95.0 9:-59.0 10:-53.0 11:-70.0 12:-77.0 13:-95.0 14:-95.0 15:-93.0 16:-95.0 17:-95.0 18:-95.0 
-0.0 -1.4591821097289257E-11 -3.947954026930251E-11 -0.0 -0.0 -9.000058102775472E-11 0.0 0.0 0.0 0.0 0.0 0.0 1.118364152589107E-10 0.0 1:-95.0 2:-78.0 3:-77.0 4:-64.0 5:-66.0 6:-55.0 7:-95.0 8:-95.0 9:-65.0 10:-57.0 11:-61.0 12:-77.0 13:-95.0 14:-95.0 15:-87.0 16:-95.0 17:-95.0 18:-67.0 
-0.0 -0.0 -0.0 -0.0 -0.0 -0.0 0.0 0.0 0.0 0.0 0.0 0.0 1.0031175412598822E-11 0.0 1:-83.0 2:-74.0 3:-79.0 4:-60.0 5:-63.0 6:-52.0 7:-66.0 8:-95.0 9:-60.0 10:-50.0 11:-61.0 12:-95.0 13:-82.0 14:-95.0 15:-95.0 16:-95.0 17:-95.0 18:-68.0 
-0.0 -0.0 -0.0 -6.774752275130445E-11 -0.0 -0.0 0.0 0.0 0.0 0.0 0.0 0.0 0.0 0.0 1:-83.0 2:-70.0 3:-79.0 4:-62.0 5:-66.0 6:-47.0 7:-70.0 8:-95.0 9:-61.0 10:-52.0 11:-64.0 12:-95.0 13:-95.0 14:-95.0 15:-95.0 16:-95.0 17:-95.0 18:-68.0 
-2.78641531608567E-11 -7.528739753053702E-11 -5.1369291321768396E-11 -3.64054194921027E-11 -3.114818028660311E-11 -0.0 0.0 0.0 0.0 0.0 0.0 0.0 0.0 0.0 1:-83.0 2:-79.0 3:-66.0 4:-68.0 5:-68.0 6:-49.0 7:-74.0 8:-95.0 9:-64.0 10:-59.0 11:-77.0 12:-95.0 13:-76.0 14:-95.0 15:-95.0 16:-95.0 17:-95.0 18:-68.0 
-0.0 -0.0 -0.0 -0.0 -0.0 -0.0 0.0 0.0 0.0 4.379546905181565E-11 2.734610976237337E-11 3.600385678180587E-11 0.0 5.460255555756214E-11 1:-95.0 2:-79.0 3:-70.0 4:-65.0 5:-65.0 6:-54.0 7:-67.0 8:-80.0 9:-63.0 10:-58.0 11:-65.0 12:-66.0 13:-76.0 14:-95.0 15:-95.0 16:-95.0 17:-95.0 18:-62.0 
-0.0 -0.0 -0.0 -0.0 -0.0 -0.0 0.0 2.28456201045572E-12 0.0 5.847291600690306E-10 4.842009236869793E-11 0.0 0.0 0.0 1:-95.0 2:-79.0 3:-78.0 4:-66.0 5:-65.0 6:-57.0 7:-63.0 8:-80.0 9:-63.0 10:-55.0 11:-65.0 12:-66.0 13:-76.0 14:-95.0 15:-95.0 16:-95.0 17:-95.0 18:-67.0 
-0.0 -0.0 -0.0 -0.0 -0.0 -0.0 7.805948949941842E-11 0.0 0.0 0.0 0.0 0.0 0.0 0.0 1:-95.0 2:-95.0 3:-78.0 4:-66.0 5:-69.0 6:-53.0 7:-63.0 8:-86.0 9:-64.0 10:-61.0 11:-79.0 12:-66.0 13:-95.0 14:-95.0 15:-95.0 16:-95.0 17:-95.0 18:-68.0 
-0.0 -0.0 -6.136359560388417E-13 -0.0 -0.0 -9.360320247645639E-11 0.0 0.0 0.0 0.0 0.0 0.0 2.209739668845067E-10 0.0 1:-90.0 2:-78.0 3:-62.0 4:-55.0 5:-61.0 6:-52.0 7:-67.0 8:-86.0 9:-60.0 10:-56.0 11:-63.0 12:-95.0 13:-95.0 14:-95.0 15:-95.0 16:-95.0 17:-95.0 18:-81.0 
-0.0 -0.0 -0.0 -7.785207090360303E-12 -0.0 -0.0 0.0 0.0 0.0 0.0 0.0 0.0 0.0 0.0 1:-90.0 2:-78.0 3:-62.0 4:-61.0 5:-61.0 6:-49.0 7:-70.0 8:-95.0 9:-57.0 10:-60.0 11:-63.0 12:-95.0 13:-80.0 14:-95.0 15:-95.0 16:-95.0 17:-95.0 18:-65.0 
-0.0 -0.0 -0.0 -0.0 -0.0 -0.0 0.0 0.0 0.0 0.0 0.0 0.0 1.4045052983549213E-11 0.0 1:-90.0 2:-78.0 3:-64.0 4:-61.0 5:-62.0 6:-42.0 7:-70.0 8:-95.0 9:-54.0 10:-58.0 11:-63.0 12:-95.0 13:-80.0 14:-95.0 15:-95.0 16:-95.0 17:-95.0 18:-65.0 
-0.0 -0.0 -0.0 -0.0 -0.0 -0.0 0.0 0.0 1.3780203162457895E-10 0.0 0.0 0.0 0.0 0.0 1:-95.0 2:-78.0 3:-64.0 4:-61.0 5:-62.0 6:-50.0 7:-70.0 8:-95.0 9:-54.0 10:-57.0 11:-58.0 12:-95.0 13:-80.0 14:-95.0 15:-95.0 16:-95.0 17:-95.0 18:-65.0 
-0.0 -0.0 -0.0 -0.0 -0.0 -0.0 0.0 0.0 1.2764728559564004E-10 0.0 0.0 0.0 0.0 1.0650501677145844E-10 1:-95.0 2:-78.0 3:-65.0 4:-61.0 5:-65.0 6:-45.0 7:-66.0 8:-95.0 9:-56.0 10:-50.0 11:-74.0 12:-95.0 13:-80.0 14:-95.0 15:-95.0 16:-95.0 17:-95.0 18:-56.0 
-0.0 -0.0 -0.0 -0.0 -0.0 -0.0 3.742012051278783E-11 0.0 0.0 0.0 0.0 0.0 0.0 0.0 1:-95.0 2:-95.0 3:-73.0 4:-67.0 5:-69.0 6:-46.0 7:-60.0 8:-80.0 9:-65.0 10:-59.0 11:-61.0 12:-67.0 13:-79.0 14:-95.0 15:-95.0 16:-95.0 17:-95.0 18:-84.0 
-0.0 -0.0 -0.0 -0.0 -0.0 -0.0 0.0 2.1708961827851246E-11 0.0 0.0 0.0 0.0 0.0 0.0 1:-95.0 2:-82.0 3:-73.0 4:-67.0 5:-69.0 6:-53.0 7:-66.0 8:-80.0 9:-65.0 10:-59.0 11:-65.0 12:-67.0 13:-79.0 14:-95.0 15:-95.0 16:-95.0 17:-95.0 18:-65.0 
-0.0 -0.0 -0.0 -0.0 -0.0 -0.0 2.465920884007438E-10 7.88235071893596E-11 0.0 0.0 7.833978371523325E-12 5.3751603172028005E-12 0.0 0.0 1:-95.0 2:-82.0 3:-95.0 4:-67.0 5:-69.0 6:-51.0 7:-66.0 8:-80.0 9:-70.0 10:-58.0 11:-65.0 12:-67.0 13:-79.0 14:-95.0 15:-95.0 16:-95.0 17:-95.0 18:-65.0 
-0.0 -0.0 -0.0 -0.0 -0.0 -0.0 1.6960596997491956E-10 0.0 0.0 0.0 0.0 0.0 0.0 0.0 1:-95.0 2:-88.0 3:-95.0 4:-69.0 5:-67.0 6:-51.0 7:-68.0 8:-82.0 9:-58.0 10:-63.0 11:-69.0 12:-69.0 13:-95.0 14:-95.0 15:-95.0 16:-95.0 17:-95.0 18:-79.0 
-5.931168463656567E-12 -0.0 -0.0 -0.0 -0.0 -0.0 0.0 0.0 0.0 0.0 0.0 0.0 0.0 0.0 1:-95.0 2:-87.0 3:-77.0 4:-78.0 5:-74.0 6:-52.0 7:-77.0 8:-95.0 9:-68.0 10:-73.0 11:-66.0 12:-87.0 13:-95.0 14:-92.0 15:-95.0 16:-95.0 17:-95.0 18:-79.0 
-0.0 -0.0 -0.0 -0.0 -0.0 -0.0 0.0 0.0 0.0 0.0 0.0 0.0 1.4330305228818542E-11 0.0 1:-95.0 2:-76.0 3:-63.0 4:-68.0 5:-63.0 6:-58.0 7:-70.0 8:-79.0 9:-57.0 10:-52.0 11:-64.0 12:-82.0 13:-95.0 14:-95.0 15:-95.0 16:-95.0 17:-89.0 18:-79.0 
-0.0 -0.0 -0.0 -0.0 -0.0 -0.0 0.0 0.0 1.662329095424974E-10 0.0 0.0 0.0 0.0 5.73166130608935E-10 1:-95.0 2:-76.0 3:-63.0 4:-63.0 5:-59.0 6:-52.0 7:-70.0 8:-95.0 9:-58.0 10:-56.0 11:-66.0 12:-80.0 13:-95.0 14:-95.0 15:-95.0 16:-95.0 17:-95.0 18:-63.0 
-0.0 -0.0 -0.0 -0.0 -0.0 -0.0 0.0 0.0 0.0 0.0 0.0 0.0 0.0 8.284138919691814E-10 1:-95.0 2:-76.0 3:-63.0 4:-64.0 5:-59.0 6:-44.0 7:-70.0 8:-78.0 9:-58.0 10:-56.0 11:-58.0 12:-80.0 13:-95.0 14:-95.0 15:-95.0 16:-95.0 17:-95.0 18:-63.0 
-0.0 -0.0 -0.0 -0.0 -0.0 -0.0 0.0 0.0 1.323342779004797E-10 0.0 0.0 0.0 0.0 0.0 1:-95.0 2:-76.0 3:-63.0 4:-64.0 5:-59.0 6:-53.0 7:-70.0 8:-83.0 9:-58.0 10:-56.0 11:-58.0 12:-64.0 13:-95.0 14:-95.0 15:-95.0 16:-95.0 17:-95.0 18:-80.0 
-0.0 -0.0 -0.0 -0.0 -0.0 -8.01331879571258E-11 0.0 0.0 0.0 0.0 0.0 0.0 0.0 0.0 1:-95.0 2:-85.0 3:-61.0 4:-65.0 5:-53.0 6:-49.0 7:-71.0 8:-83.0 9:-61.0 10:-64.0 11:-77.0 12:-74.0 13:-95.0 14:-95.0 15:-91.0 16:-95.0 17:-95.0 18:-76.0 
-0.0 -0.0 -0.0 -0.0 -0.0 -0.0 0.0 0.0 0.0 0.0 0.0 5.695683358285362E-13 0.0 0.0 1:-95.0 2:-85.0 3:-83.0 4:-75.0 5:-69.0 6:-53.0 7:-67.0 8:-95.0 9:-63.0 10:-63.0 11:-64.0 12:-82.0 13:-86.0 14:-95.0 15:-95.0 16:-85.0 17:-95.0 18:-72.0 
-0.0 -0.0 -0.0 -0.0 -0.0 -3.140831457327015E-10 0.0 0.0 0.0 0.0 0.0 0.0 0.0 0.0 1:-95.0 2:-73.0 3:-65.0 4:-62.0 5:-63.0 6:-54.0 7:-66.0 8:-90.0 9:-65.0 10:-56.0 11:-76.0 12:-95.0 13:-95.0 14:-95.0 15:-95.0 16:-95.0 17:-95.0 18:-75.0 
-0.0 -2.116816949833358E-11 -4.383329663817732E-11 -0.0 -6.177649599568868E-11 -1.5327019302523592E-10 0.0 0.0 0.0 0.0 0.0 0.0 0.0 0.0 1:-95.0 2:-73.0 3:-63.0 4:-66.0 5:-65.0 6:-60.0 7:-66.0 8:-90.0 9:-65.0 10:-56.0 11:-76.0 12:-95.0 13:-95.0 14:-95.0 15:-95.0 16:-95.0 17:-95.0 18:-75.0 
-0.0 -0.0 -0.0 -6.131876322993874E-11 -1.8032364141989808E-10 -0.0 0.0 0.0 0.0 0.0 0.0 0.0 1.9805498671815472E-10 0.0 1:-88.0 2:-84.0 3:-61.0 4:-63.0 5:-61.0 6:-56.0 7:-73.0 8:-95.0 9:-58.0 10:-57.0 11:-62.0 12:-78.0 13:-83.0 14:-95.0 15:-95.0 16:-87.0 17:-95.0 18:-76.0 
-0.0 -0.0 -0.0 -0.0 -1.0835652862538689E-10 -0.0 0.0 0.0 0.0 0.0 0.0 0.0 0.0 0.0 1:-88.0 2:-84.0 3:-61.0 4:-57.0 5:-61.0 6:-50.0 7:-73.0 8:-86.0 9:-62.0 10:-58.0 11:-62.0 12:-78.0 13:-83.0 14:-95.0 15:-95.0 16:-87.0 17:-95.0 18:-76.0 
-0.0 -0.0 -0.0 -0.0 -0.0 -0.0 0.0 0.0 0.0 0.0 0.0 9.048487240395016E-13 0.0 0.0 1:-88.0 2:-84.0 3:-70.0 4:-71.0 5:-64.0 6:-50.0 7:-63.0 8:-89.0 9:-59.0 10:-65.0 11:-63.0 12:-66.0 13:-95.0 14:-95.0 15:-95.0 16:-87.0 17:-87.0 18:-68.0 
-0.0 -0.0 -0.0 -6.333190361485719E-11 -1.0374044828207538E-10 -0.0 0.0 0.0 0.0 0.0 0.0 0.0 0.0 1.8390948996773077E-10 1:-95.0 2:-79.0 3:-63.0 4:-63.0 5:-62.0 6:-57.0 7:-76.0 8:-88.0 9:-62.0 10:-52.0 11:-63.0 12:-67.0 13:-95.0 14:-95.0 15:-95.0 16:-95.0 17:-95.0 18:-72.0 
-0.0 -0.0 -1.2025231770550481E-11 -0.0 -2.83368007509856E-11 -1.488894783969955E-11 -0.0 0.0 0.0 0.0 0.0 0.0 0.0 0.0 1:-95.0 2:-95.0 3:-95.0 4:-69.0 5:-59.0 6:-61.0 7:-57.0 8:-60.0 9:-67.0 10:-60.0 11:-62.0 12:-70.0 13:-95.0 14:-95.0 15:-95.0 16:-95.0 17:-95.0 18:-95.0 
-0.0 -0.0 -0.0 -0.0 -0.0 -0.0 -0.0 0.0 0.0 0.0 0.0 0.0 0.0 5.0967866786813175E-12 1:-95.0 2:-95.0 3:-95.0 4:-69.0 5:-59.0 6:-61.0 7:-44.0 8:-65.0 9:-67.0 10:-60.0 11:-59.0 12:-66.0 13:-95.0 14:-95.0 15:-95.0 16:-95.0 17:-95.0 18:-68.0 
-0.0 -6.731860465669791E-12 -9.694750456585867E-12 -3.8170267396103483E-11 -2.6265209606858827E-11 -6.188003442519192E-11 -3.806195285997118E-10 0.0 0.0 0.0 0.0 0.0 1.862590803198886E-11 6.796438427810183E-11 1:-95.0 2:-95.0 3:-95.0 4:-69.0 5:-59.0 6:-61.0 7:-56.0 8:-66.0 9:-67.0 10:-67.0 11:-67.0 12:-64.0 13:-95.0 14:-95.0 15:-95.0 16:-95.0 17:-95.0 18:-68.0 
-0.0 -0.0 -0.0 -0.0 -0.0 -0.0 -0.0 0.0 2.619166843755443E-11 0.0 0.0 0.0 0.0 0.0 1:-95.0 2:-95.0 3:-95.0 4:-69.0 5:-59.0 6:-66.0 7:-55.0 8:-62.0 9:-69.0 10:-63.0 11:-67.0 12:-65.0 13:-95.0 14:-95.0 15:-95.0 16:-95.0 17:-95.0 18:-68.0 
-0.0 -0.0 -0.0 -0.0 -0.0 -0.0 -0.0 2.295834220828211E-11 0.0 0.0 0.0 0.0 0.0 0.0 1:-95.0 2:-95.0 3:-95.0 4:-95.0 5:-95.0 6:-65.0 7:-54.0 8:-62.0 9:-66.0 10:-71.0 11:-60.0 12:-69.0 13:-68.0 14:-81.0 15:-95.0 16:-95.0 17:-95.0 18:-66.0 
-0.0 -0.0 -0.0 -0.0 -0.0 -0.0 -0.0 0.0 0.0 0.0 0.0 0.0 1.3404983707167615E-12 6.81302059795823E-13 1:-95.0 2:-95.0 3:-85.0 4:-71.0 5:-95.0 6:-67.0 7:-42.0 8:-53.0 9:-63.0 10:-66.0 11:-59.0 12:-64.0 13:-95.0 14:-95.0 15:-84.0 16:-77.0 17:-83.0 18:-71.0 
-0.0 -0.0 -0.0 -0.0 -0.0 -0.0 -0.0 0.0 6.792872577905973E-11 0.0 0.0 0.0 0.0 0.0 1:-95.0 2:-95.0 3:-85.0 4:-71.0 5:-95.0 6:-59.0 7:-47.0 8:-56.0 9:-63.0 10:-60.0 11:-57.0 12:-65.0 13:-66.0 14:-95.0 15:-84.0 16:-77.0 17:-95.0 18:-71.0 
-0.0 -0.0 -0.0 -0.0 -0.0 -0.0 -0.0 0.0 0.0 0.0 0.0 0.0 0.0 2.038789994648452E-11 1:-95.0 2:-95.0 3:-85.0 4:-74.0 5:-95.0 6:-63.0 7:-53.0 8:-62.0 9:-64.0 10:-63.0 11:-63.0 12:-67.0 13:-66.0 14:-95.0 15:-84.0 16:-77.0 17:-95.0 18:-68.0 
-0.0 -0.0 -0.0 -0.0 -0.0 -0.0 -0.0 0.0 0.0 6.603399024425505E-11 0.0 0.0 0.0 0.0 1:-95.0 2:-95.0 3:-85.0 4:-74.0 5:-95.0 6:-63.0 7:-44.0 8:-62.0 9:-70.0 10:-58.0 11:-58.0 12:-63.0 13:-66.0 14:-95.0 15:-84.0 16:-77.0 17:-95.0 18:-64.0 
-0.0 -0.0 -0.0 -0.0 -0.0 -0.0 -1.6485373147425377E-11 0.0 0.0 0.0 0.0 0.0 0.0 0.0 1:-95.0 2:-95.0 3:-95.0 4:-74.0 5:-95.0 6:-61.0 7:-59.0 8:-70.0 9:-70.0 10:-65.0 11:-60.0 12:-64.0 13:-66.0 14:-95.0 15:-84.0 16:-95.0 17:-87.0 18:-64.0 
-6.633940028973006E-12 -1.1890805040836588E-11 -7.631996755611525E-12 -0.0 -0.0 -0.0 -5.530366577903169E-12 0.0 0.0 3.474445166747058E-11 0.0 0.0 0.0 0.0 1:-89.0 2:-95.0 3:-86.0 4:-95.0 5:-95.0 6:-66.0 7:-56.0 8:-95.0 9:-95.0 10:-62.0 11:-51.0 12:-61.0 13:-95.0 14:-82.0 15:-80.0 16:-95.0 17:-95.0 18:-64.0 
-0.0 -0.0 -0.0 -0.0 -0.0 -0.0 -0.0 0.0 0.0 0.0 3.138325413509791E-11 0.0 0.0 0.0 1:-89.0 2:-95.0 3:-86.0 4:-95.0 5:-95.0 6:-59.0 7:-49.0 8:-60.0 9:-95.0 10:-70.0 11:-58.0 12:-66.0 13:-63.0 14:-70.0 15:-69.0 16:-82.0 17:-84.0 18:-65.0 
-0.0 -0.0 -0.0 -0.0 -0.0 -0.0 -0.0 0.0 0.0 0.0 0.0 4.450555343140829E-12 0.0 0.0 1:-89.0 2:-95.0 3:-86.0 4:-95.0 5:-95.0 6:-57.0 7:-51.0 8:-60.0 9:-95.0 10:-70.0 11:-58.0 12:-66.0 13:-63.0 14:-70.0 15:-69.0 16:-82.0 17:-84.0 18:-65.0 
-0.0 -0.0 -0.0 -1.310608969303093E-11 -1.512075162228462E-11 -0.0 -0.0 0.0 1.874308907896183E-11 0.0 2.0932029900207271E-10 0.0 2.118495596843782E-11 2.850406543745416E-11 1:-89.0 2:-95.0 3:-86.0 4:-95.0 5:-85.0 6:-61.0 7:-51.0 8:-71.0 9:-64.0 10:-65.0 11:-62.0 12:-67.0 13:-63.0 14:-70.0 15:-69.0 16:-82.0 17:-84.0 18:-67.0 
-0.0 -0.0 -0.0 -0.0 -0.0 -0.0 -0.0 0.0 0.0 0.0 0.0 1.1606181477594756E-10 0.0 0.0 1:-95.0 2:-95.0 3:-95.0 4:-95.0 5:-85.0 6:-63.0 7:-58.0 8:-71.0 9:-70.0 10:-65.0 11:-62.0 12:-71.0 13:-63.0 14:-70.0 15:-69.0 16:-82.0 17:-84.0 18:-67.0 
-0.0 -0.0 -0.0 -0.0 -0.0 -0.0 -0.0 3.00602272966526E-10 0.0 0.0 0.0 0.0 0.0 0.0 1:-95.0 2:-95.0 3:-95.0 4:-95.0 5:-95.0 6:-67.0 7:-54.0 8:-61.0 9:-75.0 10:-71.0 11:-59.0 12:-67.0 13:-79.0 14:-72.0 15:-76.0 16:-95.0 17:-95.0 18:-68.0 
-0.0 -0.0 -0.0 -0.0 -0.0 -0.0 -0.0 0.0 0.0 0.0 0.0 0.0 5.0203035800207926E-11 0.0 1:-95.0 2:-95.0 3:-95.0 4:-66.0 5:-95.0 6:-62.0 7:-54.0 8:-65.0 9:-66.0 10:-64.0 11:-71.0 12:-72.0 13:-70.0 14:-86.0 15:-67.0 16:-80.0 17:-95.0 18:-71.0 
-0.0 -0.0 -0.0 -0.0 -0.0 -0.0 -6.6054853588757684E-12 0.0 0.0 0.0 0.0 0.0 0.0 0.0 1:-95.0 2:-95.0 3:-95.0 4:-66.0 5:-95.0 6:-60.0 7:-54.0 8:-69.0 9:-70.0 10:-62.0 11:-71.0 12:-72.0 13:-69.0 14:-86.0 15:-67.0 16:-95.0 17:-95.0 18:-71.0 
-4.882918466103264E-12 -2.2794042200896932E-11 -1.5545645031184138E-11 -0.0 -0.0 -7.447596876678909E-12 -0.0 0.0 0.0 0.0 0.0 0.0 0.0 0.0 1:-95.0 2:-95.0 3:-95.0 4:-66.0 5:-95.0 6:-66.0 7:-57.0 8:-69.0 9:-67.0 10:-65.0 11:-76.0 12:-95.0 13:-69.0 14:-86.0 15:-67.0 16:-95.0 17:-95.0 18:-69.0 
-0.0 -0.0 -0.0 -1.0132849176664925E-11 -1.2493231335561018E-11 -0.0 -0.0 0.0 4.5369728279464806E-12 0.0 0.0 0.0 0.0 1.897687573800351E-12 1:-95.0 2:-95.0 3:-83.0 4:-66.0 5:-95.0 6:-64.0 7:-54.0 8:-65.0 9:-65.0 10:-65.0 11:-64.0 12:-69.0 13:-69.0 14:-95.0 15:-79.0 16:-95.0 17:-95.0 18:-77.0 
-0.0 -0.0 -0.0 -0.0 -0.0 -0.0 -0.0 6.444518669583764E-11 0.0 0.0 0.0 0.0 0.0 0.0 1:-95.0 2:-95.0 3:-95.0 4:-95.0 5:-95.0 6:-67.0 7:-56.0 8:-66.0 9:-69.0 10:-64.0 11:-66.0 12:-77.0 13:-71.0 14:-76.0 15:-77.0 16:-86.0 17:-87.0 18:-69.0 
-0.0 -0.0 -0.0 -0.0 -0.0 -0.0 -0.0 3.3054709614816536E-10 0.0 0.0 0.0 0.0 0.0 0.0 1:-95.0 2:-95.0 3:-95.0 4:-79.0 5:-95.0 6:-66.0 7:-61.0 8:-59.0 9:-67.0 10:-68.0 11:-81.0 12:-68.0 13:-68.0 14:-81.0 15:-84.0 16:-95.0 17:-87.0 18:-66.0 
-0.0 -0.0 -0.0 -0.0 -0.0 -0.0 -0.0 5.449668395043611E-11 0.0 0.0 0.0 0.0 0.0 0.0 1:-95.0 2:-95.0 3:-95.0 4:-95.0 5:-95.0 6:-62.0 7:-53.0 8:-59.0 9:-70.0 10:-65.0 11:-67.0 12:-75.0 13:-68.0 14:-95.0 15:-95.0 16:-77.0 17:-95.0 18:-66.0 
-1.912894647380667E-11 -0.0 -0.0 -0.0 -0.0 -0.0 -0.0 0.0 0.0 0.0 0.0 0.0 0.0 0.0 1:-95.0 2:-95.0 3:-95.0 4:-95.0 5:-95.0 6:-69.0 7:-60.0 8:-74.0 9:-69.0 10:-68.0 11:-72.0 12:-73.0 13:-75.0 14:-95.0 15:-95.0 16:-77.0 17:-95.0 18:-82.0 
-0.0 -0.0 -0.0 -0.0 -0.0 -0.0 -0.0 1.3566945605739388E-10 0.0 0.0 1.76685159065751E-10 0.0 0.0 0.0 1:-95.0 2:-95.0 3:-95.0 4:-81.0 5:-95.0 6:-67.0 7:-57.0 8:-58.0 9:-69.0 10:-60.0 11:-65.0 12:-63.0 13:-70.0 14:-79.0 15:-79.0 16:-95.0 17:-89.0 18:-64.0 
-0.0 -0.0 -0.0 -0.0 -0.0 -0.0 -0.0 0.0 0.0 0.0 5.1541728043341117E-11 0.0 0.0 0.0 1:-95.0 2:-95.0 3:-95.0 4:-76.0 5:-95.0 6:-60.0 7:-53.0 8:-58.0 9:-65.0 10:-60.0 11:-65.0 12:-63.0 13:-61.0 14:-79.0 15:-79.0 16:-95.0 17:-89.0 18:-64.0 
-0.0 -0.0 -0.0 -0.0 -0.0 -0.0 -0.0 0.0 0.0 1.4413155948072922E-10 0.0 0.0 0.0 0.0 1:-95.0 2:-95.0 3:-95.0 4:-76.0 5:-95.0 6:-60.0 7:-50.0 8:-63.0 9:-65.0 10:-62.0 11:-60.0 12:-62.0 13:-61.0 14:-79.0 15:-79.0 16:-95.0 17:-95.0 18:-63.0 
-0.0 -0.0 -0.0 -0.0 -0.0 -0.0 -0.0 0.0 1.3799504738334934E-12 1.4208401721191742E-9 0.0 0.0 0.0 0.0 1:-95.0 2:-95.0 3:-95.0 4:-76.0 5:-95.0 6:-63.0 7:-49.0 8:-59.0 9:-63.0 10:-59.0 11:-59.0 12:-62.0 13:-67.0 14:-71.0 15:-95.0 16:-95.0 17:-89.0 18:-64.0 
-0.0 -0.0 -0.0 -0.0 -0.0 -0.0 -6.630070532121684E-11 0.0 0.0 0.0 0.0 0.0 0.0 0.0 1:-95.0 2:-95.0 3:-95.0 4:-77.0 5:-95.0 6:-59.0 7:-61.0 8:-78.0 9:-65.0 10:-67.0 11:-70.0 12:-62.0 13:-79.0 14:-71.0 15:-95.0 16:-95.0 17:-89.0 18:-85.0 
-1.4503702289278448E-11 -1.4115620123104551E-11 -7.224072149780424E-12 -0.0 -0.0 -1.1316951939340893E-11 -3.609738275302344E-11 0.0 0.0 0.0 0.0 0.0 0.0 0.0 1:-95.0 2:-95.0 3:-95.0 4:-77.0 5:-90.0 6:-60.0 7:-53.0 8:-78.0 9:-65.0 10:-67.0 11:-68.0 12:-95.0 13:-79.0 14:-71.0 15:-95.0 16:-95.0 17:-89.0 18:-85.0 
-0.0 -3.373005353729732E-12 -0.0 -0.0 -0.0 -0.0 -0.0 7.451853439083967E-10 0.0 5.96221641729373E-10 1.1153326768806294E-10 0.0 0.0 0.0 1:-95.0 2:-95.0 3:-95.0 4:-82.0 5:-85.0 6:-95.0 7:-57.0 8:-62.0 9:-70.0 10:-64.0 11:-61.0 12:-63.0 13:-68.0 14:-71.0 15:-95.0 16:-95.0 17:-95.0 18:-78.0 
-0.0 -0.0 -0.0 -0.0 -0.0 -0.0 -0.0 0.0 0.0 0.0 0.0 0.0 0.0 4.283355779769533E-12 1:-95.0 2:-91.0 3:-89.0 4:-82.0 5:-95.0 6:-62.0 7:-53.0 8:-64.0 9:-68.0 10:-63.0 11:-59.0 12:-69.0 13:-77.0 14:-95.0 15:-95.0 16:-95.0 17:-89.0 18:-66.0 
-0.0 -0.0 -0.0 -0.0 -0.0 -0.0 -7.552557597249608E-11 0.0 0.0 0.0 0.0 0.0 0.0 0.0 1:-95.0 2:-95.0 3:-95.0 4:-82.0 5:-83.0 6:-59.0 7:-63.0 8:-70.0 9:-74.0 10:-67.0 11:-71.0 12:-67.0 13:-72.0 14:-95.0 15:-95.0 16:-86.0 17:-95.0 18:-71.0 
-0.0 -0.0 -0.0 -0.0 -0.0 -0.0 -0.0 3.755242805200592E-10 0.0 0.0 0.0 0.0 0.0 0.0 1:-95.0 2:-95.0 3:-84.0 4:-95.0 5:-95.0 6:-77.0 7:-48.0 8:-62.0 9:-95.0 10:-67.0 11:-65.0 12:-66.0 13:-70.0 14:-76.0 15:-68.0 16:-87.0 17:-95.0 18:-68.0 
-1.3501899521233027E-11 -4.772501513307146E-12 -7.241890275214456E-12 -0.0 -0.0 -1.2070285236668342E-12 -0.0 -2.4781671935293693E-10 0.0 0.0 0.0 0.0 0.0 0.0 1:-95.0 2:-95.0 3:-95.0 4:-95.0 5:-95.0 6:-95.0 7:-56.0 8:-59.0 9:-95.0 10:-59.0 11:-69.0 12:-95.0 13:-66.0 14:-95.0 15:-95.0 16:-95.0 17:-95.0 18:-95.0 
-0.0 -0.0 -0.0 -0.0 -0.0 -0.0 -0.0 -0.0 0.0 0.0 1.7378285971723291E-9 0.0 0.0 0.0 1:-95.0 2:-95.0 3:-95.0 4:-95.0 5:-95.0 6:-95.0 7:-60.0 8:-47.0 9:-95.0 10:-61.0 11:-69.0 12:-60.0 13:-64.0 14:-66.0 15:-71.0 16:-69.0 17:-95.0 18:-56.0 
-0.0 -0.0 -0.0 -0.0 -0.0 -0.0 -0.0 -0.0 0.0 0.0 7.671751510751863E-9 0.0 0.0 0.0 1:-95.0 2:-95.0 3:-95.0 4:-75.0 5:-95.0 6:-95.0 7:-60.0 8:-45.0 9:-95.0 10:-63.0 11:-69.0 12:-55.0 13:-65.0 14:-61.0 15:-95.0 16:-76.0 17:-95.0 18:-58.0 
-0.0 -0.0 -0.0 -0.0 -0.0 -0.0 -0.0 -0.0 0.0 0.0 6.107173567013552E-9 0.0 0.0 0.0 1:-93.0 2:-95.0 3:-95.0 4:-75.0 5:-95.0 6:-95.0 7:-60.0 8:-48.0 9:-95.0 10:-63.0 11:-64.0 12:-62.0 13:-65.0 14:-59.0 15:-95.0 16:-79.0 17:-95.0 18:-63.0 
-0.0 -0.0 -0.0 -0.0 -0.0 -0.0 -0.0 -0.0 0.0 2.3869647425393047E-10 0.0 0.0 0.0 0.0 1:-93.0 2:-95.0 3:-95.0 4:-79.0 5:-95.0 6:-95.0 7:-67.0 8:-59.0 9:-64.0 10:-60.0 11:-64.0 12:-63.0 13:-65.0 14:-60.0 15:-80.0 16:-79.0 17:-95.0 18:-49.0 
-0.0 -0.0 -0.0 -0.0 -0.0 -0.0 -0.0 -0.0 0.0 0.0 1.8946660229985853E-7 0.0 0.0 0.0 1:-93.0 2:-95.0 3:-95.0 4:-79.0 5:-95.0 6:-95.0 7:-63.0 8:-57.0 9:-64.0 10:-61.0 11:-65.0 12:-58.0 13:-61.0 14:-66.0 15:-74.0 16:-73.0 17:-95.0 18:-54.0 
-0.0 -0.0 -0.0 -0.0 -0.0 -0.0 -0.0 -0.0 0.0 2.2953815825712591E-10 0.0 0.0 0.0 0.0 1:-95.0 2:-95.0 3:-95.0 4:-79.0 5:-95.0 6:-95.0 7:-62.0 8:-53.0 9:-66.0 10:-56.0 11:-60.0 12:-61.0 13:-64.0 14:-66.0 15:-74.0 16:-77.0 17:-95.0 18:-48.0 
-0.0 -0.0 -0.0 -0.0 -1.412287852829466E-13 -4.743820243071491E-12 -5.5013611017603964E-11 -5.4822538771130404E-11 0.0 4.4732405651068485E-10 1.1877520425524333E-10 0.0 0.0 2.2531505877679402E-11 1:-95.0 2:-95.0 3:-95.0 4:-95.0 5:-95.0 6:-74.0 7:-63.0 8:-56.0 9:-61.0 10:-61.0 11:-56.0 12:-60.0 13:-64.0 14:-95.0 15:-95.0 16:-95.0 17:-80.0 18:-59.0 
-0.0 -0.0 -0.0 -0.0 -0.0 -0.0 -0.0 -0.0 4.198622054985705E-12 0.0 0.0 0.0 0.0 0.0 1:-95.0 2:-95.0 3:-95.0 4:-95.0 5:-95.0 6:-74.0 7:-61.0 8:-45.0 9:-61.0 10:-60.0 11:-56.0 12:-61.0 13:-64.0 14:-95.0 15:-95.0 16:-95.0 17:-80.0 18:-54.0 
-0.0 -0.0 -0.0 -0.0 -0.0 -0.0 -0.0 -0.0 0.0 0.0 4.0938379125509146E-9 0.0 0.0 0.0 1:-95.0 2:-95.0 3:-95.0 4:-95.0 5:-95.0 6:-80.0 7:-61.0 8:-52.0 9:-73.0 10:-67.0 11:-57.0 12:-58.0 13:-63.0 14:-68.0 15:-95.0 16:-95.0 17:-80.0 18:-57.0 
-0.0 -0.0 -0.0 -0.0 -0.0 -0.0 -2.5616216830276492E-11 -6.801379693651382E-10 0.0 2.6377112526745997E-10 0.0 0.0 0.0 0.0 1:-95.0 2:-95.0 3:-95.0 4:-83.0 5:-95.0 6:-80.0 7:-67.0 8:-59.0 9:-75.0 10:-67.0 11:-57.0 12:-65.0 13:-67.0 14:-68.0 15:-95.0 16:-95.0 17:-95.0 18:-60.0 
-1.9791895052554667E-11 -1.2330857847044574E-11 -0.0 -0.0 -0.0 -0.0 -0.0 -0.0 0.0 0.0 0.0 2.231234322500532E-10 0.0 0.0 1:-95.0 2:-95.0 3:-95.0 4:-95.0 5:-95.0 6:-95.0 7:-95.0 8:-59.0 9:-77.0 10:-73.0 11:-72.0 12:-67.0 13:-67.0 14:-72.0 15:-95.0 16:-76.0 17:-82.0 18:-55.0 
-0.0 -0.0 -0.0 -0.0 -0.0 -0.0 -0.0 -0.0 0.0 0.0 3.951258731646092E-8 0.0 0.0 0.0 1:-95.0 2:-95.0 3:-95.0 4:-95.0 5:-95.0 6:-95.0 7:-66.0 8:-59.0 9:-76.0 10:-68.0 11:-66.0 12:-61.0 13:-66.0 14:-68.0 15:-77.0 16:-95.0 17:-95.0 18:-52.0 
-0.0 -0.0 -0.0 -0.0 -0.0 -0.0 -0.0 -0.0 0.0 0.0 5.0091873820875665E-9 0.0 0.0 0.0 1:-95.0 2:-95.0 3:-88.0 4:-95.0 5:-95.0 6:-95.0 7:-95.0 8:-53.0 9:-76.0 10:-95.0 11:-67.0 12:-66.0 13:-63.0 14:-67.0 15:-95.0 16:-95.0 17:-95.0 18:-56.0 
-1.2856856093253506E-11 -2.674618490421715E-11 -1.9515890313723935E-11 -0.0 -0.0 -2.2873569991900645E-11 -6.09716408986557E-12 -0.0 0.0 0.0 0.0 0.0 9.961057852746122E-12 0.0 1:-95.0 2:-95.0 3:-88.0 4:-78.0 5:-95.0 6:-95.0 7:-71.0 8:-63.0 9:-76.0 10:-69.0 11:-69.0 12:-66.0 13:-79.0 14:-82.0 15:-76.0 16:-82.0 17:-95.0 18:-51.0 
-0.0 -1.221937819237214E-11 -1.4447587668538469E-11 -3.007878796739377E-11 -1.946719341690235E-11 -0.0 -0.0 -0.0 8.024026839102506E-11 5.6181947034208925E-12 0.0 0.0 0.0 5.4888713469868616E-11 1:-95.0 2:-92.0 3:-80.0 4:-80.0 5:-95.0 6:-95.0 7:-71.0 8:-57.0 9:-70.0 10:-61.0 11:-66.0 12:-62.0 13:-69.0 14:-72.0 15:-95.0 16:-81.0 17:-95.0 18:-50.0 
-0.0 -0.0 -2.1744745225880737E-12 -0.0 -0.0 -0.0 -0.0 -0.0 0.0 0.0 0.0 0.0 0.0 0.0 1:-95.0 2:-92.0 3:-80.0 4:-87.0 5:-91.0 6:-95.0 7:-65.0 8:-54.0 9:-70.0 10:-68.0 11:-66.0 12:-70.0 13:-70.0 14:-79.0 15:-95.0 16:-81.0 17:-95.0 18:-57.0 
-0.0 -0.0 -0.0 -0.0 -9.039667556701406E-12 -1.701045952580484E-11 -0.0 -0.0 0.0 0.0 0.0 0.0 0.0 1.9189146529856863E-11 1:-95.0 2:-92.0 3:-80.0 4:-87.0 5:-91.0 6:-95.0 7:-65.0 8:-58.0 9:-73.0 10:-65.0 11:-66.0 12:-68.0 13:-68.0 14:-79.0 15:-95.0 16:-95.0 17:-95.0 18:-57.0 
-0.0 -0.0 -0.0 -0.0 -0.0 -0.0 -0.0 -0.0 1.4932994529532726E-11 0.0 0.0 0.0 0.0 0.0 1:-95.0 2:-92.0 3:-80.0 4:-87.0 5:-91.0 6:-95.0 7:-65.0 8:-43.0 9:-66.0 10:-66.0 11:-59.0 12:-63.0 13:-68.0 14:-75.0 15:-95.0 16:-95.0 17:-95.0 18:-60.0 
-0.0 -0.0 -0.0 -0.0 -0.0 -0.0 -0.0 -0.0 0.0 0.0 0.0 2.0102837699581363E-10 0.0 0.0 1:-95.0 2:-95.0 3:-95.0 4:-95.0 5:-95.0 6:-95.0 7:-66.0 8:-44.0 9:-80.0 10:-95.0 11:-70.0 12:-63.0 13:-66.0 14:-70.0 15:-75.0 16:-70.0 17:-79.0 18:-59.0 
-0.0 -0.0 -0.0 -0.0 -0.0 -0.0 -0.0 -0.0 0.0 0.0 6.812968482597831E-8 0.0 0.0 0.0 1:-95.0 2:-95.0 3:-95.0 4:-95.0 5:-95.0 6:-95.0 7:-95.0 8:-54.0 9:-65.0 10:-67.0 11:-72.0 12:-60.0 13:-58.0 14:-70.0 15:-80.0 16:-95.0 17:-95.0 18:-59.0 
-0.0 -0.0 -0.0 -0.0 -0.0 -0.0 -0.0 -0.0 0.0 0.0 7.860102075439929E-8 0.0 0.0 0.0 1:-95.0 2:-95.0 3:-95.0 4:-95.0 5:-95.0 6:-95.0 7:-95.0 8:-54.0 9:-65.0 10:-63.0 11:-60.0 12:-60.0 13:-58.0 14:-70.0 15:-78.0 16:-95.0 17:-95.0 18:-50.0 
-0.0 -0.0 -0.0 -0.0 -0.0 -0.0 -0.0 -0.0 0.0 0.0 2.971606227559074E-8 6.475613015838503E-11 0.0 0.0 1:-95.0 2:-95.0 3:-95.0 4:-95.0 5:-95.0 6:-95.0 7:-95.0 8:-58.0 9:-65.0 10:-59.0 11:-60.0 12:-58.0 13:-60.0 14:-69.0 15:-78.0 16:-78.0 17:-95.0 18:-52.0 
-0.0 -0.0 -0.0 -0.0 -0.0 -0.0 -0.0 -0.0 0.0 3.768271487096868E-11 0.0 0.0 0.0 0.0 1:-95.0 2:-95.0 3:-95.0 4:-69.0 5:-86.0 6:-95.0 7:-63.0 8:-51.0 9:-70.0 10:-62.0 11:-59.0 12:-64.0 13:-60.0 14:-69.0 15:-78.0 16:-78.0 17:-95.0 18:-53.0 
-0.0 -0.0 -0.0 -5.1486622403421216E-12 -5.831443729865986E-12 -0.0 -1.516405096731743E-11 -0.0 0.0 0.0 0.0 0.0 2.941785352988301E-11 0.0 1:-95.0 2:-95.0 3:-95.0 4:-69.0 5:-86.0 6:-95.0 7:-72.0 8:-55.0 9:-70.0 10:-62.0 11:-63.0 12:-64.0 13:-60.0 14:-69.0 15:-68.0 16:-78.0 17:-95.0 18:-53.0 
-0.0 -0.0 -0.0 -0.0 -0.0 -0.0 -0.0 -0.0 0.0 0.0 6.511346219370454E-8 0.0 0.0 0.0 1:-95.0 2:-95.0 3:-95.0 4:-69.0 5:-86.0 6:-95.0 7:-72.0 8:-51.0 9:-70.0 10:-62.0 11:-65.0 12:-63.0 13:-60.0 14:-69.0 15:-68.0 16:-78.0 17:-95.0 18:-50.0 
